600.11 50 14.1429 14.1429 7.26997e-06 -5.18274 1.85898e-17 0.0546624 0.0003 1.44759 3.42394 
600.11 50.4768 14.1236 14.13 -0.0121214 -5.31625 1.34186e-17 0.0546624 0.0003 0.939542 -0.458645 
600.11 50.1552 14.1366 14.128 0.0178514 -3.78242 3.01585e-17 0.0546624 0.0003 0.659119 -0.278069 
600.11 63.793 13.6067 13.6567 -0.0999675 -8.96685 1.2496e-18 0.0546624 0.0003 2.35426 -0.861264 
600.11 50 14.1429 14.1429 2.7631e-10 -5.18255 1.85861e-17 0.0546624 0.0003 -0.0771907 3.75641 
600.11 50.0266 14.1418 14.1418 -0.000240731 -6.2982 1.84565e-17 0.0546624 0.0003 0.807696 -1.57472 
600.11 49.6945 14.1552 14.1692 -0.0290171 -4.93376 8.46556e-18 0.0546624 0.0003 -2.84105 -2.01833 
600.11 50.0001 14.1429 14.1429 -9.202e-07 -5.18286 1.85857e-17 0.0546624 0.0003 2.08037 3.529 
600.11 47.1172 14.2604 14.3185 -0.114166 -4.18145 8.55788e-19 0.0546624 0.0003 -1.80854 -0.69229 
600.11 50.0009 14.1428 14.1428 -3.09416e-05 -5.18528 1.85708e-17 0.0546624 0.0003 0.774419 -2.37169 
600.11 78.8756 13.0647 12.8795 0.343342 -17.7663 1.91599e-13 0.0546624 0.0003 3.332 0.569951 
600.11 60.9257 13.7145 13.5357 0.344055 -10.9621 2.01593e-13 0.0546624 0.0003 2.98214 1.17788 
600.11 50.2382 14.1332 14.1354 -0.00424172 -5.27252 1.65801e-17 0.0546624 0.0003 1.30148 1.50033 
600.11 50.521 14.1219 14.1311 -0.0169878 -5.29689 1.17976e-17 0.0546624 0.0003 1.96877 -1.81798 
600.11 50.0026 14.1428 14.1428 -9.64419e-05 -5.18715 1.85369e-17 0.0546624 0.0003 0.192745 1.27546 
600.11 48.188 14.2165 14.2606 -0.0903075 -5.14074 1.61275e-18 0.0546624 0.0003 -3.4787 -1.45762 
600.11 49.9981 14.1429 14.1429 7.18901e-05 -5.18413 1.86218e-17 0.0546624 0.0003 -0.580867 -1.79904 
600.11 49.9577 14.1446 14.144 0.00085786 -5.53123 1.90095e-17 0.0546624 0.0003 -2.4104 2.38465 
600.11 49.8928 14.1472 14.1459 0.00210847 -5.29486 1.9654e-17 0.0546624 0.0003 -1.91034 -1.98398 
600.11 49.9997 14.1429 14.1429 -1.21219e-06 -5.56965 1.85856e-17 0.0546624 0.0003 -2.15 -3.17136 
600.11 33.8256 14.8282 14.827 0.00191011 1.45738 0.10384 1.39979 0.503 -2.54861 -0.0643605 
600.11 50.0011 14.1428 14.1428 4.99035e-05 -5.17968 1.86119e-17 0.0546624 0.0003 2.68708 -3.21599 
600.11 48.7625 14.1931 14.2345 -0.084875 -6.32793 1.86784e-18 0.0546624 0.0003 -2.05012 -1.35109 
600.11 50.1291 14.1376 14.1401 -0.00446753 -5.21185 1.64948e-17 0.0546624 0.0003 1.48461 1.85462 
600.11 50.0001 14.1429 14.1429 1.01672e-06 -5.18232 1.85867e-17 0.0546624 0.0003 2.38469 -3.49368 
600.11 49.2776 14.1721 14.1878 -0.0346461 -4.71023 7.23319e-18 0.0546624 0.0003 -3.35535 -1.7686 
600.11 48.8883 14.1879 14.1811 0.0174955 -7.15374 3.00993e-17 0.0546624 0.0003 -1.3493 -0.328095 
600.11 50 14.1429 14.1429 -1.999e-06 -5.19047 1.85851e-17 0.0546624 0.0003 0.233155 2.41819 
600.11 49.9645 14.1443 14.1472 -0.00628493 -6.12974 1.56677e-17 0.0546624 0.0003 -0.666085 -0.872049 
600.11 85.9988 12.8238 12.8477 -0.0656801 -18.6445 3.00983e-18 0.0546624 0.0003 3.26361 0.38636 
600.11 49.9951 14.1431 14.1435 -0.000973817 -5.53907 1.81009e-17 0.0546624 0.0003 -2.69968 -2.83798 
600.11 50 14.1429 14.1429 5.34731e-09 -5.84213 1.85861e-17 0.0546624 0.0003 0.742038 3.54975 
600.11 44.3848 14.3736 14.4663 -0.184621 -2.36385 1.26735e-19 0.0546624 0.0003 -3.75827 0.818721 
600.11 50.0026 14.1428 14.1428 -0.000100933 -5.18519 1.85362e-17 0.0546624 0.0003 1.98697 -2.91939 
600.11 49.7919 14.1513 14.1524 -0.00216346 -5.15145 1.75386e-17 0.0546624 0.0003 -2.52896 2.06219 
600.11 50 14.1429 14.1429 -1.16547e-06 -5.18855 1.85855e-17 0.0546624 0.0003 -0.584038 2.8963 
600.11 50.4403 14.1251 14.1124 0.0276407 -5.51505 3.94497e-17 0.0546624 0.0003 0.87137 -0.0599595 
600.11 50 14.1429 14.1429 7.11861e-11 -5.18336 1.85861e-17 0.0546624 0.0003 -0.153982 3.86855 
600.11 44.5718 14.3657 14.426 -0.11783 -3.82627 7.76179e-19 0.0546624 0.0003 -3.05828 -1.12916 
600.11 50 14.1429 14.1428 1.78681e-05 -5.18231 1.85952e-17 0.0546624 0.0003 1.30948 -3.38566 
600.11 50 14.1429 14.1429 1.00194e-06 -5.18346 1.85866e-17 0.0546624 0.0003 -0.395154 -2.56531 
600.11 50 14.1429 14.1429 2.36201e-07 -5.17241 1.85863e-17 0.0546624 0.0003 -1.56133 3.50721 
600.11 49.9715 14.144 14.1436 0.000704654 -5.17722 1.89406e-17 0.0546624 0.0003 -0.627798 -0.891482 
600.11 60.1549 13.7442 13.6873 0.155508 -9.97799 1.39432e-15 0.0546624 0.0003 3.66459 -1.00839 
600.11 50.0076 14.1426 14.1412 0.00295496 -4.82975 2.01443e-17 0.0546624 0.0003 2.21228 -2.81033 
600.11 49.6474 14.1571 14.1705 -0.0277035 -5.16939 8.77183e-18 0.0546624 0.0003 -1.20741 0.862971 
600.11 49.9948 14.1431 14.1431 -8.12228e-05 -4.80398 1.85428e-17 0.0546624 0.0003 -0.808803 1.81064 
600.11 54.6738 13.9565 13.9413 0.0298861 -6.91299 4.16117e-17 0.0546624 0.0003 2.83098 1.48019 
600.11 50.0015 14.1428 14.1428 -4.69374e-05 -5.19094 1.8563e-17 0.0546624 0.0003 2.43879 3.13147 
600.11 50.5086 14.1223 14.1234 -0.00234176 -5.38474 1.7442e-17 0.0546624 0.0003 1.25028 1.15394 
600.11 50 14.1429 14.1429 2.69226e-10 -5.18504 1.85861e-17 0.0546624 0.0003 -0.506618 3.87019 
600.11 50.2155 14.1342 14.1373 -0.00522219 -3.75394 1.61856e-17 0.0546624 0.0003 0.904567 -0.917949 
600.11 55.828 13.9112 13.9276 -0.03409 -5.6553 7.37842e-18 0.0546624 0.0003 4.05272 0.945963 
600.11 50.401 14.1267 14.1329 -0.0116205 -4.63802 1.36077e-17 0.0546624 0.0003 3.00813 -2.15064 
600.11 50.6308 14.1174 14.1144 0.00600469 -3.51937 2.18602e-17 0.0546624 0.0003 3.27524 -2.02642 
600.11 46.8277 14.2721 14.2264 0.0867455 -4.17673 1.91026e-16 0.0546624 0.0003 -1.80597 -0.614941 
600.11 50.0007 14.1428 14.1428 3.75442e-05 -5.17622 1.86056e-17 0.0546624 0.0003 2.59383 -3.26767 
600.11 49.996 14.143 14.143 0.000130373 -5.32222 1.86517e-17 0.0546624 0.0003 -0.183784 -0.401634 
600.11 48.1458 14.2181 14.2545 -0.0884265 -5.03102 1.63866e-18 0.0546624 0.0003 -2.07209 -1.21205 
600.11 91.4073 12.6467 12.7189 -0.159913 -18.5088 2.37197e-19 0.0546624 0.0003 2.75004 -0.138056 
600.11 49.9112 14.1465 14.147 -0.000351871 -5.15503 1.84471e-17 0.0546624 0.0003 -2.7593 -2.29167 
600.11 50.0012 14.1428 14.1429 -0.00017185 -5.19906 1.84999e-17 0.0546624 0.0003 0.0738853 -1.24976 
600.11 49.7959 14.1511 14.1581 -0.0145645 -5.00404 1.2521e-17 0.0546624 0.0003 -1.29005 -1.25296 
600.11 49.4624 14.1646 14.1598 0.00883916 -5.02702 2.35616e-17 0.0546624 0.0003 -3.81675 -1.69595 
600.11 53.3782 14.0076 13.9943 0.0136905 -5.77007 2.59826e-17 0.0546624 0.0003 1.83154 -1.08294 
600.11 50 14.1429 14.1429 -9.99045e-11 -5.19019 1.85861e-17 0.0546624 0.0003 0.116928 -4.15281 
600.11 49.8723 14.148 14.1457 0.00425068 -3.9915 2.08259e-17 0.0546624 0.0003 -0.835024 0.514664 
600.11 48.7808 14.1923 14.18 0.0222945 -4.97768 3.37335e-17 0.0546624 0.0003 -3.34091 1.62014 
600.11 49.9982 14.1429 14.1429 -9.64321e-06 -5.21083 1.85813e-17 0.0546624 0.0003 -1.5491 -2.64999 
600.11 50 14.1429 14.1429 2.02525e-07 -5.17622 1.85862e-17 0.0546624 0.0003 -0.249449 3.21731 
600.11 50.0815 14.1396 14.1395 0.000655922 -3.8048 1.89454e-17 0.0546624 0.0003 3.46439 2.44363 
600.11 50.0077 14.1425 14.1425 0.000146999 -4.59135 1.86579e-17 0.0546624 0.0003 1.63432 -2.57702 
600.11 56.3874 13.8894 13.9196 -0.064499 -7.25054 3.22078e-18 0.0546624 0.0003 3.10136 1.37948 
600.11 50.6197 14.1178 14.091 0.0552929 -5.68839 8.30996e-17 0.0546624 0.0003 1.54189 1.44023 
600.11 82.2949 12.9481 13.0057 -0.126794 -15.6058 5.86808e-19 0.0546624 0.0003 2.52986 0.322617 
600.11 50 14.1429 14.1429 1.22832e-05 -3.83544 1.85924e-17 0.0546624 0.0003 -0.151019 -2.23823 
600.11 51.3897 14.0869 14.0325 0.111832 -6.35114 3.84262e-16 0.0546624 0.0003 1.44197 -0.990625 
600.11 50.0021 14.1428 14.1428 -5.87567e-06 -5.18447 1.85832e-17 0.0546624 0.0003 2.54293 3.09092 
600.11 49.7196 14.1542 14.1555 -0.00231416 -5.09643 1.7475e-17 0.0546624 0.0003 -3.13166 -2.0408 
600.11 54.6556 13.9572 13.9235 0.0649929 -5.67354 1.06824e-16 0.0546624 0.0003 1.67383 -0.68173 
600.11 53.7186 13.9942 14.0282 -0.0671435 -6.09661 3.03975e-18 0.0546624 0.0003 1.44799 0.185499 
600.11 50 14.1429 14.1429 -2.23723e-09 -5.1163 1.85861e-17 0.0546624 0.0003 0.559334 -3.54851 
600.11 49.9683 14.1441 14.1435 0.00112087 -6.28836 1.91507e-17 0.0546624 0.0003 -1.39324 -1.93285 
600.11 50.0178 14.1421 14.1421 8.60905e-05 -5.21026 1.86346e-17 0.0546624 0.0003 0.3168 0.684285 
600.11 50.0107 14.1424 14.1424 0.000216778 -5.2215 1.8701e-17 0.0546624 0.0003 0.916933 1.95995 
600.11 49.9993 14.1429 14.1429 4.59935e-05 -4.36685 1.86093e-17 0.0546624 0.0003 -0.43947 1.84992 
600.11 50.0266 14.1418 14.1422 -0.000746192 -5.19036 1.82177e-17 0.0546624 0.0003 0.339937 0.446965 
600.11 49.7849 14.1515 14.1478 0.00689072 -4.9708 2.2354e-17 0.0546624 0.0003 -0.894228 -0.0816594 
600.11 60.7665 13.7209 13.8315 -0.213148 -7.51498 5.95686e-20 0.0546624 0.0003 3.77048 0.898674 
600.11 50 14.1429 14.1429 -8.30345e-07 -5.18407 1.85857e-17 0.0546624 0.0003 -1.8006 -3.75558 
600.11 50.0005 14.1428 14.1428 3.49503e-05 -5.21804 1.86041e-17 0.0546624 0.0003 0.285321 1.95459 
600.11 50.002 14.1428 14.1422 0.00138585 -3.42573 1.93021e-17 0.0546624 0.0003 0.632323 2.05588 
600.11 49.9992 14.1429 14.1429 -4.33177e-05 -5.18314 1.85644e-17 0.0546624 0.0003 -2.01616 -2.98879 
600.11 51.8669 14.0678 14.0789 -0.023104 -4.39508 9.93554e-18 0.0546624 0.0003 3.98603 1.46506 
600.11 74.1848 13.229 13.4075 -0.34231 -11.9302 1.802e-21 0.0546624 0.0003 3.25815 -0.735958 
600.11 49.9994 14.1429 14.1428 7.5905e-05 -5.10572 1.86244e-17 0.0546624 0.0003 -0.247544 -1.58805 
600.11 48.9974 14.1835 14.1736 0.0167575 -4.89801 2.89862e-17 0.0546624 0.0003 -3.68518 1.56945 
600.11 51.4024 14.0864 14.0182 0.142831 -4.89855 8.96679e-16 0.0546624 0.0003 3.20053 -1.83296 
600.11 53.1278 14.0177 14.0489 -0.0567639 -6.24948 4.07734e-18 0.0546624 0.0003 3.86395 -1.36604 
600.11 49.7489 14.153 14.16 -0.0135398 -4.97616 1.29092e-17 0.0546624 0.0003 -1.77294 -1.66891 
600.11 50 14.1429 14.1429 -4.11432e-08 -5.18723 1.85861e-17 0.0546624 0.0003 0.199123 -3.14734 
600.11 50.0007 14.1428 14.1428 8.40485e-05 -5.17687 1.86286e-17 0.0546624 0.0003 0.132275 1.59962 
600.11 48.2207 14.2151 14.2527 -0.0861606 -4.02391 1.76409e-18 0.0546624 0.0003 -1.46255 -0.0831615 
600.11 50 14.1429 14.1429 2.04507e-07 -5.1354 1.85862e-17 0.0546624 0.0003 0.752561 3.38204 
600.11 46.5096 14.2853 14.2942 -0.0153419 -3.49366 1.23588e-17 0.0546624 0.0003 -2.75245 -1.28439 
600.11 50.3314 14.1295 14.1316 -0.00424359 -4.29647 1.6577e-17 0.0546624 0.0003 2.34203 2.09281 
600.11 50.0007 14.1428 14.1428 9.40797e-05 -4.85465 1.86337e-17 0.0546624 0.0003 0.393797 2.00638 
600.11 49.9999 14.1429 14.1429 1.07889e-06 -5.19538 1.85866e-17 0.0546624 0.0003 -0.81304 2.71612 
600.11 50.0369 14.1414 14.1394 0.0039861 -4.19404 2.07052e-17 0.0546624 0.0003 1.53992 -2.19822 
600.11 50.0187 14.1421 14.1413 0.00156653 -3.42713 1.93913e-17 0.0546624 0.0003 0.449111 -1.05892 
600.11 75.6576 13.1767 13.0249 0.290247 -15.7704 4.65144e-14 0.0546624 0.0003 2.27287 0.148637 
600.11 49.8119 14.1505 14.1506 -9.01422e-05 -5.87507 1.85464e-17 0.0546624 0.0003 -2.26407 -2.00789 
600.11 50.0034 14.1427 14.1428 -9.80934e-05 -5.18249 1.85375e-17 0.0546624 0.0003 2.8818 -3.04884 
600.11 50.0645 14.1403 14.1377 0.00535602 -5.09023 2.14937e-17 0.0546624 0.0003 1.8221 2.24282 
600.11 49.9922 14.1432 14.1432 -5.77458e-05 -5.41625 1.85586e-17 0.0546624 0.0003 -0.613094 1.41309 
600.11 38.2438 14.6343 14.5661 0.133098 -0.960099 6.71019e-16 0.0546624 0.0003 -2.36447 -0.341538 
600.11 50.4397 14.1251 14.1002 0.0525804 -5.33765 7.74796e-17 0.0546624 0.0003 3.69331 -2.01393 
600.11 50 14.1429 14.1429 -1.62437e-09 -5.29382 1.85861e-17 0.0546624 0.0003 -0.0104431 3.25374 
600.11 50.7432 14.1129 14.126 -0.0240651 -4.35333 9.75759e-18 0.0546624 0.0003 3.39005 -1.96683 
600.11 50 14.1429 14.1429 2.52715e-06 -5.15681 1.85874e-17 0.0546624 0.0003 0.870462 3.16813 
600.11 50 14.1429 14.1429 -4.99087e-07 -5.18139 1.85859e-17 0.0546624 0.0003 0.203013 -2.42215 
600.11 49.5823 14.1598 14.1565 0.00650522 -4.99834 2.21556e-17 0.0546624 0.0003 -1.22287 -0.795503 
600.11 35.3989 14.7584 14.6356 0.240771 -0.146099 1.23701e-14 0.0546624 0.0003 -3.46728 0.299612 
600.11 50.0081 14.1425 14.1427 -0.000306602 -4.5968 1.84349e-17 0.0546624 0.0003 2.20359 -2.79471 
600.11 50.7741 14.1116 14.1081 0.00668658 -4.03978 2.22377e-17 0.0546624 0.0003 1.18408 0.827083 
600.11 48.7785 14.1924 14.1777 0.028471 -4.83053 3.99883e-17 0.0546624 0.0003 -1.95674 1.28489 
600.11 46.4869 14.2862 14.2371 0.0933889 -4.17703 2.28566e-16 0.0546624 0.0003 -1.87601 -0.663734 
600.11 50 14.1429 14.1429 -1.211e-06 -5.18927 1.85855e-17 0.0546624 0.0003 -0.606517 3.37982 
600.11 40.0939 14.5547 14.4735 0.160608 -2.38346 1.41887e-15 0.0546624 0.0003 -2.26757 0.389678 
600.11 49.9919 14.1432 14.1432 -5.93769e-07 -5.1813 1.85861e-17 0.0546624 0.0003 -0.25474 -0.117216 
600.11 49.8669 14.1482 14.1533 -0.0105888 -5.17139 1.39475e-17 0.0546624 0.0003 -0.793071 -0.205058 
600.11 46.7527 14.2752 14.2286 0.0883491 -4.98935 1.99461e-16 0.0546624 0.0003 -1.99908 -0.882678 
600.11 49.9629 14.1444 14.1437 0.00120597 -5.1718 1.91961e-17 0.0546624 0.0003 -0.883116 1.29718 
600.11 49.9803 14.1437 14.1445 -0.00172207 -5.28942 1.77413e-17 0.0546624 0.0003 -2.54955 -2.56599 
600.11 35.8205 14.7399 14.6949 0.0659985 -0.806498 1.03685e-16 0.0546624 0.0003 -3.13529 -0.564365 
600.11 50 14.1429 14.1429 8.56144e-06 -4.16833 1.85905e-17 0.0546624 0.0003 1.39147 3.47722 
600.11 50.0033 14.1427 14.1422 0.00111126 -5.15032 1.91586e-17 0.0546624 0.0003 0.21701 1.24981 
600.11 50.3707 14.1279 14.1286 -0.00275896 -5.43035 1.71933e-17 0.0546624 0.0003 0.831562 -0.0337151 
600.11 67.7429 13.4603 13.6065 -0.307035 -10.6737 4.44174e-21 0.0546624 0.0003 2.76109 0.924782 
600.11 49.2447 14.1735 14.2093 -0.0753543 -5.59778 2.40497e-18 0.0546624 0.0003 -3.43295 1.73902 
600.11 53.5284 14.0018 13.9985 0.0204122 -4.37034 3.34255e-17 0.0546624 0.0003 4.04799 -1.18149 
600.11 49.9908 14.1432 14.143 0.000337948 -5.25042 1.87545e-17 0.0546624 0.0003 -1.96422 2.54193 
600.11 50.0282 14.1417 14.142 -0.000780704 -5.44227 1.81927e-17 0.0546624 0.0003 0.800023 -1.54492 
600.11 50 14.1429 14.1429 2.50529e-06 -5.24335 1.85874e-17 0.0546624 0.0003 0.578113 -3.16377 
600.11 50 14.1429 14.1429 -1.88903e-09 -5.40969 1.85861e-17 0.0546624 0.0003 -0.05305 -4.04454 
600.11 50 14.1429 14.1429 8.13784e-08 -5.17845 1.85862e-17 0.0546624 0.0003 -0.669997 -3.05029 
600.11 62.4303 13.6577 13.4711 0.380757 -9.98453 5.79108e-13 0.0546624 0.0003 2.71208 -1.08539 
600.11 33.866 14.8263 14.8307 -0.00634767 1.80863 0.0854133 1.39979 0.0003 -3.33625 0.312206 
600.11 49.3886 14.1676 14.1581 0.0176265 -5.92664 2.98009e-17 0.0546624 0.0003 -3.4764 -1.78611 
600.11 50 14.1429 14.1429 -1.39423e-09 -5.22119 1.85861e-17 0.0546624 0.0003 -0.394061 -3.61311 
600.11 50.0049 14.1427 14.1415 0.00260995 -3.18287 1.99572e-17 0.0546624 0.0003 1.70945 -2.69889 
600.11 49.9838 14.1435 14.1453 -0.00391619 -6.60798 1.67078e-17 0.0546624 0.0003 -1.44223 2.13279 
600.11 58.8229 13.7951 13.8113 -0.0366007 -8.50437 6.84008e-18 0.0546624 0.0003 3.44848 1.18135 
600.11 49.9992 14.1429 14.1429 2.02404e-05 -5.18007 1.85963e-17 0.0546624 0.0003 -0.68271 2.14047 
600.11 52.0459 14.0606 14.0679 -0.0262475 -3.62131 8.87988e-18 0.0546624 0.0003 1.66511 1.11706 
600.11 50.0015 14.1428 14.1428 -4.56764e-05 -4.58701 1.85634e-17 0.0546624 0.0003 0.459969 1.91694 
600.11 50 14.1429 14.1428 3.77566e-05 -4.10382 1.86053e-17 0.0546624 0.0003 -0.0899985 -2.09575 
600.11 49.9974 14.143 14.1429 9.64947e-05 -5.1918 1.8634e-17 0.0546624 0.0003 -2.21822 -2.85375 
600.11 49.9992 14.1429 14.1429 6.34572e-06 -5.17898 1.85893e-17 0.0546624 0.0003 -2.16933 3.03133 
600.11 50.0004 14.1428 14.1428 -1.38205e-05 -5.15932 1.85793e-17 0.0546624 0.0003 1.60518 -3.07864 
600.11 50 14.1429 14.1429 8.46041e-06 -4.97736 1.85904e-17 0.0546624 0.0003 0.234359 -2.86598 
600.11 46.2174 14.2974 14.279 0.0378094 -5.17284 5.17363e-17 0.0546624 0.0003 -3.39367 -1.21529 
600.11 50 14.1429 14.1429 3.80755e-07 -5.16163 1.85863e-17 0.0546624 0.0003 -0.697745 -2.99706 
600.11 45.0817 14.3443 14.3191 0.0366096 -3.23072 4.81245e-17 0.0546624 0.0003 -3.06353 -1.17056 
600.11 49.9117 14.1464 14.1453 0.00174446 -5.17026 1.94581e-17 0.0546624 0.0003 -1.26486 -1.5174 
600.11 34.1119 14.8153 14.8121 0.00379549 1.62228 0.10825 1.39979 0.503 -3.00666 -0.474669 
600.11 50.4768 14.1236 14.13 -0.0122774 -4.05103 1.33621e-17 0.0546624 0.0003 1.95354 1.83321 
600.11 50 14.1429 14.1429 -3.4363e-09 -5.19839 1.85861e-17 0.0546624 0.0003 -0.0823083 3.72413 
600.11 87.0288 12.7896 12.7209 0.120691 -18.9344 4.63796e-16 0.0546624 0.0003 3.28147 -0.334627 
600.11 50.0011 14.1428 14.1428 8.51836e-05 -5.12685 1.86293e-17 0.0546624 0.0003 1.32885 2.75907 
600.11 50 14.1429 14.1429 -6.63612e-07 -5.18425 1.85858e-17 0.0546624 0.0003 0.676706 -3.01873 
600.11 49.9978 14.1429 14.143 -1.18578e-05 -5.18813 1.85802e-17 0.0546624 0.0003 -1.59627 -2.63621 
600.11 49.9994 14.1429 14.1428 0.000271814 -4.60447 1.87243e-17 0.0546624 0.0003 -0.164633 -1.33853 
600.11 58.699 13.7998 13.7756 0.0420144 -8.77964 5.68206e-17 0.0546624 0.0003 3.30347 -1.23234 
600.11 34.0282 14.8191 14.8268 -0.0106833 0.999197 0.0771226 1.39979 0.0003 -3.40177 -0.242982 
600.11 49.9998 14.1429 14.1429 7.64131e-06 -5.1831 1.85899e-17 0.0546624 0.0003 -1.80209 3.104 
600.11 48.6304 14.1984 14.1831 0.0347515 -4.75372 4.80286e-17 0.0546624 0.0003 -2.04059 1.30659 
600.11 46.271 14.2951 14.271 0.0490016 -3.7863 6.99471e-17 0.0546624 0.0003 -1.74509 0.266544 
600.11 58.8925 13.7922 13.6593 0.252379 -10.8759 1.6587e-14 0.0546624 0.0003 1.89986 0.615831 
600.11 50.0001 14.1429 14.1428 1.72828e-05 -4.83146 1.85949e-17 0.0546624 0.0003 2.20356 3.43323 
600.11 40.7876 14.5251 14.4851 0.0839524 -1.25377 1.8131e-16 0.0546624 0.0003 -2.24255 0.431134 
600.11 50 14.1429 14.1429 -5.59926e-06 -5.52875 1.85833e-17 0.0546624 0.0003 -0.450827 2.76817 
600.11 49.9998 14.1429 14.1429 -0.000168872 -5.00457 1.85008e-17 0.0546624 0.0003 -0.185239 1.73665 
600.11 49.9956 14.143 14.1433 -0.000586343 -5.17242 1.82927e-17 0.0546624 0.0003 -1.63961 2.52923 
600.11 50.0053 14.1426 14.1427 -0.000161969 -5.15157 1.85056e-17 0.0546624 0.0003 1.54418 2.59772 
600.11 50.0471 14.141 14.1397 0.00232788 -5.23346 1.97875e-17 0.0546624 0.0003 2.45874 -2.53627 
600.11 50 14.1429 14.1429 1.63475e-08 -5.23501 1.85861e-17 0.0546624 0.0003 0.582445 -3.73261 
600.11 49.9784 14.1437 14.1432 0.000904437 -5.17922 1.90419e-17 0.0546624 0.0003 -0.444166 -0.388202 
600.11 90.7325 12.6687 12.8092 -0.277882 -17.9076 1.01468e-20 0.0546624 0.0003 3.10945 -0.292509 
600.11 48.6885 14.1961 14.2004 -0.00776545 -4.76704 1.51041e-17 0.0546624 0.0003 -3.05036 -1.6333 
600.11 60.4771 13.7319 13.797 -0.114126 -6.71214 8.90049e-19 0.0546624 0.0003 3.9872 -0.673339 
600.11 48.2006 14.216 14.2189 -0.00462908 -4.33226 1.64555e-17 0.0546624 0.0003 -3.22805 -1.51929 
600.11 50.1645 14.1362 14.1386 -0.00459071 -4.72379 1.64302e-17 0.0546624 0.0003 2.69838 2.32546 
600.11 65.397 13.547 13.5583 0.00127478 -10.696 2.05548e-17 0.0546624 0.0003 3.58515 0.841676 
600.11 49.9927 14.1432 14.143 0.000355657 -5.17496 1.87649e-17 0.0546624 0.0003 -0.238357 0.0545186 
600.11 50.7547 14.1125 14.1246 -0.0227979 -5.39076 1.00857e-17 0.0546624 0.0003 1.74436 -1.55853 
600.11 50 14.1429 14.1429 -6.40045e-07 -5.18949 1.85858e-17 0.0546624 0.0003 -2.13398 -3.64967 
600.11 49.9435 14.1451 14.1441 0.00191041 -5.22185 1.95614e-17 0.0546624 0.0003 -2.70335 2.37985 
600.11 41.4645 14.4965 14.4416 0.134194 -2.48167 7.43284e-16 0.0546624 0.0003 -3.88576 0.224018 
600.11 50 14.1429 14.1429 -1.36479e-06 -5.06514 1.85855e-17 0.0546624 0.0003 1.33574 3.3028 
600.11 50 14.1429 14.1429 1.39033e-08 -5.11051 1.85861e-17 0.0546624 0.0003 0.987488 -3.88286 
600.11 50 14.1429 14.1429 -8.6086e-07 -5.17804 1.85857e-17 0.0546624 0.0003 -0.346006 -3.1151 
600.11 50.7612 14.1121 14.1012 0.0207584 -5.60171 3.24573e-17 0.0546624 0.0003 1.11107 0.656105 
600.11 43.1661 14.4245 14.3963 0.058334 -4.09608 9.02855e-17 0.0546624 0.0003 -4.02523 0.0344209 
600.11 54.0081 13.9826 13.8645 0.239431 -5.51846 1.21812e-14 0.0546624 0.0003 1.64763 -0.736001 
600.11 50 14.1429 14.1429 3.78164e-07 -5.1851 1.85863e-17 0.0546624 0.0003 -0.185703 3.24814 
600.11 50 14.1429 14.1429 -3.76457e-08 -5.17746 1.85861e-17 0.0546624 0.0003 0.870464 -3.58208 
600.11 71.278 13.3326 13.5121 -0.341477 -11.695 1.85555e-21 0.0546624 0.0003 2.2461 0.40663 
600.11 43.3912 14.4151 14.4696 -0.105717 -2.51307 1.07842e-18 0.0546624 0.0003 -2.12497 -0.565493 
600.11 36.7504 14.6995 14.6986 0.00246125 0.604125 0.105189 1.39979 0.503 -2.93415 0.632038 
600.11 50.0013 14.1428 14.1428 -4.74476e-05 -5.12256 1.8562e-17 0.0546624 0.0003 2.01178 3.04451 
600.11 50 14.1429 14.1429 1.65071e-07 -5.44288 1.85862e-17 0.0546624 0.0003 -0.157794 2.5681 
600.11 52.2409 14.0528 13.9848 0.137091 -6.83274 7.56726e-16 0.0546624 0.0003 1.37861 -0.558257 
600.11 51.5689 14.0797 14.0416 0.0769687 -3.50801 1.48813e-16 0.0546624 0.0003 3.69089 1.67705 
600.11 50.4022 14.1266 14.1253 0.00591243 -4.73514 2.19936e-17 0.0546624 0.0003 1.13753 -1.07401 
600.11 50.0036 14.1427 14.1428 -0.000130158 -5.15441 1.85217e-17 0.0546624 0.0003 2.04397 -2.88551 
600.11 50 14.1429 14.1429 1.84309e-08 -5.18384 1.85861e-17 0.0546624 0.0003 0.34416 -3.61049 
600.11 49.9944 14.1431 14.143 0.000192932 -5.18485 1.86823e-17 0.0546624 0.0003 -0.991428 1.99475 
600.11 34.5654 14.7953 14.7926 0.00777631 1.64649 0.120549 1.39979 0.503 -3.20604 -0.460026 
600.11 50.0058 14.1426 14.1423 0.000693855 -3.49451 1.894e-17 0.0546624 0.0003 1.10302 2.27566 
600.11 49.9996 14.1429 14.1429 -1.03511e-05 -5.18309 1.85809e-17 0.0546624 0.0003 -2.50013 3.22775 
600.11 49.5726 14.1602 14.1593 0.0044379 -5.01699 2.11042e-17 0.0546624 0.0003 -2.71578 1.92058 
600.11 50.124 14.1378 14.1262 0.024992 -5.23104 3.66762e-17 0.0546624 0.0003 1.02442 -1.36896 
600.11 33.3851 14.8476 14.8367 0.0247074 1.35731 0.177907 1.39979 0.503 -2.60393 -0.15717 
600.11 49.9993 14.1429 14.1429 -4.9759e-05 -5.27016 1.85614e-17 0.0546624 0.0003 -0.927905 -2.38679 
600.11 50 14.1429 14.1429 4.14999e-07 -5.1795 1.85863e-17 0.0546624 0.0003 -0.837765 -3.0805 
600.11 48.7126 14.195 14.1855 0.0153571 -5.81146 2.78496e-17 0.0546624 0.0003 -2.75434 1.6209 
600.11 49.999 14.1429 14.1429 3.38754e-05 -4.44315 1.8603e-17 0.0546624 0.0003 -1.01671 2.41126 
600.11 49.9992 14.1429 14.1429 2.71734e-05 -5.19594 1.85996e-17 0.0546624 0.0003 -1.54438 2.80155 
600.11 50.0022 14.1428 14.1425 0.000605046 -2.58419 1.88951e-17 0.0546624 0.0003 2.61982 -3.09361 
600.11 49.9995 14.1429 14.1429 -9.40534e-05 -5.18804 1.85388e-17 0.0546624 0.0003 -1.03215 2.55466 
600.11 56.7527 13.8753 13.8916 -0.00664522 -4.2558 1.66891e-17 0.0546624 0.0003 3.60766 -1.22023 
600.11 45.4162 14.3305 14.2786 0.100649 -3.35509 2.79444e-16 0.0546624 0.0003 -1.87348 0.417501 
600.11 51.8496 14.0685 14.0906 -0.0426793 -5.77794 5.89449e-18 0.0546624 0.0003 1.23526 -0.114419 
600.11 82.4356 12.9433 12.9426 -0.015461 -17.0613 1.17131e-17 0.0546624 0.0003 3.55568 -0.110238 
600.11 45.1263 14.3426 14.4031 -0.12136 -4.30871 6.99808e-19 0.0546624 0.0003 -3.32503 1.13063 
600.11 49.9992 14.1429 14.1429 2.74413e-05 -4.92288 1.85998e-17 0.0546624 0.0003 -1.40159 2.70799 
600.11 50.0058 14.1426 14.1426 9.32567e-06 -5.06271 1.85908e-17 0.0546624 0.0003 0.787096 -1.97122 
600.11 32.9339 14.8678 14.8626 0.00699363 1.3282 0.116589 1.39979 0.503 -2.61018 0.0603831 
600.11 49.9994 14.1429 14.1429 -0.000137571 -5.28607 1.85168e-17 0.0546624 0.0003 -0.387244 -1.85495 
600.11 50 14.1429 14.1429 1.53455e-06 -5.18441 1.85869e-17 0.0546624 0.0003 0.64219 2.91871 
600.11 50 14.1429 14.1429 -3.22116e-08 -5.30907 1.85861e-17 0.0546624 0.0003 -0.19614 -3.41783 
600.11 50 14.1429 14.1429 1.96813e-06 -4.49423 1.85872e-17 0.0546624 0.0003 0.127439 -2.39761 
600.11 49.9937 14.1431 14.143 0.000217755 -5.48193 1.86949e-17 0.0546624 0.0003 -0.695044 -1.60919 
600.11 49.6593 14.1566 14.1506 0.0111432 -4.77286 2.50474e-17 0.0546624 0.0003 -1.00884 0.15937 
600.11 50.001 14.1428 14.1428 0.000129547 -5.19048 1.86514e-17 0.0546624 0.0003 0.65657 2.24617 
600.11 50 14.1429 14.1429 -1.36338e-10 -5.15263 1.85861e-17 0.0546624 0.0003 -0.210096 -4.0284 
600.11 50.1313 14.1376 14.1401 -0.0046249 -5.24564 1.64254e-17 0.0546624 0.0003 1.01171 -1.32876 
600.11 49.9433 14.1451 14.1467 -0.00314349 -5.96464 1.70696e-17 0.0546624 0.0003 -1.60403 1.94944 
600.11 50.007 14.1426 14.1426 -0.000111189 -5.18881 1.85304e-17 0.0546624 0.0003 1.89027 -2.71307 
600.11 50 14.1429 14.1429 1.51625e-09 -5.18793 1.85861e-17 0.0546624 0.0003 -0.331862 3.55167 
600.11 32.9745 14.866 14.8345 0.0700518 0.535875 0.426711 1.39979 0.503 -3.38316 -0.104454 
600.11 51.3066 14.0902 14.0455 0.0913975 -6.08763 2.20488e-16 0.0546624 0.0003 1.51867 -1.12911 
600.11 49.9997 14.1429 14.1429 1.5004e-05 -5.15657 1.85936e-17 0.0546624 0.0003 -0.389 1.99086 
600.11 49.0383 14.1818 14.186 -0.00787765 -5.23495 1.5042e-17 0.0546624 0.0003 -3.3818 1.68182 
600.11 50.9976 14.1027 14.1196 -0.0313283 -5.24937 8.02859e-18 0.0546624 0.0003 2.29601 -1.79901 
600.11 49.9522 14.1448 14.1441 0.00123996 -5.13342 1.92161e-17 0.0546624 0.0003 -0.582988 0.267176 
600.11 60.6904 13.7239 13.8509 -0.240748 -6.27954 2.85522e-20 0.0546624 0.0003 3.11089 -1.18144 
600.11 50 14.1429 14.1429 1.34452e-09 -5.18796 1.85861e-17 0.0546624 0.0003 0.224106 -3.53718 
600.11 49.9984 14.1429 14.1437 -0.00164868 -6.13784 1.77704e-17 0.0546624 0.0003 -0.110502 -0.277869 
600.11 49.9999 14.1429 14.1429 -9.75045e-06 -5.23295 1.85812e-17 0.0546624 0.0003 -2.15472 3.29703 
600.11 50.0002 14.1428 14.1429 -6.94698e-05 -5.19749 1.85511e-17 0.0546624 0.0003 0.0108876 -1.66175 
600.11 49.9995 14.1429 14.1429 -4.87752e-05 -5.22038 1.85616e-17 0.0546624 0.0003 -1.01399 -2.55326 
600.11 47.8379 14.2308 14.2907 -0.121702 -5.09836 6.9045e-19 0.0546624 0.0003 -3.6198 1.34039 
600.11 49.7092 14.1546 14.153 0.00300747 -5.28443 2.0147e-17 0.0546624 0.0003 -2.84649 -2.03036 
600.11 50 14.1429 14.1429 -1.78646e-08 -5.1896 1.85861e-17 0.0546624 0.0003 0.298141 -3.05565 
600.11 48.9501 14.1854 14.1866 -0.00148777 -4.84768 1.78936e-17 0.0546624 0.0003 -3.03996 -1.699 
600.11 50.0774 14.1397 14.1335 0.0133243 -5.15816 2.66945e-17 0.0546624 0.0003 0.802291 -1.18728 
600.11 49.9998 14.1429 14.1429 5.09099e-06 -5.40911 1.85887e-17 0.0546624 0.0003 -1.44909 2.94703 
600.11 52.1698 14.0558 14.0843 -0.0545816 -5.80731 4.28482e-18 0.0546624 0.0003 2.42411 -1.62456 
600.11 50 14.1429 14.1429 -3.21538e-09 -5.19118 1.85861e-17 0.0546624 0.0003 0.302492 3.65164 
600.11 50.0001 14.1429 14.1428 2.64802e-05 -5.01204 1.85996e-17 0.0546624 0.0003 1.40704 -3.27902 
600.11 50 14.1429 14.1429 -1.20718e-05 -5.18009 1.858e-17 0.0546624 0.0003 -0.796505 2.84174 
600.11 50 14.1429 14.1429 -5.60697e-07 -5.18091 1.85859e-17 0.0546624 0.0003 0.913408 3.20818 
600.11 50.7042 14.1145 14.1258 -0.0212331 -5.36608 1.05176e-17 0.0546624 0.0003 1.04498 -0.501359 
600.11 48.7893 14.1919 14.1811 0.020868 -6.19624 3.25809e-17 0.0546624 0.0003 -2.47239 1.57154 
600.11 67.8006 13.4585 13.5687 -0.224971 -10.9418 4.18776e-20 0.0546624 0.0003 3.5821 -0.754925 
600.11 50.0058 14.1426 14.1426 5.85194e-05 -4.98374 1.86153e-17 0.0546624 0.0003 0.313468 -1.24833 
600.11 50 14.1429 14.1429 7.31905e-08 -5.30544 1.85862e-17 0.0546624 0.0003 -1.8295 -3.76097 
600.11 36.755 14.6992 14.6934 0.0112593 0.582235 0.129611 1.39979 0.503 -2.37239 -0.101194 
600.11 64.3288 13.5866 13.6091 -0.0640873 -8.7735 3.13104e-18 0.0546624 0.0003 3.50705 0.92979 
600.11 49.9482 14.1449 14.1448 0.000274293 -2.93205 1.87277e-17 0.0546624 0.0003 -0.584753 -0.051946 
600.11 50 14.1429 14.1429 -9.21887e-07 -5.25507 1.85857e-17 0.0546624 0.0003 0.279327 -2.5991 
600.11 56.8582 13.8709 13.7343 0.270762 -8.02124 2.81187e-14 0.0546624 0.0003 3.47181 -1.27338 
600.11 50 14.1429 14.1429 -8.96107e-07 -5.22225 1.85857e-17 0.0546624 0.0003 -1.16322 -3.38858 
600.11 50.0201 14.142 14.1417 0.000782157 -5.09936 1.89852e-17 0.0546624 0.0003 0.689272 -1.48982 
600.11 50 14.1429 14.1429 -3.18353e-07 -5.18578 1.8586e-17 0.0546624 0.0003 0.635419 -3.09307 
600.11 50 14.1429 14.1429 5.95677e-07 -5.18264 1.85864e-17 0.0546624 0.0003 0.713604 3.89899 
600.11 50 14.1429 14.1429 3.47121e-08 -5.19054 1.85862e-17 0.0546624 0.0003 -0.107871 -2.15151 
600.11 51.1515 14.0964 14.0352 0.128898 -6.00371 6.15052e-16 0.0546624 0.0003 1.532 -1.1992 
600.11 58.5422 13.806 13.894 -0.170463 -7.81038 1.88223e-19 0.0546624 0.0003 1.75666 -0.286596 
600.11 49.9996 14.1429 14.1429 -0.000131065 -5.26181 1.85199e-17 0.0546624 0.0003 -1.95296 3.07955 
600.11 50.0106 14.1424 14.142 0.00094032 -6.2114 1.9066e-17 0.0546624 0.0003 0.162983 0.279737 
600.11 50.0163 14.1422 14.1424 -0.000231075 -4.41432 1.84757e-17 0.0546624 0.0003 2.70904 -2.77143 
600.11 49.9999 14.1429 14.1429 -8.07834e-05 -5.77719 1.85452e-17 0.0546624 0.0003 -2.03437 -3.38152 
600.11 50.0013 14.1428 14.1427 0.000122874 -5.17935 1.86482e-17 0.0546624 0.0003 0.354954 -1.80492 
600.11 50.663 14.1161 14.1236 -0.0133172 -5.38057 1.30323e-17 0.0546624 0.0003 0.976996 0.200384 
600.11 41.6331 14.4892 14.424 0.12969 -2.15691 6.16552e-16 0.0546624 0.0003 -2.51556 0.786842 
600.11 47.0975 14.2611 14.2485 0.0255775 -4.97171 3.71102e-17 0.0546624 0.0003 -4.12489 0.791255 
600.11 49.9999 14.1429 14.1429 -3.60604e-06 -5.38361 1.85843e-17 0.0546624 0.0003 -1.38446 3.06799 
600.11 50 14.1429 14.1429 -5.55666e-07 -5.18249 1.85859e-17 0.0546624 0.0003 1.92512 3.66735 
600.11 49.9999 14.1429 14.1429 -2.26168e-06 -5.18504 1.8585e-17 0.0546624 0.0003 -1.7391 3.25005 
600.11 50.0014 14.1428 14.1424 0.000872425 -3.62647 1.90336e-17 0.0546624 0.0003 0.345801 -1.77656 
600.11 49.876 14.1479 14.1551 -0.0153127 -5.0325 1.22652e-17 0.0546624 0.0003 -1.03431 -1.05753 
600.11 50 14.1429 14.1429 3.61949e-08 -5.18367 1.85862e-17 0.0546624 0.0003 0.783356 -3.72057 
600.11 44.7288 14.359 14.2906 0.13071 -3.66822 6.24958e-16 0.0546624 0.0003 -2.00391 0.56046 
600.11 50 14.1429 14.1429 -7.44572e-07 -6.40423 1.85858e-17 0.0546624 0.0003 -1.04893 -3.72721 
600.11 50 14.1429 14.1429 1.07158e-07 -5.18395 1.85862e-17 0.0546624 0.0003 -1.54286 -3.66038 
600.11 49.9992 14.1429 14.1429 -6.76236e-05 -5.17936 1.85521e-17 0.0546624 0.0003 -0.667742 2.10659 
600.11 56.7274 13.8762 13.9439 -0.132059 -4.79549 5.29147e-19 0.0546624 0.0003 2.99245 1.36457 
600.11 56.1701 13.898 13.9614 -0.120894 -7.11013 7.20762e-19 0.0546624 0.0003 2.56866 1.32693 
600.11 49.9952 14.1431 14.143 0.00017737 -5.18307 1.86743e-17 0.0546624 0.0003 -2.39629 2.79185 
600.11 49.8964 14.147 14.1463 0.00139169 -5.15963 1.92978e-17 0.0546624 0.0003 -1.46737 1.67581 
600.11 40.9686 14.5176 14.4698 0.12361 -1.73933 5.66152e-16 0.0546624 0.0003 -2.19022 -0.351579 
600.11 50 14.1429 14.1429 -1.21504e-06 -5.18341 1.85855e-17 0.0546624 0.0003 -0.519026 3.02121 
600.11 50.1312 14.1376 14.1375 -0.000768453 -5.24464 1.81572e-17 0.0546624 0.0003 3.52018 -2.33486 
600.11 50 14.1429 14.1429 -2.23454e-06 -5.19013 1.8585e-17 0.0546624 0.0003 -0.541974 2.64077 
600.11 49.7122 14.1545 14.1509 0.00659913 -5.63927 2.21714e-17 0.0546624 0.0003 -1.4056 -1.27025 
600.11 40.0593 14.5563 14.5495 0.0200528 -0.969175 3.24986e-17 0.0546624 0.0003 -3.08787 0.823071 
600.11 50 14.1429 14.1429 -1.26284e-08 -5.17328 1.85861e-17 0.0546624 0.0003 -1.32445 3.91986 
600.11 50 14.1429 14.1429 8.23313e-10 -5.33394 1.85861e-17 0.0546624 0.0003 0.881394 -4.057 
600.11 51.0406 14.101 14.1178 -0.0313212 -4.48221 8.02824e-18 0.0546624 0.0003 3.55122 -1.84037 
600.11 49.9355 14.1455 14.1446 0.00167913 -5.43028 1.94446e-17 0.0546624 0.0003 -1.29239 1.6448 
600.11 50.4758 14.1237 14.1198 0.00804319 -4.62605 2.31161e-17 0.0546624 0.0003 3.34222 2.08361 
600.11 50 14.1429 14.1429 -4.78268e-07 -5.18322 1.85859e-17 0.0546624 0.0003 -0.0484845 2.38066 
600.11 62.9232 13.639 13.4619 0.340411 -12.1581 1.8237e-13 0.0546624 0.0003 3.28804 -1.06777 
600.11 49.2952 14.1714 14.1779 -0.0140747 -5.81902 1.26726e-17 0.0546624 0.0003 -2.44391 1.72324 
600.11 86.0387 12.8226 12.9133 -0.194544 -17.9258 9.34968e-20 0.0546624 0.0003 3.35892 0.297965 
600.11 50 14.1429 14.1429 1.00371e-06 -5.20738 1.85866e-17 0.0546624 0.0003 -0.914964 2.97195 
600.11 68.55 13.4308 13.2676 0.309543 -12.7964 7.80009e-14 0.0546624 0.0003 2.11273 0.285562 
600.11 50.671 14.1158 14.1261 -0.0191981 -4.8475 1.11063e-17 0.0546624 0.0003 1.50693 -1.37536 
600.11 52.2152 14.054 14.0661 -0.0177828 -5.87467 1.17046e-17 0.0546624 0.0003 1.3743 0.55469 
600.11 46.4685 14.2871 14.3439 -0.111832 -3.97137 9.10824e-19 0.0546624 0.0003 -4.13499 0.641573 
600.11 50.8471 14.1087 14.1129 -0.00731948 -4.28264 1.52937e-17 0.0546624 0.0003 2.15855 -1.78458 
600.11 50.1872 14.1353 14.123 0.0263122 -5.10815 3.79904e-17 0.0546624 0.0003 3.39786 2.28369 
600.11 50.0051 14.1426 14.1425 0.000385131 -5.28904 1.87829e-17 0.0546624 0.0003 1.64863 2.65876 
600.11 55.9295 13.9071 13.7721 0.269564 -6.12174 2.73528e-14 0.0546624 0.0003 1.95873 0.949993 
600.11 49.9931 14.1431 14.1431 8.04169e-05 -5.22342 1.86267e-17 0.0546624 0.0003 -0.681822 1.56265 
600.11 49.9562 14.1446 14.1465 -0.00407009 -5.78001 1.66384e-17 0.0546624 0.0003 -0.601025 -0.496124 
600.11 50.0524 14.1407 14.1415 -0.00144758 -3.69316 1.78782e-17 0.0546624 0.0003 3.06432 2.57225 
600.11 50.0069 14.1426 14.1427 -0.000212763 -5.14478 1.84803e-17 0.0546624 0.0003 0.46489 1.47641 
600.11 49.916 14.1463 14.1473 -0.00205302 -5.15432 1.75844e-17 0.0546624 0.0003 -0.87579 0.922455 
600.11 50 14.1429 14.1429 1.15229e-08 -4.2185 1.85861e-17 0.0546624 0.0003 -0.786901 3.57783 
600.11 50.2192 14.134 14.1374 -0.00595835 -5.55427 1.58561e-17 0.0546624 0.0003 0.814191 -0.662686 
600.11 50.0699 14.14 14.1318 0.0179244 -4.13544 3.02746e-17 0.0546624 0.0003 1.75101 2.18607 
600.11 50 14.1429 14.1429 -3.1813e-08 -3.86165 1.85861e-17 0.0546624 0.0003 -0.782804 3.63324 
600.11 49.9817 14.1436 14.1433 0.000540384 -5.04827 1.88547e-17 0.0546624 0.0003 -0.877697 1.53367 
600.11 51.3322 14.0893 14.0764 0.0303305 -4.63168 4.26265e-17 0.0546624 0.0003 2.91762 -1.85529 
600.11 49.9795 14.1437 14.1435 0.0002536 -5.22981 1.87073e-17 0.0546624 0.0003 -0.469499 -0.578024 
600.11 49.8919 14.1472 14.149 -0.00355997 -5.18287 1.68817e-17 0.0546624 0.0003 -2.31194 -2.15467 
600.11 50.0014 14.1428 14.1428 2.9079e-06 -5.18589 1.85875e-17 0.0546624 0.0003 1.26172 2.67022 
600.11 50 14.1429 14.1429 2.85268e-09 -4.95291 1.85861e-17 0.0546624 0.0003 0.10272 3.57087 
600.11 50 14.1429 14.1429 -3.27668e-07 -5.26106 1.8586e-17 0.0546624 0.0003 -1.03648 3.1484 
600.11 49.9974 14.143 14.1435 -0.00120944 -5.462 1.79836e-17 0.0546624 0.0003 -0.276997 1.12677 
600.11 47.003 14.2649 14.2213 0.0826522 -4.34477 1.71086e-16 0.0546624 0.0003 -3.33829 -1.32103 
600.11 50.9665 14.1039 14.0503 0.112975 -5.9155 3.99376e-16 0.0546624 0.0003 1.20871 -0.745677 
600.11 49.9993 14.1429 14.1429 -1.77135e-05 -5.18587 1.85773e-17 0.0546624 0.0003 -0.880689 -2.34669 
600.11 33.0387 14.8631 14.861 0.00468152 1.51148 0.11147 1.39979 0.503 -3.38582 0.111707 
600.11 48.144 14.2182 14.2002 0.0355579 -4.63132 4.84788e-17 0.0546624 0.0003 -3.18922 1.51448 
600.11 50.0063 14.1426 14.1424 0.000603959 -3.42768 1.88981e-17 0.0546624 0.0003 2.83909 2.94554 
600.11 53.3305 14.0096 13.9884 0.0630096 -6.25021 1.0793e-16 0.0546624 0.0003 1.7215 0.957291 
600.11 43.8308 14.3967 14.4776 -0.158521 -2.24862 2.58642e-19 0.0546624 0.0003 -3.85242 0.652999 
600.11 50 14.1429 14.1429 -4.23394e-09 -5.21554 1.85861e-17 0.0546624 0.0003 -0.408109 -3.69617 
600.11 57.469 13.8473 13.8534 -0.016479 -8.35934 1.17735e-17 0.0546624 0.0003 1.98523 -0.854567 
600.11 50.0296 14.1417 14.1415 0.000435086 -4.49027 1.88081e-17 0.0546624 0.0003 0.344434 0.347874 
600.11 49.9979 14.1429 14.1432 -0.000501151 -5.34819 1.83344e-17 0.0546624 0.0003 -0.521064 1.67774 
600.11 50 14.1429 14.1429 -1.39671e-07 -5.17262 1.85861e-17 0.0546624 0.0003 0.859683 -3.33638 
600.11 49.9611 14.1444 14.1446 -0.000168214 -5.6108 1.85068e-17 0.0546624 0.0003 -2.22472 -2.34858 
600.11 91.4482 12.6454 12.7691 -0.258083 -17.6553 1.67921e-20 0.0546624 0.0003 2.94429 -0.278253 
600.11 50 14.1429 14.1429 -4.84205e-06 -5.26784 1.85837e-17 0.0546624 0.0003 -1.25485 -3.17905 
600.11 50.0945 14.139 14.1395 -0.00100018 -5.06353 1.80894e-17 0.0546624 0.0003 1.05509 1.50308 
600.11 50.0977 14.1389 14.138 0.00214354 -5.22723 1.97106e-17 0.0546624 0.0003 1.3724 1.83311 
600.11 50.0142 14.1423 14.1412 0.00221761 -4.7821 1.97408e-17 0.0546624 0.0003 2.07281 -2.65336 
600.11 49.4496 14.1652 14.1935 -0.0598903 -5.66059 3.65698e-18 0.0546624 0.0003 -2.68363 1.84978 
600.11 49.9933 14.1431 14.143 0.000174501 -5.18071 1.86735e-17 0.0546624 0.0003 -2.08923 2.64739 
600.11 49.6126 14.1585 14.1783 -0.0415863 -5.64887 6.01224e-18 0.0546624 0.0003 -3.60705 -1.87014 
600.11 50 14.1429 14.1429 -2.22431e-07 -5.21994 1.8586e-17 0.0546624 0.0003 -0.882611 -3.85712 
600.11 49.914 14.1463 14.145 0.00244555 -5.51047 1.98469e-17 0.0546624 0.0003 -2.64764 -2.28378 
600.11 50.0677 14.1401 14.1412 -0.00205776 -5.26701 1.75887e-17 0.0546624 0.0003 2.45433 2.46376 
600.11 49.4897 14.1635 14.1548 0.0160908 -5.07713 2.86031e-17 0.0546624 0.0003 -2.97241 -1.89567 
600.11 50.0102 14.1424 14.1425 -6.52872e-05 -5.18707 1.85508e-17 0.0546624 0.0003 0.956227 -2.01081 
600.11 50.0056 14.1426 14.1414 0.00268924 -5.04608 1.99992e-17 0.0546624 0.0003 0.126445 -0.680378 
600.11 50 14.1429 14.1429 -1.78537e-10 -5.16327 1.85861e-17 0.0546624 0.0003 0.02922 4.00865 
600.11 49.9904 14.1432 14.1433 -4.97566e-05 -5.18392 1.85601e-17 0.0546624 0.0003 -2.58115 -2.70405 
600.11 50 14.1429 14.1429 7.10906e-07 -5.18819 1.85865e-17 0.0546624 0.0003 1.22191 3.47257 
600.11 50.3095 14.1304 14.1132 0.0359546 -5.44034 4.92795e-17 0.0546624 0.0003 0.909005 -0.713226 
600.11 49.0214 14.1825 14.1695 0.024851 -6.12201 3.62516e-17 0.0546624 0.0003 -2.79811 -1.70755 
600.11 50.094 14.1391 14.1389 0.000160827 -5.10029 1.86628e-17 0.0546624 0.0003 0.555767 0.270608 
600.11 48.1074 14.2197 14.1954 0.0467985 -4.63026 6.5429e-17 0.0546624 0.0003 -3.01159 -1.51987 
600.11 50 14.1429 14.1429 -9.40539e-07 -5.12451 1.85857e-17 0.0546624 0.0003 0.521082 -2.80501 
600.11 50 14.1429 14.1429 1.80416e-06 -3.95064 1.85871e-17 0.0546624 0.0003 1.84713 -3.70968 
600.11 34.5107 14.7977 14.7427 0.124211 0.47293 0.765982 1.39979 0.503 -3.49718 0.0555211 
600.11 49.2932 14.1715 14.1661 0.0112693 -5.30022 2.52257e-17 0.0546624 0.0003 -1.41021 -0.865013 
600.11 48.2084 14.2156 14.2404 -0.0648119 -4.18171 3.10253e-18 0.0546624 0.0003 -4.06216 -1.11155 
600.11 44.8002 14.3562 14.411 -0.100137 -2.83407 1.27609e-18 0.0546624 0.0003 -3.65337 0.945378 
600.11 49.9829 14.1435 14.1436 -4.87816e-05 -5.10418 1.85693e-17 0.0546624 0.0003 -0.786062 1.42173 
600.11 49.9998 14.1429 14.1429 1.62421e-06 -5.19471 1.85869e-17 0.0546624 0.0003 -2.13463 -3.24698 
600.11 49.9993 14.1429 14.1429 -2.83266e-05 -5.18813 1.85721e-17 0.0546624 0.0003 -0.504832 -1.9596 
600.11 50.6237 14.1177 14.0867 0.0647195 -4.35763 1.07477e-16 0.0546624 0.0003 1.03007 -0.559902 
600.11 49.9993 14.1429 14.1429 -2.21528e-05 -5.13022 1.85757e-17 0.0546624 0.0003 -0.15674 1.24369 
600.11 49.9999 14.1429 14.1429 2.70105e-06 -4.98443 1.85875e-17 0.0546624 0.0003 -2.08112 3.34075 
600.11 50 14.1429 14.1429 -2.94732e-09 -5.11942 1.85861e-17 0.0546624 0.0003 -0.344183 -3.81079 
600.11 37.7119 14.6574 14.6566 0.00241008 0.202341 0.105404 1.39979 0.503 -2.84316 -0.67287 
600.11 50.0023 14.1428 14.1426 0.000381788 -5.20501 1.87801e-17 0.0546624 0.0003 1.51413 2.73656 
600.11 36.2349 14.7218 14.6505 0.146754 -0.39781 9.90797e-16 0.0546624 0.0003 -3.48831 -0.357181 
600.11 49.9794 14.1437 14.1434 0.000460111 -5.19183 1.88138e-17 0.0546624 0.0003 -1.52792 2.13884 
600.11 49.9955 14.143 14.1431 -0.000183083 -5.54483 1.84921e-17 0.0546624 0.0003 -2.39145 2.80306 
600.11 67.1359 13.4828 13.516 -0.0659895 -11.8814 3.13359e-18 0.0546624 0.0003 2.70079 0.925525 
600.11 50.0001 14.1429 14.1429 -1.48597e-07 -5.09941 1.85861e-17 0.0546624 0.0003 0.294883 2.41164 
600.11 50.5683 14.1199 14.1292 -0.0168087 -3.0565 1.18585e-17 0.0546624 0.0003 1.8711 -1.73466 
600.11 50 14.1429 14.1429 2.92666e-08 -5.12902 1.85862e-17 0.0546624 0.0003 0.449615 3.36004 
600.11 36.3363 14.7175 14.7154 0.010496 1.03045 0.12899 1.39979 0.503 -2.52411 0.383585 
600.11 50 14.1429 14.1429 1.3339e-06 -5.18442 1.85868e-17 0.0546624 0.0003 -1.99982 -3.41804 
600.11 50.0088 14.1425 14.1423 0.000375812 -4.02949 1.87765e-17 0.0546624 0.0003 1.31301 -2.351 
600.11 49.9994 14.1429 14.1429 -1.63727e-07 -5.20361 1.8586e-17 0.0546624 0.0003 -2.17542 3.08549 
600.11 50 14.1429 14.1429 -5.90365e-07 -5.17161 1.85858e-17 0.0546624 0.0003 1.87529 -3.58634 
600.11 49.9411 14.1452 14.1475 -0.0045921 -5.37211 1.64152e-17 0.0546624 0.0003 -3.34111 2.36546 
600.11 54.5816 13.9602 14.0118 -0.0999787 -6.66804 1.25927e-18 0.0546624 0.0003 1.56687 -0.429713 
600.11 55.4167 13.9273 13.9225 0.00443095 -7.32967 2.06652e-17 0.0546624 0.0003 3.54696 1.33259 
600.11 32.0451 14.9075 14.9053 0.00626514 1.62789 0.115876 1.39979 0.503 -2.67502 0.00774358 
600.11 57.7352 13.8371 13.8557 -0.0412531 -8.36404 6.03661e-18 0.0546624 0.0003 1.85613 0.645929 
600.11 50 14.1429 14.1429 -1.99876e-05 -5.18481 1.8576e-17 0.0546624 0.0003 -0.455749 2.52493 
600.11 50.0003 14.1428 14.1428 3.09229e-05 -5.18355 1.86017e-17 0.0546624 0.0003 1.84688 3.22386 
600.11 49.438 14.1656 14.1652 -0.00214408 -5.42294 1.73999e-17 0.0546624 0.0003 -1.40467 0.97715 
600.11 82.3657 12.9455 12.7963 0.278075 -17.1383 3.28362e-14 0.0546624 0.0003 3.07893 0.56299 
600.11 49.9992 14.1429 14.1429 -3.02456e-05 -4.74527 1.85709e-17 0.0546624 0.0003 -2.451 3.10133 
600.11 50.0001 14.1429 14.1429 -6.21065e-05 -5.20527 1.85558e-17 0.0546624 0.0003 -0.0580554 1.00438 
600.11 49.999 14.1429 14.1431 -0.00055454 -5.18898 1.83072e-17 0.0546624 0.0003 -0.500914 -1.87132 
600.11 50.005 14.1427 14.1427 -0.000103245 -4.90287 1.8536e-17 0.0546624 0.0003 2.92964 2.98601 
600.11 75.8083 13.1718 13.3551 -0.352685 -11.6907 1.35442e-21 0.0546624 0.0003 3.4856 -0.555712 
600.11 49.9897 14.1433 14.1431 0.000261462 -4.08732 1.87173e-17 0.0546624 0.0003 -0.848074 1.67063 
600.11 50 14.1429 14.1429 -3.08744e-07 -5.18286 1.8586e-17 0.0546624 0.0003 0.39437 -2.91599 
600.11 50 14.1429 14.1429 2.21186e-06 -5.08081 1.85873e-17 0.0546624 0.0003 0.254899 -2.99586 
600.11 50.0129 14.1423 14.14 0.00511177 -4.42456 2.13639e-17 0.0546624 0.0003 2.12957 2.69004 
600.11 55.9164 13.9077 13.9209 -0.0394781 -7.2795 6.18747e-18 0.0546624 0.0003 3.97946 1.01454 
600.11 50.0287 14.1417 14.1413 0.000912852 -5.61786 1.90527e-17 0.0546624 0.0003 0.721621 -1.4209 
600.11 51.3493 14.0885 14.057 0.062264 -6.16549 9.96566e-17 0.0546624 0.0003 1.71747 1.33892 
600.11 87.1477 12.7859 12.883 -0.205635 -18.2289 6.95266e-20 0.0546624 0.0003 3.4267 -0.0762939 
600.11 49.6254 14.158 14.1584 -0.000645933 -5.01382 1.82702e-17 0.0546624 0.0003 -1.03876 -0.227316 
600.11 50.0001 14.1429 14.1429 -2.08582e-06 -5.02824 1.85851e-17 0.0546624 0.0003 0.435426 2.55012 
600.11 49.738 14.1534 14.1495 0.00727748 -5.12416 2.25815e-17 0.0546624 0.0003 -2.80725 2.05192 
600.11 44.8952 14.3523 14.4422 -0.177288 -1.65313 1.55267e-19 0.0546624 0.0003 -2.37409 -0.973128 
600.11 50.0856 14.1394 14.1336 0.0122733 -5.02849 2.59429e-17 0.0546624 0.0003 1.14368 -1.64157 
600.11 35.6675 14.7467 14.6784 0.158239 0.653441 0.893723 1.39979 0.503 -3.13845 -0.55421 
600.11 40.1759 14.5512 14.4726 0.153542 -2.41092 1.16639e-15 0.0546624 0.0003 -3.82804 0.103826 
600.11 50.0011 14.1428 14.1428 8.51455e-05 -5.15375 1.863e-17 0.0546624 0.0003 0.372229 -1.86407 
600.11 49.6417 14.1574 14.1526 0.0104014 -5.63935 2.46547e-17 0.0546624 0.0003 -2.40598 1.89461 
600.11 49.9923 14.1432 14.1434 -0.000437172 -6.58998 1.83686e-17 0.0546624 0.0003 -1.28302 -2.18149 
600.11 50 14.1429 14.1429 3.62858e-09 -5.33367 1.85861e-17 0.0546624 0.0003 -0.646752 -3.60536 
600.11 35.3469 14.7608 14.7447 0.035206 0.736003 0.223341 1.39979 0.503 -3.0483 0.549868 
600.11 50.2575 14.1325 14.1261 0.0120548 -5.38064 2.56834e-17 0.0546624 0.0003 2.82523 -2.2429 
600.11 49.8316 14.1497 14.1482 0.00289021 -5.13193 2.00938e-17 0.0546624 0.0003 -0.949662 -0.691134 
600.11 50.3997 14.1267 14.1293 -0.00509724 -5.26493 1.61962e-17 0.0546624 0.0003 3.05538 -2.15083 
600.11 36.3057 14.7186 14.7184 0.00432075 1.05608 0.111415 1.39979 0.503 -2.71025 0.535686 
600.11 49.9752 14.1439 14.1439 -4.81456e-05 -5.24848 1.85684e-17 0.0546624 0.0003 -1.98417 -2.35129 
600.11 49.9984 14.1429 14.1431 -0.000288554 -6.05122 1.84409e-17 0.0546624 0.0003 -2.29208 2.96092 
600.11 49.9999 14.1429 14.1429 2.49435e-06 -5.18338 1.85874e-17 0.0546624 0.0003 -0.797035 -2.7335 
600.11 47.5527 14.2424 14.2123 0.0581046 -5.38345 8.87294e-17 0.0546624 0.0003 -1.58236 0.220406 
600.11 50.0752 14.1398 14.1324 0.0159977 -5.28764 2.87174e-17 0.0546624 0.0003 1.29777 -1.83581 
600.11 61.8672 13.6788 13.5385 0.260381 -8.7699 2.02726e-14 0.0546624 0.0003 3.25363 1.11462 
600.11 77.3858 13.1165 13.0979 0.0221895 -15.9205 3.25262e-17 0.0546624 0.0003 3.5658 -0.408258 
600.11 34.8223 14.7839 14.7437 0.0830759 -0.264971 1.76402e-16 0.0546624 0.0003 -3.50304 0.131514 
600.11 49.9999 14.1429 14.1429 -5.26765e-05 -5.46535 1.85595e-17 0.0546624 0.0003 -1.1995 2.9754 
600.11 50.0003 14.1428 14.1429 -1.15816e-05 -4.88836 1.85804e-17 0.0546624 0.0003 1.49782 3.07406 
600.11 49.9602 14.1445 14.1462 -0.00369993 -5.22892 1.6811e-17 0.0546624 0.0003 -1.00585 -1.45541 
600.11 49.9994 14.1429 14.1429 -1.23287e-05 -5.18302 1.85802e-17 0.0546624 0.0003 -1.3695 2.74328 
600.11 43.9215 14.3927 14.3172 0.144872 -3.68148 9.1668e-16 0.0546624 0.0003 -3.36329 -1.01722 
600.11 49.9727 14.144 14.1435 0.000921135 -5.17778 1.90498e-17 0.0546624 0.0003 -2.15973 2.39972 
600.11 50 14.1429 14.1429 9.87876e-08 -4.67548 1.85862e-17 0.0546624 0.0003 1.39453 -3.80178 
600.11 50 14.1429 14.1429 -4.92834e-08 -5.20162 1.85861e-17 0.0546624 0.0003 0.33251 -3.15021 
600.11 58.4307 13.8104 13.9216 -0.209406 -6.32159 6.68252e-20 0.0546624 0.0003 3.52915 1.16651 
600.11 48.131 14.2188 14.2039 0.0299262 -5.03272 4.17272e-17 0.0546624 0.0003 -2.18389 1.28713 
600.11 50 14.1429 14.1429 8.01044e-09 -5.07376 1.85861e-17 0.0546624 0.0003 0.299147 3.04473 
600.11 49.9755 14.1438 14.1439 -0.000171147 -5.26361 1.85012e-17 0.0546624 0.0003 -1.06292 1.67926 
600.11 50 14.1429 14.1429 1.92201e-08 -5.18569 1.85861e-17 0.0546624 0.0003 -0.198368 -3.06766 
600.11 48.3716 14.209 14.2561 -0.0970287 -4.41231 1.3424e-18 0.0546624 0.0003 -1.95948 -1.17298 
600.11 33.0108 14.8645 14.8671 -0.000766285 1.36755 0.0981583 1.39979 0.0003 -3.1143 0.383332 
600.11 50 14.1429 14.1429 2.63238e-07 -5.19717 1.85863e-17 0.0546624 0.0003 -0.989147 -3.2403 
600.11 38.4966 14.6234 14.5433 0.160978 -1.25038 1.44285e-15 0.0546624 0.0003 -3.50651 0.534144 
600.11 50 14.1429 14.1429 2.68155e-08 -5.191 1.85862e-17 0.0546624 0.0003 -0.37866 -3.07733 
600.11 49.9998 14.1429 14.1429 3.12671e-06 -5.81328 1.85877e-17 0.0546624 0.0003 -0.12978 -1.54767 
600.11 68.6785 13.4264 13.5332 -0.21452 -11.9337 5.60881e-20 0.0546624 0.0003 2.21233 -0.491049 
600.11 50.0142 14.1423 14.1425 -0.000362277 -5.25292 1.8406e-17 0.0546624 0.0003 1.02792 2.00222 
600.11 50.0001 14.1429 14.1429 -4.31152e-06 -5.18277 1.8584e-17 0.0546624 0.0003 0.902421 2.87778 
600.11 49.1053 14.1791 14.1847 -0.010973 -4.82134 1.38266e-17 0.0546624 0.0003 -1.6588 1.11634 
600.11 43.183 14.4238 14.4352 -0.0182151 -3.00796 1.15058e-17 0.0546624 0.0003 -3.22717 -1.00165 
600.11 87.7544 12.766 12.9879 -0.421656 -15.2265 2.08526e-22 0.0546624 0.0003 3.36822 -0.190476 
600.11 51.2737 14.0916 14.0943 -0.00629737 -5.73089 1.56479e-17 0.0546624 0.0003 1.1395 -0.178821 
600.11 49.9198 14.1461 14.1464 -0.000488651 -5.16058 1.8345e-17 0.0546624 0.0003 -0.73636 0.532777 
600.11 51.7572 14.0722 14.0871 -0.0297118 -5.80635 8.33577e-18 0.0546624 0.0003 1.2342 0.244499 
600.11 50.2585 14.1324 14.136 -0.00702919 -5.25487 1.53777e-17 0.0546624 0.0003 2.1003 2.06065 
600.11 50 14.1429 14.1429 -3.55634e-07 -5.18397 1.8586e-17 0.0546624 0.0003 1.55374 3.47507 
600.11 81.7597 12.9662 12.9363 0.0424994 -17.9743 5.59498e-17 0.0546624 0.0003 2.4193 0.0663081 
600.11 71.0936 13.3388 13.2916 0.0821734 -12.2793 1.6553e-16 0.0546624 0.0003 3.77678 0.373231 
600.11 79.0489 13.0588 12.8962 0.308905 -18.196 7.67976e-14 0.0546624 0.0003 3.64385 -0.120844 
600.11 51.2844 14.0911 14.0677 0.0466775 -5.95452 6.55217e-17 0.0546624 0.0003 3.2876 1.84473 
600.11 37.6058 14.6621 14.6628 -0.00162567 0.602587 0.0953022 1.39979 0.0003 -2.97483 0.684331 
600.11 39.3554 14.5866 14.6863 -0.188137 -0.840547 1.18435e-19 0.0546624 0.0003 -2.85996 -0.773815 
600.11 50 14.1429 14.1429 -2.06756e-06 -5.56065 1.85851e-17 0.0546624 0.0003 0.274329 2.73629 
600.11 48.1307 14.2187 14.1902 0.0538573 -4.67709 7.88714e-17 0.0546624 0.0003 -1.75008 0.871657 
600.11 50.6001 14.1187 14.1228 -0.00830874 -5.40961 1.48471e-17 0.0546624 0.0003 1.24765 1.07703 
600.11 49.9995 14.1429 14.1429 1.2463e-05 -5.22467 1.85926e-17 0.0546624 0.0003 -1.94515 3.05937 
600.11 44.3831 14.3735 14.3851 -0.0316244 -3.33367 7.73461e-18 0.0546624 0.0003 -3.51609 -0.989001 
600.11 50.0006 14.1428 14.1428 2.11021e-05 -4.84652 1.85967e-17 0.0546624 0.0003 0.108539 -1.58687 
600.11 50 14.1429 14.1429 -6.14647e-07 -5.18417 1.85858e-17 0.0546624 0.0003 0.119288 2.62195 
600.11 50.592 14.119 14.0849 0.0721499 -3.92967 1.31865e-16 0.0546624 0.0003 0.970207 -0.353779 
600.11 49.9855 14.1434 14.1432 0.000473706 -5.19657 1.88231e-17 0.0546624 0.0003 -2.67053 -2.64082 
600.11 49.4316 14.1659 14.1855 -0.0407374 -4.76781 6.16101e-18 0.0546624 0.0003 -1.24049 -0.627854 
600.11 50 14.1429 14.1429 -1.61373e-06 -4.67982 1.85853e-17 0.0546624 0.0003 -0.441504 -2.76643 
600.11 50 14.1429 14.1429 -5.85891e-09 -5.16804 1.85861e-17 0.0546624 0.0003 -0.501244 -3.62187 
600.11 50 14.1429 14.1429 2.71035e-08 -5.17921 1.85861e-17 0.0546624 0.0003 -0.587798 3.12972 
600.11 50.0004 14.1428 14.1428 -1.288e-05 -5.24605 1.85797e-17 0.0546624 0.0003 1.21116 -2.84766 
600.11 54.4166 13.9665 13.8305 0.274397 -7.67457 3.14248e-14 0.0546624 0.0003 2.94857 -1.50761 
600.11 46.0425 14.3045 14.2498 0.104147 -4.28491 3.05303e-16 0.0546624 0.0003 -1.92208 0.652104 
600.11 50 14.1429 14.1429 -1.45892e-07 -5.18378 1.85861e-17 0.0546624 0.0003 0.606324 3.05353 
600.11 49.9999 14.1429 14.1429 -9.70213e-07 -5.34839 1.85857e-17 0.0546624 0.0003 -2.35627 3.39961 
600.11 49.9566 14.1446 14.1443 0.000768487 -5.17574 1.89834e-17 0.0546624 0.0003 -1.18936 -1.65287 
600.11 49.9995 14.1429 14.143 -0.000301998 -6.0533 1.84336e-17 0.0546624 0.0003 -0.79293 2.35205 
600.11 34.1304 14.8147 14.7214 0.205678 0.488948 0.967749 1.39979 0.503 -2.76413 -0.413837 
600.11 50.0024 14.1428 14.1427 0.000102383 -5.12442 1.86366e-17 0.0546624 0.0003 2.45669 -3.05767 
600.11 49.9987 14.1429 14.1429 0.000115664 -5.05266 1.8644e-17 0.0546624 0.0003 -0.133431 0.795331 
600.11 38.8123 14.6097 14.6501 -0.0957793 0.152829 0.00796229 1.39979 0.0003 -2.38713 -0.439759 
600.11 50 14.1429 14.1429 -2.2677e-06 -4.87607 1.8585e-17 0.0546624 0.0003 -0.751648 2.93378 
600.11 46.247 14.2962 14.3683 -0.145168 -3.6863 3.66996e-19 0.0546624 0.0003 -2.18172 -0.985189 
600.11 50 14.1429 14.1429 3.48053e-07 -5.17726 1.85863e-17 0.0546624 0.0003 -0.25675 2.70662 
600.11 51.1494 14.0965 14.0546 0.0858753 -6.13898 1.89997e-16 0.0546624 0.0003 3.65628 1.7788 
600.11 50.0225 14.1419 14.1424 -0.000896712 -5.16749 1.81462e-17 0.0546624 0.0003 0.345271 0.627229 
600.11 94.8867 12.5352 12.6127 -0.17248 -20.5565 1.67946e-19 0.0546624 0.0003 2.98027 -0.0456637 
600.11 70.0343 13.3774 13.5494 -0.328344 -11.5147 2.64503e-21 0.0546624 0.0003 3.21177 0.864808 
600.11 48.0555 14.2218 14.192 0.0561996 -4.94723 8.39842e-17 0.0546624 0.0003 -1.50296 -0.205714 
600.11 50 14.1429 14.1429 -5.83121e-06 -4.40882 1.85833e-17 0.0546624 0.0003 -0.0506073 -1.66087 
600.11 43.1294 14.4259 14.3503 0.144409 -2.98762 9.03397e-16 0.0546624 0.0003 -2.62603 -0.95229 
600.11 49.9923 14.1432 14.1428 0.000636214 -4.89232 1.89079e-17 0.0546624 0.0003 -0.269292 0.394248 
600.11 36.4059 14.7144 14.7111 0.00994207 0.264737 0.126569 1.39979 0.503 -2.51586 0.379137 
600.11 50.0028 14.1427 14.1428 -6.09154e-06 -5.18191 1.85836e-17 0.0546624 0.0003 2.54926 3.04492 
600.11 50.3895 14.1271 14.1051 0.0467403 -3.44069 6.61545e-17 0.0546624 0.0003 3.3788 -2.12413 
600.11 49.9959 14.143 14.143 4.321e-05 -5.18107 1.86078e-17 0.0546624 0.0003 -1.81139 -2.63023 
600.11 53.0417 14.0209 13.9207 0.204921 -6.01469 4.79066e-15 0.0546624 0.0003 3.35609 1.58564 
600.11 50 14.1429 14.1429 1.31957e-07 -5.82791 1.85862e-17 0.0546624 0.0003 -0.718966 3.10187 
600.11 50 14.1429 14.1429 -2.49639e-05 -5.10797 1.85735e-17 0.0546624 0.0003 -1.24161 3.11634 
600.11 50 14.1429 14.1429 -6.01583e-09 -5.18344 1.85861e-17 0.0546624 0.0003 0.496305 -3.58403 
600.11 48.2712 14.2131 14.2046 0.0175087 -4.5157 2.98704e-17 0.0546624 0.0003 -1.47172 -0.252169 
600.11 49.9964 14.143 14.1429 0.00037649 -5.20252 1.87798e-17 0.0546624 0.0003 -0.16186 0.177347 
600.11 50 14.1429 14.1429 -3.24369e-09 -5.13406 1.85861e-17 0.0546624 0.0003 -0.420807 3.76204 
600.11 50 14.1429 14.1429 2.11526e-07 -3.7289 1.85862e-17 0.0546624 0.0003 0.764168 -3.25825 
600.11 50.03 14.1416 14.1412 0.000781505 -5.193 1.89812e-17 0.0546624 0.0003 1.76105 -2.37344 
600.11 50.4516 14.1246 14.1195 0.0108249 -4.61153 2.49394e-17 0.0546624 0.0003 3.09241 -2.12162 
600.11 50.2492 14.1328 14.1272 0.0139814 -4.33902 2.73117e-17 0.0546624 0.0003 0.828835 0.614355 
600.11 49.8981 14.147 14.1553 -0.0179777 -5.20354 1.14003e-17 0.0546624 0.0003 -3.03934 2.27451 
600.11 50 14.1429 14.1429 7.10196e-09 -5.15573 1.85861e-17 0.0546624 0.0003 1.54885 -3.46509 
600.11 43.729 14.401 14.5169 -0.230308 -2.58257 3.67861e-20 0.0546624 0.0003 -3.47598 -0.954207 
600.11 50.2888 14.1312 14.1366 -0.00984051 -4.99217 1.42856e-17 0.0546624 0.0003 2.50016 -2.16722 
600.11 50.4174 14.126 14.1241 0.0031847 -5.33971 2.02218e-17 0.0546624 0.0003 2.39582 2.05477 
600.11 58.6939 13.7999 13.6883 0.211624 -7.206 5.51979e-15 0.0546624 0.0003 2.90343 1.26586 
600.11 49.9969 14.143 14.1435 -0.00102886 -5.18067 1.80726e-17 0.0546624 0.0003 -2.14648 -2.80359 
600.11 49.9997 14.1429 14.1429 1.00419e-05 -5.30854 1.85911e-17 0.0546624 0.0003 -2.07888 -3.19238 
600.11 50.1456 14.137 14.1393 -0.00429464 -5.22701 1.65634e-17 0.0546624 0.0003 0.757309 -0.767175 
600.11 50.0102 14.1424 14.1426 -0.000327995 -5.08435 1.84236e-17 0.0546624 0.0003 1.20528 -2.23722 
600.11 48.285 14.2125 14.2337 -0.0433698 -4.48705 5.75591e-18 0.0546624 0.0003 -1.95868 -1.1501 
600.11 79.5699 13.041 13.1126 -0.169582 -16.1923 1.77567e-19 0.0546624 0.0003 2.43902 -0.311214 
600.11 50.7718 14.1117 14.107 0.00956022 -5.59594 2.40698e-17 0.0546624 0.0003 1.4879 -1.3031 
600.11 50.0038 14.1427 14.1428 -0.000128543 -5.95038 1.85223e-17 0.0546624 0.0003 0.867212 -2.15178 
600.11 50 14.1429 14.1429 -3.9065e-07 -5.17559 1.85859e-17 0.0546624 0.0003 0.908034 -3.20111 
600.11 94.8916 12.5351 12.6038 -0.156522 -21.4888 2.57711e-19 0.0546624 0.0003 3.03359 -0.0353466 
600.11 50.0006 14.1428 14.1428 2.32326e-05 -5.18837 1.85977e-17 0.0546624 0.0003 2.32923 -3.23993 
600.11 49.8656 14.1483 14.1458 0.00450991 -5.54006 2.09676e-17 0.0546624 0.0003 -0.786692 0.0535117 
600.11 50 14.1429 14.1429 -1.09617e-06 -5.22514 1.85856e-17 0.0546624 0.0003 1.20043 -3.27713 
600.11 50 14.1429 14.1429 1.66042e-10 -4.72745 1.85861e-17 0.0546624 0.0003 0.228669 4.13799 
600.11 77.8548 13.1006 13.3271 -0.422149 -13.8848 2.09821e-22 0.0546624 0.0003 3.15222 -0.668285 
600.11 49.817 14.1503 14.1623 -0.0257724 -5.46892 9.22733e-18 0.0546624 0.0003 -1.13275 -1.05564 
600.11 50.085 14.1394 14.1327 0.0143515 -5.28928 2.74484e-17 0.0546624 0.0003 1.40463 1.89793 
600.11 61.3206 13.6999 13.8096 -0.21243 -8.55847 6.05871e-20 0.0546624 0.0003 1.83764 -0.0320941 
600.11 43.7645 14.3995 14.4821 -0.1576 -1.35247 2.68256e-19 0.0546624 0.0003 -2.01202 -0.408068 
600.11 49.8316 14.1497 14.1486 0.00218884 -6.1296 1.97175e-17 0.0546624 0.0003 -1.40237 1.45907 
600.11 50.1256 14.1378 14.1397 -0.0036876 -5.21863 1.68354e-17 0.0546624 0.0003 1.49285 -1.8685 
600.11 33.6812 14.8345 14.8236 0.0206703 1.50833 0.160852 1.39979 0.503 -2.59827 0.195179 
600.11 50 14.1429 14.1429 -9.04095e-07 -5.2138 1.85857e-17 0.0546624 0.0003 -0.771029 3.22916 
600.11 50.378 14.1276 14.1083 0.040786 -4.68489 5.62373e-17 0.0546624 0.0003 0.895715 0.5067 
600.11 50.2813 14.1315 14.1353 -0.00734178 -5.26027 1.52582e-17 0.0546624 0.0003 2.28432 2.11203 
600.11 49.9984 14.1429 14.1429 5.35903e-05 -5.22512 1.86128e-17 0.0546624 0.0003 -0.720581 2.0119 
600.11 50.011 14.1424 14.1423 0.000230149 -5.15728 1.87017e-17 0.0546624 0.0003 1.15346 2.17674 
600.11 49.9935 14.1431 14.1431 -3.35454e-05 -6.13444 1.85691e-17 0.0546624 0.0003 -1.1819 2.13622 
600.11 55.7565 13.9139 13.8147 0.188869 -8.87384 2.98987e-15 0.0546624 0.0003 3.20519 1.40489 
600.11 47.1851 14.2576 14.3359 -0.160303 -3.64086 2.41995e-19 0.0546624 0.0003 -1.96223 -0.919352 
600.11 50 14.1429 14.1429 4.32417e-09 -5.04564 1.85861e-17 0.0546624 0.0003 -0.0829665 3.04024 
600.11 50.0001 14.1429 14.1428 8.63451e-06 -5.18224 1.85905e-17 0.0546624 0.0003 1.82033 3.34188 
600.11 49.9995 14.1429 14.143 -0.000227135 -5.20453 1.84714e-17 0.0546624 0.0003 -1.92422 -3.05223 
600.11 50 14.1429 14.1429 -1.73286e-06 -5.17514 1.85853e-17 0.0546624 0.0003 0.0995885 2.2498 
600.11 50 14.1429 14.1429 -7.41055e-09 -5.23678 1.85861e-17 0.0546624 0.0003 0.482661 3.0335 
600.11 49.9999 14.1429 14.1429 1.22694e-06 -5.1833 1.85868e-17 0.0546624 0.0003 -0.213676 2.14865 
600.11 50 14.1429 14.1429 -1.58818e-06 -5.1842 1.85853e-17 0.0546624 0.0003 -0.873791 3.40193 
600.11 50 14.1429 14.1429 8.99548e-08 -4.25036 1.85862e-17 0.0546624 0.0003 0.472207 3.62048 
600.11 53.953 13.985 14.036 -0.0976095 -5.07551 1.34683e-18 0.0546624 0.0003 2.15202 -1.28995 
600.11 50.2496 14.1328 14.1331 -0.00129108 -5.22022 1.79161e-17 0.0546624 0.0003 3.55024 -2.18826 
600.11 63.1712 13.6301 13.7176 -0.163993 -9.86584 2.27733e-19 0.0546624 0.0003 1.90505 -0.0696612 
600.11 80.3689 13.014 13.2145 -0.372229 -15.1468 8.21962e-22 0.0546624 0.0003 2.60825 0.481293 
600.11 49.9797 14.1437 14.1434 0.000340168 -5.2105 1.87516e-17 0.0546624 0.0003 -2.34172 2.51439 
600.11 49.082 14.1801 14.1906 -0.0176218 -4.64982 1.16586e-17 0.0546624 0.0003 -1.26301 -0.0570638 
600.11 50.3289 14.1296 14.1108 0.039625 -4.96334 5.44876e-17 0.0546624 0.0003 1.25444 -1.33204 
600.11 49.9898 14.1433 14.1436 -0.000614429 -5.15385 1.82812e-17 0.0546624 0.0003 -0.603562 -1.29869 
