600.11 38.4928 14.6236 14.6143 0.0100403 -1.46968 0.0588934 0.0546624 0.0003 -2.42367 -0.457633 
600.11 36.4316 14.7131 14.6941 0.0164964 -1.14615 0.0412154 0.0546624 0.0003 -2.39637 -0.12487 
600.11 33.597 14.8384 14.9165 -0.144904 1.89242 1.52649e-315 1.39979 0.0003 -3.13565 -0.41964 
600.11 36.3679 14.716 14.7065 0.00283197 0.119182 4.603e-287 1.39979 0.0003 -3.38649 0.47554 
600.11 39.3309 14.5877 14.5995 -0.0182534 -1.26583 0.166436 0.0546624 0.503 -3.26355 0.739389 
600.11 36.2445 14.7214 14.7026 0.0321986 -1.25097 0.0100574 0.0546624 0.0003 -3.06374 0.602227 
600.11 38.4356 14.6263 14.7343 -0.205956 0.772935 1.97626e-323 1.39979 0.0003 -2.42833 -0.458637 
600.11 39.5522 14.5781 14.5847 -0.0143548 -0.909738 0.157398 0.0546624 0.503 -3.26965 -0.750817 
600.11 39.3802 14.5854 14.7095 -0.245466 -0.047918 0.18837 0.0546624 0.503 -3.35544 -0.702808 
600.11 31.423 14.9357 14.9687 -0.0536336 2.87482 5.27832e-177 1.39979 0.0003 -3.19284 0.187786 
600.11 38.4475 14.6256 14.6258 -0.00109425 -1.16459 0.104213 0.0546624 0.503 -2.28851 -0.17822 
600.11 41.3486 14.5014 14.5085 -0.0145773 -1.76606 0.157604 0.0546624 0.503 -2.77818 -0.878786 
600.11 50 14.1429 14.1429 2.36408e-07 -5.18359 0.0985521 0.0546624 0.0003 -1.23254 -3.38928 
600.11 37.596 14.6627 14.7771 -0.21954 0.756966 1.15378e-225 1.39979 0.0003 -3.44355 0.521262 
600.11 49.8117 14.1505 14.1506 -0.00015103 -5.09582 0.0992495 0.0546624 0.0003 -1.60148 -1.61776 
600.11 50 14.1429 14.1429 3.08072e-09 -5.1838 0.0985531 0.0546624 0.0003 -0.0538118 -3.3261 
600.11 34.0947 14.8162 14.7702 0.104281 0.042171 2.08651e-08 1.39979 0.0003 -3.02164 0.473358 
600.11 39.0359 14.6002 14.6072 -0.0171067 -0.69564 0.165705 0.0546624 0.503 -2.24028 0.10893 
600.11 39.1074 14.5971 14.5981 -0.00313933 -1.33111 0.113339 0.0546624 0.503 -3.75584 0.155041 
600.11 38.2412 14.6347 14.6459 -0.0191295 -0.215008 0.169319 0.0546624 0.503 -3.25745 0.67373 
600.11 40.3762 14.5429 14.5448 -0.00426133 -1.64585 0.118245 0.0546624 0.503 -3.65305 -0.539207 
600.11 49.9784 14.1437 14.1434 0.000529963 -5.17802 0.0961583 0.0546624 0.0003 -2.93353 -2.58596 
600.11 50 14.1429 14.1429 3.63227e-09 -5.1835 0.0985531 0.0546624 0.0003 -0.749343 -3.71359 
600.11 38.4196 14.6269 14.7033 -0.169429 -0.436136 0.2 0.0546624 0.503 -2.38753 0.400152 
600.11 30.5172 14.9765 14.9203 0.122429 3.04576 4.6223e-118 1.39979 0.0003 -2.88462 0.111123 
600.11 46.9285 14.2681 14.2677 0.00233553 -3.92733 0.0871822 0.0546624 0.0003 -1.7786 0.586807 
600.11 39.3841 14.5852 14.5714 0.0310379 -0.713057 0.010282 0.0546624 0.0003 -3.05692 0.785796 
600.11 36.4054 14.7143 14.666 0.0808159 -1.0867 0.000133632 0.0546624 0.0003 -2.80389 -0.582814 
600.11 46.9531 14.2671 14.2707 -0.00789945 -3.92225 0.13344 0.0546624 0.503 -2.6477 1.31162 
600.11 31.2189 14.9447 14.8653 0.15646 1.87052 1.97626e-323 1.39979 0.0003 -2.94202 -0.241156 
600.11 50 14.1429 14.1429 -3.25429e-08 -5.18364 0.0985533 0.0546624 0.0003 -0.675625 3.61326 
600.11 36.8299 14.6958 14.6663 0.0632507 -0.950762 0.000554348 0.0546624 0.0003 -3.44167 0.46296 
600.11 32.7666 14.8752 14.7731 0.198273 -0.329565 2.39467e-09 0.0546624 0.0003 -2.91393 0.371925 
600.11 37.6456 14.6603 14.6346 0.0569816 -0.3966 0.000972325 0.0546624 0.0003 -2.33818 0.184612 
600.11 50 14.1429 14.1429 5.14453e-06 -5.1842 0.0985293 0.0546624 0.0003 0.955912 3.31029 
600.11 35.2326 14.7659 14.794 -0.051834 0.663036 2.73127e-117 1.39979 0.0003 -2.6831 -0.443739 
600.11 36.037 14.7304 14.705 0.0298145 -0.444029 0.014279 0.0546624 0.0003 -3.59275 0.0236384 
600.11 39.2677 14.5901 14.5948 -0.00853637 -1.64894 0.135195 0.0546624 0.503 -2.95802 0.779769 
600.11 37.4183 14.6703 14.7477 -0.146242 0.233557 4.12885e-168 1.39979 0.0003 -2.42208 -0.347066 
600.11 37.5422 14.6648 14.6222 0.0903672 -0.0550622 4.53974e-05 0.0546624 0.0003 -2.41856 0.354685 
600.11 35.1778 14.7682 14.7035 0.133658 0.440192 1.2286e-27 1.39979 0.0003 -3.07556 0.536495 
600.11 37.4022 14.6708 14.673 -0.00728331 -0.753763 0.13193 0.0546624 0.503 -3.67184 0.0369223 
600.11 34.4833 14.7988 14.6906 0.207751 -0.455028 1.02403e-09 0.0546624 0.0003 -2.53237 -0.172762 
600.11 40.1741 14.5512 14.5609 -0.024601 -1.45184 0.181305 0.0546624 0.503 -3.36205 -0.752146 
600.11 37.172 14.681 14.7133 -0.0737881 -1.17926 0.199788 0.0546624 0.503 -2.34687 0.0925247 
600.11 36.4836 14.7111 14.7121 -0.00415383 -0.0202273 0.118482 0.0546624 0.503 -3.11462 -0.608843 
600.11 35.3091 14.7623 14.6927 0.121242 -0.768421 3.31031e-06 0.0546624 0.0003 -2.99994 0.549629 
600.11 48.7446 14.1938 14.1932 -0.000429691 -4.69408 0.101151 0.0546624 0.503 -1.45412 -0.568746 
600.11 34.2284 14.8104 14.8825 -0.132948 1.07369 4.37202e-152 1.39979 0.0003 -3.35724 -0.324566 
600.11 42.7809 14.4406 14.3614 0.149892 -3.03515 2.13286e-07 0.0546624 0.0003 -2.26458 0.676274 
600.11 50.0007 14.1428 14.1428 3.41412e-05 -5.1834 0.0983966 0.0546624 0.0003 0.809432 -2.45118 
600.11 40.022 14.5579 14.6113 -0.127399 -0.525001 0.199999 0.0546624 0.503 -3.74786 0.34955 
600.11 35.8485 14.7387 14.6952 0.0807494 -0.629482 0.00012242 0.0546624 0.0003 -2.93791 -0.57881 
600.11 32.144 14.9033 14.9563 -0.0944729 2.10088 1.19454e-273 1.39979 0.0003 -3.18905 0.274838 
600.11 37.7836 14.6543 14.6575 -0.0102331 -0.298668 0.144131 0.0546624 0.503 -3.1324 -0.682208 
600.11 40.584 14.5337 14.6114 -0.172441 -0.213253 0.2 0.0546624 0.503 -3.2443 -0.823553 
600.11 33.8381 14.8277 14.8754 -0.0841129 2.21993 2.97522e-167 1.39979 0.0003 -3.42624 0.165201 
600.11 37.2912 14.6759 14.7625 -0.158456 0.00889538 5.57873e-103 1.39979 0.0003 -2.62907 0.554139 
600.11 35.8033 14.7406 14.682 0.0964851 -0.203276 3.33426e-05 0.0546624 0.0003 -2.43628 0.13354 
600.11 42.143 14.4676 14.4108 0.114162 -2.3376 5.28398e-06 0.0546624 0.0003 -2.16804 0.472551 
600.11 35.5874 14.7502 14.7547 -0.00458922 -0.495238 0.116902 0.0546624 0.503 -3.19222 -0.53288 
600.11 38.166 14.6378 14.6375 -0.00260507 -1.31414 0.112067 0.0546624 0.503 -2.30143 -0.161439 
600.11 36.643 14.7039 14.6761 0.0448492 -0.133668 0.00340052 0.0546624 0.0003 -3.60679 -0.16506 
600.11 32.8578 14.8711 14.8429 0.0477388 1.19771 3.92313e-191 1.39979 0.0003 -3.04126 -0.386419 
600.11 38.8416 14.6086 14.6134 -0.0102808 -0.799005 0.143426 0.0546624 0.503 -3.72633 0.210298 
600.11 37.0665 14.6855 14.6442 0.0794193 -0.0874275 0.000133978 0.0546624 0.0003 -2.81017 0.625342 
600.11 45.0331 14.3464 14.3554 -0.0151577 -2.7758 0.158203 0.0546624 0.503 -3.3222 1.12297 
600.11 38.6853 14.6155 14.6181 -0.00768769 -1.39439 0.134066 0.0546624 0.503 -3.51366 -0.542874 
600.11 48.404 14.2076 14.1956 0.0240955 -4.59908 0.0191267 0.0546624 0.0003 -2.74066 -1.55249 
600.11 31.4916 14.9326 14.9598 -0.0415973 2.37389 1.40313e-179 1.39979 0.0003 -3.21303 -0.175176 
600.11 39.9431 14.5613 14.6038 -0.0943004 -0.972602 0.199968 0.0546624 0.503 -3.75926 -0.311808 
600.11 36.3641 14.7161 14.7152 -0.00207469 -0.849025 0.109581 0.0546624 0.503 -3.07856 0.607658 
600.11 38.0091 14.6447 14.6743 -0.0653279 -1.05797 0.199528 0.0546624 0.503 -3.69555 -0.133449 
600.11 34.2096 14.811 14.7598 0.109178 0.748745 1.2117e-44 1.39979 0.0003 -3.45304 -0.162245 
600.11 39.0738 14.5986 14.5981 0.0011162 -1.7227 0.0935227 0.0546624 0.0003 -2.28493 0.284923 
600.11 38.0504 14.6427 14.6498 -0.0166854 -1.80591 0.16421 0.0546624 0.503 -3.2468 -0.666316 
600.11 39.4462 14.5827 14.5876 -0.00702452 -1.25131 0.129041 0.0546624 0.503 -2.84849 0.777075 
600.11 48.9665 14.1847 14.1863 -0.00223786 -4.70122 0.108447 0.0546624 0.503 -2.71848 -1.68034 
600.11 31.5868 14.9281 14.8287 0.197767 1.29868 2.01426e-53 1.39979 0.0003 -3.17944 0.220652 
600.11 39.4201 14.5835 14.5541 0.0351007 -1.59067 0.00929607 0.0546624 0.0003 -3.48253 0.625187 
600.11 46.135 14.3007 14.3022 -0.00345734 -3.56801 0.114299 0.0546624 0.503 -3.03202 1.2686 
600.11 34.8075 14.7846 14.7689 0.0325133 1.41894 5.8627e-146 1.39979 0.0003 -3.10934 0.507412 
600.11 37.0326 14.687 14.6908 -0.00809785 -0.565312 0.134156 0.0546624 0.503 -2.36437 0.143261 
600.11 36.8022 14.697 14.6147 0.166304 -0.272283 4.27514e-08 0.0546624 0.0003 -2.63789 0.52546 
600.11 49.0557 14.1811 14.1791 0.0039797 -4.78833 0.0805123 0.0546624 0.0003 -1.36555 0.566147 
600.11 39.1074 14.5973 14.7073 -0.212393 0.244176 5.47259e-190 1.39979 0.0003 -3.11355 -0.763491 
600.11 34.0197 14.8195 14.8259 -0.00296272 0.766782 1.359e-87 1.39979 0.0003 -3.40703 0.233013 
600.11 30.5128 14.9768 14.9766 0.0126458 3.7905 1.5965e-171 1.39979 0.0003 -3.11629 -0.109548 
600.11 39.0195 14.6008 14.6051 -0.00907348 -0.350814 0.137998 0.0546624 0.503 -2.46435 0.548287 
600.11 40.5832 14.534 14.5371 -0.0048779 -1.03583 0.120489 0.0546624 0.503 -3.53534 -0.672283 
600.11 32.4182 14.8909 14.8778 0.0287719 2.21197 1.25715e-256 1.39979 0.0003 -2.95042 0.351903 
600.11 34.4317 14.8012 14.777 0.0548451 1.23281 1.97626e-323 1.39979 0.0003 -3.00109 0.495471 
600.11 50.0003 14.1428 14.1428 5.57447e-05 -5.18392 0.0982945 0.0546624 0.0003 2.4193 3.38956 
600.11 33.3475 14.8494 14.8412 0.0288833 1.06274 7.08903e-71 1.39979 0.0003 -2.95552 0.421427 
600.11 50 14.1429 14.1429 3.71649e-06 -5.18343 0.0985359 0.0546624 0.0003 1.29732 3.72853 
600.11 34.5224 14.7971 14.7681 0.0423856 -0.272345 0.00449091 0.0546624 0.0003 -3.21854 -0.450892 
600.11 37.8845 14.65 14.6441 0.0130791 -1.21851 0.0447819 0.0546624 0.0003 -2.39493 0.353719 
600.11 37.3328 14.6738 14.7381 -0.14451 -0.302622 0.2 0.0546624 0.503 -3.55997 -0.365703 
600.11 37.3692 14.6725 14.7572 -0.154151 0.0984443 2.10986e-287 1.39979 0.0003 -3.46559 -0.483645 
600.11 33.8805 14.8257 14.7991 0.0625874 1.25072 1.94269e-77 1.39979 0.0003 -2.55132 -0.100494 
600.11 37.9439 14.6475 14.7302 -0.157284 0.295738 4.37303e-177 1.39979 0.0003 -3.20533 0.673888 
600.11 33.3429 14.8496 14.8691 -0.0429759 1.84856 1.03449e-251 1.39979 0.0003 -2.63113 0.207816 
600.11 49.8861 14.1475 14.1453 0.00388353 -5.15761 0.0810736 0.0546624 0.0003 -0.970808 -0.972691 
600.11 48.6736 14.1967 14.1963 0.00161744 -4.59605 0.0907583 0.0546624 0.0003 -1.43507 -0.458365 
600.11 38.2181 14.6356 14.6369 -0.00323169 -1.20819 0.113689 0.0546624 0.503 -2.28283 0.0627235 
600.11 39.7741 14.5686 14.577 -0.0162442 -0.814168 0.16275 0.0546624 0.503 -2.20326 0.151462 
600.11 37.6203 14.6615 14.6666 -0.0100542 -0.209557 0.141777 0.0546624 0.503 -3.41337 -0.547065 
600.11 36.7706 14.6983 14.7023 -0.0115535 -0.676028 0.148699 0.0546624 0.503 -3.01797 0.635959 
600.11 39.6464 14.574 14.5865 -0.0214085 -1.53743 0.174196 0.0546624 0.503 -2.91173 0.798416 
600.11 49.9961 14.143 14.143 -4.76408e-05 -5.18149 0.098775 0.0546624 0.0003 -0.907532 -2.00044 
600.11 36.3922 14.7149 14.7137 -0.000460297 -0.331466 0.101201 0.0546624 0.503 -3.21524 -0.575417 
600.11 34.863 14.7823 14.8368 -0.101938 1.22121 1.37562e-182 1.39979 0.0003 -3.00274 0.522648 
600.11 36.7892 14.6975 14.6618 0.048831 -0.650518 0.00269796 0.0546624 0.0003 -2.36297 0.018597 
600.11 30.4379 14.9801 14.9359 0.085182 2.72323 5.43711e-186 1.39979 0.0003 -2.87923 -0.0839474 
600.11 39.2178 14.5925 14.5936 -0.00365098 -0.578732 0.115491 0.0546624 0.503 -2.37898 -0.469188 
600.11 34.1523 14.8138 14.8573 -0.0657115 2.46719 3.64247e-113 1.39979 0.0003 -2.87557 -0.461285 
600.11 32.3744 14.8928 14.8489 0.0968163 1.49395 8.41993e-77 1.39979 0.0003 -2.68425 0.155416 
600.11 41.1356 14.5102 14.4154 0.180491 -2.30451 1.27518e-08 0.0546624 0.0003 -2.39623 0.657644 
600.11 43.5473 14.4084 14.4158 -0.0114105 -2.30731 0.145551 0.0546624 0.503 -2.23928 -0.727648 
600.11 38.8676 14.6076 14.6106 -0.00447093 -1.69388 0.118187 0.0546624 0.503 -3.75404 -0.0766709 
600.11 48.1249 14.219 14.2087 0.0148524 -4.48904 0.0414229 0.0546624 0.0003 -1.70298 -0.798082 
600.11 46.7239 14.2764 14.2784 -0.00453203 -3.76121 0.119379 0.0546624 0.503 -2.21016 1.07191 
600.11 35.6859 14.7461 14.8196 -0.136947 1.1974 8.26523e-176 1.39979 0.0003 -3.49837 -0.282195 
600.11 34.5945 14.794 14.7403 0.102673 0.27258 2.16606e-24 1.39979 0.0003 -3.49435 0.106281 
600.11 39.9241 14.5621 14.5648 -0.00463765 -1.34221 0.119746 0.0546624 0.503 -2.64751 0.74004 
600.11 38.9977 14.6018 14.5946 0.00486421 -1.3155 0.0806041 0.0546624 0.0003 -3.7313 0.225196 
600.11 42.2788 14.4619 14.4691 -0.0130266 -2.16348 0.151996 0.0546624 0.503 -2.35408 -0.718224 
600.11 32.0034 14.9094 14.8358 0.149161 1.1428 1.7534e-60 1.39979 0.0003 -3.31983 0.0326101 
600.11 37.5255 14.6657 14.7084 -0.0770537 0.156656 1.12278e-99 1.39979 0.0003 -2.44796 0.397519 
600.11 31.8367 14.9169 14.8111 0.21046 1.50723 2.5697e-57 1.39979 0.0003 -2.70033 0.0668427 
600.11 37.0885 14.6846 14.6808 0.0111191 -0.18677 0.0505619 0.0546624 0.0003 -3.35483 -0.550446 
600.11 36.0661 14.7292 14.7458 -0.0517804 0.955405 6.57113e-162 1.39979 0.0003 -3.39788 -0.442442 
600.11 38.8533 14.6081 14.6992 -0.187081 -0.166931 0.2 0.0546624 0.503 -2.29313 -0.271021 
600.11 38.399 14.6276 14.6044 0.0256011 -0.519078 0.020266 0.0546624 0.0003 -2.60982 0.617438 
600.11 30.4268 14.9806 14.9322 0.109897 2.08525 7.33535e-89 1.39979 0.0003 -3.13551 -0.0528227 
600.11 40.8491 14.5224 14.5249 -0.00870471 -1.59925 0.137599 0.0546624 0.503 -2.29029 -0.512717 
600.11 32.0894 14.9057 14.9313 -0.0380452 3.32845 7.3863e-162 1.39979 0.0003 -3.30979 0.110804 
600.11 34.9592 14.7778 14.6695 0.206752 -0.340575 1.13357e-09 0.0546624 0.0003 -3.5063 -0.150646 
600.11 50 14.1429 14.1429 -9.26547e-08 -5.18364 0.0985536 0.0546624 0.0003 -0.302625 2.86866 
600.11 34.8338 14.7835 14.7872 -0.00792698 -0.140253 0.133786 0.0546624 0.503 -3.51943 -0.0369621 
600.11 32.9206 14.8685 14.9302 -0.110487 2.93814 2.11993e-204 1.39979 0.0003 -3.14455 -0.366032 
600.11 32.0259 14.9084 14.8167 0.180325 1.14482 3.96773e-61 1.39979 0.0003 -2.84209 0.282131 
600.11 36.6649 14.703 14.655 0.0864653 -0.43883 7.45353e-05 0.0546624 0.0003 -2.37291 0.0618512 
600.11 33.5592 14.8398 14.7414 0.193473 -0.410545 3.65127e-09 0.0546624 0.0003 -3.04543 -0.43569 
600.11 36.7385 14.6998 14.6695 0.0590113 -1.41849 0.00086293 0.0546624 0.0003 -2.52488 0.420552 
600.11 50.0001 14.1429 14.1429 7.95399e-07 -5.18368 0.0985495 0.0546624 0.0003 0.658591 2.73885 
600.11 31.0955 14.9503 14.8531 0.19659 1.37268 2.42753e-53 1.39979 0.0003 -3.23432 0.0140121 
600.11 36.6905 14.7018 14.6999 -0.000344086 -0.261084 0.101552 0.0546624 0.503 -2.6626 0.534022 
600.11 34.8596 14.7824 14.8072 -0.0390009 1.76509 7.80559e-135 1.39979 0.0003 -2.95391 0.52038 
600.11 38.2504 14.6341 14.6452 -0.0283591 -1.2078 0.18665 0.0546624 0.503 -2.42239 -0.432985 
600.11 41.3896 14.4996 14.5033 -0.0101601 -1.29719 0.143462 0.0546624 0.503 -2.33663 -0.621298 
600.11 45.876 14.3115 14.3097 0.00364031 -3.44518 0.0819582 0.0546624 0.0003 -4.24351 -0.0318003 
600.11 32.0031 14.9095 14.88 0.0697418 1.41599 2.75244e-78 1.39979 0.0003 -3.21197 -0.241904 
600.11 37.7031 14.6579 14.6735 -0.0330334 -1.07062 0.190728 0.0546624 0.503 -2.69886 -0.621403 
600.11 32.6394 14.8809 14.7993 0.168916 1.51678 1.30426e-60 1.39979 0.0003 -2.9394 -0.367361 
600.11 36.7956 14.6973 14.6687 0.0442839 -0.545201 0.0036774 0.0546624 0.0003 -3.62127 -0.144046 
600.11 50 14.1429 14.1429 4.28137e-09 -5.18351 0.0985531 0.0546624 0.0003 -0.927553 3.77566 
600.11 37.2844 14.6761 14.6805 -0.0142889 -0.931539 0.158413 0.0546624 0.503 -3.5719 -0.342035 
600.11 50 14.1429 14.1429 1.95524e-10 -5.18346 0.0985532 0.0546624 0.0003 0.289867 -4.12345 
600.11 36.3668 14.7162 14.7941 -0.14462 0.676019 1.0398e-169 1.39979 0.0003 -3.42492 -0.441851 
600.11 30.5099 14.9768 14.8996 0.157888 2.25152 9.58601e-127 1.39979 0.0003 -3.00287 0.158842 
600.11 30.2993 14.9864 14.9453 0.0911163 1.80591 1.97626e-323 1.39979 0.0003 -3.07878 0.0925789 
600.11 39.8884 14.5635 14.5643 -0.00425457 -0.874584 0.118351 0.0546624 0.503 -3.03335 -0.816873 
600.11 38.3373 14.6303 14.6158 0.0188772 -0.849656 0.0316986 0.0546624 0.0003 -3.69133 0.224698 
600.11 33.9557 14.8223 14.7685 0.113759 0.641858 3.85936e-39 1.39979 0.0003 -2.74132 0.386025 
600.11 40.7779 14.5256 14.5304 -0.0101982 -1.81815 0.142253 0.0546624 0.503 -2.82474 0.852965 
600.11 33.4651 14.844 14.7848 0.10098 -0.159353 2.12543e-05 0.0546624 0.0003 -2.58175 0.106445 
600.11 34.5578 14.7955 14.7086 0.165555 0.224793 1.20027e-16 1.39979 0.0003 -3.50323 -0.00538392 
600.11 36.8526 14.6947 14.6987 -0.00690827 -0.683569 0.128594 0.0546624 0.503 -2.90959 -0.634966 
600.11 37.5731 14.6636 14.6655 -0.00586696 -0.326775 0.125893 0.0546624 0.503 -2.52111 0.486892 
600.11 39.6971 14.5717 14.5874 -0.0301933 -1.22304 0.187805 0.0546624 0.503 -3.06718 -0.803234 
600.11 48.5114 14.2032 14.1885 0.0289924 -4.68727 0.0126944 0.0546624 0.0003 -1.62133 0.803067 
600.11 45.4038 14.3311 14.333 -0.00174663 -3.20006 0.10592 0.0546624 0.503 -2.38101 1.02872 
600.11 31.4122 14.936 14.9324 -0.00981546 3.10898 3.02401e-262 1.39979 0.0003 -2.75727 -0.112966 
600.11 39.5627 14.5777 14.5856 -0.0134885 -1.33092 0.153332 0.0546624 0.503 -3.11147 0.790484 
600.11 38.8656 14.6074 14.615 -0.0192527 -1.29315 0.171109 0.0546624 0.503 -3.65032 0.388454 
600.11 30.2448 14.9889 14.949 0.0911736 2.16566 3.00668e-96 1.39979 0.0003 -2.91824 -0.0734682 
600.11 37.0965 14.6843 14.7426 -0.13177 -0.329525 0.199999 0.0546624 0.503 -2.54749 -0.474292 
600.11 39.0464 14.5998 14.6034 -0.00728151 -1.21393 0.131017 0.0546624 0.503 -2.57171 -0.637816 
600.11 31.0956 14.9504 14.9161 0.0800325 2.18313 3.42896e-99 1.39979 0.0003 -2.91608 -0.219523 
600.11 35.1369 14.7702 14.8402 -0.133463 1.10813 1.89392e-146 1.39979 0.0003 -3.40945 0.351302 
600.11 37.7798 14.6544 14.6569 -0.00605663 -1.29494 0.125972 0.0546624 0.503 -2.31474 0.113954 
600.11 48.801 14.1914 14.1906 0.000145876 -4.74752 0.0984555 0.0546624 0.0003 -1.64213 -0.955856 
600.11 38.1497 14.6384 14.6378 -0.00127479 -0.798616 0.105754 0.0546624 0.503 -2.84939 -0.700018 
600.11 50 14.1429 14.1429 1.92783e-07 -5.18364 0.0985522 0.0546624 0.0003 -1.79674 -3.43108 
600.11 39.7105 14.5711 14.5109 0.104997 -1.6526 1.43608e-05 0.0546624 0.0003 -2.40753 -0.547712 
600.11 34.4639 14.7998 14.8127 -0.0234869 1.70757 2.48081e-118 1.39979 0.0003 -2.73503 -0.421133 
600.11 30.2235 14.9899 14.9541 0.0839598 3.22972 1.77328e-123 1.39979 0.0003 -3.0931 0.0486616 
600.11 37.0958 14.6842 14.6912 -0.0132466 -1.34863 0.153422 0.0546624 0.503 -3.13337 -0.641807 
600.11 50.0002 14.1429 14.1429 -4.93781e-06 -5.1837 0.0985756 0.0546624 0.0003 1.66475 3.23298 
600.11 45.4183 14.3304 14.2858 0.0801623 -3.73109 0.00013222 0.0546624 0.0003 -1.99894 0.664511 
600.11 39.3254 14.5878 14.5974 -0.0175605 -1.26968 0.165606 0.0546624 0.503 -2.23535 -0.175192 
600.11 44.2322 14.3798 14.3321 0.0909074 -3.41266 4.71363e-05 0.0546624 0.0003 -2.6099 1.03251 
600.11 39.426 14.5833 14.6223 -0.0869298 -0.882068 0.199936 0.0546624 0.503 -3.61527 -0.495711 
600.11 38.6057 14.6189 14.6261 -0.0104107 -1.28993 0.142563 0.0546624 0.503 -2.57725 -0.610693 
600.11 34.634 14.7923 14.773 0.0442369 0.0910172 2.19837e-15 1.39979 0.0003 -3.20913 0.463229 
600.11 37.7264 14.6569 14.6648 -0.0139943 -1.34082 0.155195 0.0546624 0.503 -3.4055 -0.560673 
600.11 39.3625 14.5863 14.6158 -0.0681035 -0.782469 0.199641 0.0546624 0.503 -2.56136 -0.653102 
600.11 37.4105 14.6707 14.6774 -0.0101783 -0.874603 0.141633 0.0546624 0.503 -3.17795 0.649797 
600.11 48.5542 14.2015 14.1789 0.0423198 -4.80016 0.00398298 0.0546624 0.0003 -1.40134 0.134546 
600.11 45.1231 14.3427 14.3418 4.22412e-05 -3.21327 0.0992425 0.0546624 0.0003 -1.83036 0.122251 
600.11 50.0004 14.1428 14.1428 -6.922e-06 -5.18354 0.0985846 0.0546624 0.0003 1.53616 3.04028 
600.11 37.8268 14.6524 14.6681 -0.0379916 -0.66868 0.194297 0.0546624 0.503 -3.63047 0.297994 
600.11 33.1954 14.8561 14.8015 0.116129 1.57698 2.2061e-79 1.39979 0.0003 -2.62693 0.177155 
600.11 40.503 14.5373 14.5504 -0.0262713 -1.29068 0.183254 0.0546624 0.503 -2.46546 0.666576 
600.11 36.4808 14.711 14.6549 0.104208 -1.0433 1.43311e-05 0.0546624 0.0003 -2.76748 0.574073 
600.11 38.697 14.6148 14.6648 -0.116394 -0.370921 0.199996 0.0546624 0.503 -3.74784 -0.0141102 
600.11 40.2632 14.5476 14.5497 -0.00404751 -1.65967 0.116676 0.0546624 0.503 -3.70596 -0.45539 
600.11 34.4161 14.802 14.814 -0.0104667 2.15577 1.19522e-113 1.39979 0.0003 -3.00313 0.494581 
600.11 40.2377 14.5485 14.5535 -0.00851955 -1.16685 0.135163 0.0546624 0.503 -3.74852 -0.378073 
600.11 49.9998 14.1429 14.1429 6.374e-06 -5.18361 0.0985243 0.0546624 0.0003 -1.50295 3.04071 
600.11 38.862 14.6076 14.6193 -0.0275554 -1.27263 0.185228 0.0546624 0.503 -2.36945 0.419934 
600.11 49.9999 14.1429 14.1429 5.18935e-06 -5.18327 0.0985296 0.0546624 0.0003 -1.39666 -3.02102 
600.11 36.5726 14.707 14.7093 -0.0090597 -0.434126 0.139954 0.0546624 0.503 -2.70023 0.548031 
600.11 33.9847 14.8209 14.7196 0.197507 0.793856 2.98365e-36 1.39979 0.0003 -2.72097 0.373779 
600.11 39.3169 14.5881 14.5884 -0.000364544 -1.06019 0.100256 0.0546624 0.503 -2.86985 -0.773125 
600.11 39.2815 14.5897 14.601 -0.0216341 -1.74526 0.175269 0.0546624 0.503 -2.88857 -0.77371 
600.11 31.2869 14.9416 14.8469 0.190294 0.852687 6.51118e-38 1.39979 0.0003 -2.9208 -0.24248 
600.11 46.931 14.268 14.2697 -0.00132876 -3.9182 0.103952 0.0546624 0.503 -1.7881 0.607239 
600.11 48.2732 14.2129 14.2056 0.00915199 -4.49195 0.061135 0.0546624 0.0003 -1.61186 0.687762 
600.11 37.4539 14.6687 14.6728 -0.00982531 -1.05884 0.141237 0.0546624 0.503 -2.4921 -0.4461 
600.11 35.2757 14.7641 14.8501 -0.1628 0.729609 7.51375e-219 1.39979 0.0003 -3.37677 0.397948 
600.11 32.8077 14.8734 14.8311 0.0798536 0.133892 4.45451e-16 1.39979 0.0003 -2.62987 0.105674 
600.11 44.525 14.3675 14.3103 0.10493 -3.68214 1.36018e-05 0.0546624 0.0003 -2.08542 0.657794 
600.11 50 14.1429 14.1429 -4.39307e-10 -5.18365 0.0985532 0.0546624 0.0003 -0.896997 -3.99882 
600.11 50 14.1429 14.1429 1.65974e-06 -5.18364 0.0985454 0.0546624 0.0003 1.46696 3.73817 
600.11 42.6095 14.4479 14.4533 -0.0098668 -2.05341 0.140445 0.0546624 0.503 -2.59152 0.899225 
600.11 32.1713 14.902 14.9179 -0.0193252 3.1565 2.44049e-172 1.39979 0.0003 -2.66882 -0.055187 
600.11 39.119 14.5965 14.6721 -0.173691 0.332383 3.03372e-104 1.39979 0.0003 -2.22825 0.0258695 
600.11 50.0004 14.1428 14.1428 -1.33074e-05 -5.18395 0.0986139 0.0546624 0.0003 1.93043 -3.19128 
600.11 37.4765 14.6678 14.7097 -0.0777002 0.735813 3.48139e-168 1.39979 0.0003 -2.8719 0.665207 
600.11 38.0826 14.6414 14.659 -0.0403511 -0.754804 0.195292 0.0546624 0.503 -3.15375 0.695575 
600.11 38.291 14.6324 14.6372 -0.00768749 -1.52757 0.132226 0.0546624 0.503 -3.72453 0.00289869 
600.11 48.7576 14.1932 14.1825 0.0191752 -4.82799 0.0290413 0.0546624 0.0003 -1.91433 1.24259 
600.11 33.3013 14.8515 14.896 -0.0770142 2.87575 5.19475e-176 1.39979 0.0003 -3.08667 0.411619 
600.11 37.0775 14.6852 14.6924 -0.0071563 -0.139647 0.127426 0.0546624 0.503 -3.23289 -0.611604 
600.11 35.5088 14.7538 14.7772 -0.0369326 0.266938 4.44408e-67 1.39979 0.0003 -3.53019 0.186434 
600.11 35.1691 14.7685 14.6978 0.124062 -0.859395 2.53037e-06 0.0546624 0.0003 -2.81661 0.50909 
600.11 41.742 14.4847 14.4855 -0.00193007 -1.82276 0.107562 0.0546624 0.503 -3.79706 -0.481226 
600.11 35.5665 14.7513 14.8521 -0.191012 1.06533 1.48799e-215 1.39979 0.0003 -2.50116 0.266576 
600.11 37.1969 14.68 14.7543 -0.139903 0.199256 8.60503e-158 1.39979 0.0003 -2.64373 0.557156 
600.11 38.9616 14.6033 14.6352 -0.0724503 -0.140921 0.199755 0.0546624 0.503 -2.90711 0.757298 
600.11 34.6471 14.7917 14.7904 0.00180873 -0.347613 0.0908807 0.0546624 0.0003 -3.02357 0.508538 
600.11 35.7029 14.7451 14.7441 -0.000269612 -0.511343 0.100805 0.0546624 0.503 -2.54528 -0.349665 
600.11 37.9998 14.6449 14.647 -0.00189394 -0.853808 0.106148 0.0546624 0.503 -2.91913 0.702672 
600.11 31.7611 14.9204 14.9301 -0.0125059 3.05027 9.61728e-218 1.39979 0.0003 -3.27336 -0.125161 
600.11 37.7645 14.6552 14.6546 0.000851342 -0.431187 0.0948603 0.0546624 0.0003 -3.31174 0.61999 
600.11 33.3968 14.847 14.759 0.166088 -0.350543 4.86268e-08 0.0546624 0.0003 -3.28783 -0.31525 
600.11 39.2496 14.5909 14.5999 -0.0171799 -1.1544 0.164588 0.0546624 0.503 -3.72602 -0.284769 
600.11 49.0462 14.1815 14.1731 0.024271 -4.85155 0.0177675 0.0546624 0.0003 -1.43613 0.732933 
600.11 35.6182 14.749 14.762 -0.0170125 0.315062 2.53927e-63 1.39979 0.0003 -2.50351 0.277066 
600.11 36.2079 14.723 14.6817 0.0831351 -1.00684 9.20195e-05 0.0546624 0.0003 -2.45372 -0.25634 
600.11 32.8168 14.873 14.779 0.191504 1.32819 8.35137e-52 1.39979 0.0003 -3.07694 0.377812 
600.11 36.2339 14.7218 14.6789 0.077416 -1.10538 0.000169632 0.0546624 0.0003 -2.5899 0.444676 
600.11 48.8952 14.1876 14.1889 -0.00331057 -4.70675 0.11403 0.0546624 0.503 -1.50665 -0.779389 
600.11 30.6838 14.9689 14.8956 0.152538 1.53951 4.91566e-67 1.39979 0.0003 -2.94399 0.175792 
600.11 38.2993 14.6321 14.636 -0.00838874 -1.04002 0.135712 0.0546624 0.503 -2.93987 -0.722498 
600.11 45.9184 14.3097 14.3154 -0.0123118 -3.23063 0.150726 0.0546624 0.503 -2.48571 1.1371 
600.11 37.2032 14.6796 14.6832 -0.00550002 -0.318231 0.122804 0.0546624 0.503 -3.62393 0.219161 
600.11 47.1073 14.2607 14.2626 -0.000314651 -3.8674 0.0984112 0.0546624 0.0003 -4.00172 -0.944247 
600.11 40.3697 14.5431 14.5506 -0.0169318 -1.02869 0.164906 0.0546624 0.503 -2.17705 -0.198258 
600.11 37.9365 14.6478 14.6634 -0.0268432 -0.187105 0.183597 0.0546624 0.503 -2.59565 0.576409 
600.11 34.8499 14.7827 14.7535 0.0584483 -0.0845369 0.000894094 0.0546624 0.0003 -2.92517 -0.516266 
600.11 35.0006 14.7761 14.8006 -0.0498599 1.13961 6.22266e-130 1.39979 0.0003 -2.48097 -0.112292 
600.11 40.1709 14.5514 14.6291 -0.169933 -0.239267 0.2 0.0546624 0.503 -2.31056 0.470287 
600.11 37.3768 14.672 14.6388 0.0706583 -0.477655 0.000280576 0.0546624 0.0003 -2.33806 -0.113126 
600.11 36.3977 14.7146 14.6388 0.13755 -0.783614 7.05079e-07 0.0546624 0.0003 -3.39732 0.468699 
600.11 39.6757 14.5729 14.6656 -0.205856 -0.421378 0.2 0.0546624 0.503 -3.1709 0.786863 
600.11 42.7728 14.441 14.4353 0.00387011 -2.22037 0.0841085 0.0546624 0.0003 -2.03419 0.254003 
600.11 50 14.1429 14.1429 -3.31309e-09 -5.18357 0.0985532 0.0546624 0.0003 1.11466 3.97988 
600.11 39.5101 14.5798 14.5856 -0.0119563 -1.36544 0.149039 0.0546624 0.503 -2.4087 0.531548 
600.11 38.3586 14.6295 14.6351 -0.0120387 -0.405969 0.149887 0.0546624 0.503 -2.5875 -0.600063 
600.11 31.6674 14.9246 14.8568 0.14229 1.33314 3.45716e-60 1.39979 0.0003 -2.71389 -0.0583545 
600.11 40.5718 14.5343 14.5476 -0.0256914 -1.40729 0.182107 0.0546624 0.503 -2.18712 -0.276275 
600.11 40.5528 14.5351 14.5397 -0.00751869 -1.62717 0.130975 0.0546624 0.503 -3.71146 0.47825 
600.11 30.5382 14.9756 14.978 0.004968 3.62944 9.55144e-188 1.39979 0.0003 -3.09291 -0.13476 
600.11 38.1296 14.6395 14.7084 -0.153566 -0.204021 0.2 0.0546624 0.503 -3.54424 0.46406 
600.11 33.3117 14.8509 14.9067 -0.11133 2.0188 1.97626e-323 1.39979 0.0003 -2.80077 -0.370951 
600.11 50.0056 14.1426 14.1427 -9.02877e-05 -5.18525 0.0989684 0.0546624 0.0003 1.38879 2.49294 
600.11 41.7616 14.4837 14.4426 0.08399 -2.03787 8.4117e-05 0.0546624 0.0003 -2.07442 0.111317 
600.11 50.0003 14.1428 14.1428 8.30847e-05 -5.18409 0.0981683 0.0546624 0.0003 0.17075 1.93149 
600.11 50 14.1429 14.1429 1.45597e-07 -5.18352 0.0985525 0.0546624 0.0003 -1.17784 -3.44536 
600.11 37.2734 14.6765 14.6813 -0.0105553 -0.551838 0.143778 0.0546624 0.503 -2.36685 0.205359 
600.11 30.9055 14.9589 14.9708 -0.0289555 2.63783 1.97626e-323 1.39979 0.0003 -3.15573 -0.145338 
600.11 36.6562 14.7034 14.7103 -0.0159393 -0.943215 0.162415 0.0546624 0.503 -3.50007 -0.383128 
600.11 43.3878 14.4152 14.404 0.0253336 -2.52151 0.0168426 0.0546624 0.0003 -3.6194 0.83728 
600.11 30.9306 14.9579 14.9356 0.0615836 2.13033 1.26349e-98 1.39979 0.0003 -3.09626 0.193635 
600.11 39.397 14.5846 14.5897 -0.00838226 -1.37879 0.134534 0.0546624 0.503 -2.74969 -0.747633 
600.11 39.5295 14.5791 14.6025 -0.0554735 -1.1165 0.198857 0.0546624 0.503 -2.62261 -0.701442 
600.11 31.7947 14.9189 14.9002 0.0464238 1.47654 7.53203e-105 1.39979 0.0003 -3.17801 -0.245925 
600.11 49.0503 14.1813 14.1695 0.0227387 -4.89265 0.0215618 0.0546624 0.0003 -2.00632 1.4137 
600.11 50 14.1429 14.1429 -1.30605e-06 -5.18268 0.0985591 0.0546624 0.0003 2.22491 3.61808 
600.11 42.0375 14.472 14.3785 0.179383 -2.65648 1.39086e-08 0.0546624 0.0003 -2.15286 -0.429545 
600.11 35.135 14.7703 14.7348 0.0993041 0.332982 4.16412e-23 1.39979 0.0003 -2.97817 -0.53895 
600.11 37.7326 14.6567 14.6622 -0.00981962 -0.716292 0.141068 0.0546624 0.503 -3.42693 0.544821 
600.11 37.7229 14.6569 14.7085 -0.116183 -0.27164 0.199996 0.0546624 0.503 -3.18295 -0.666843 
600.11 38.4315 14.6264 14.6349 -0.012784 -1.44549 0.15069 0.0546624 0.503 -2.36132 -0.358971 
600.11 39.8055 14.5672 14.5517 0.0332218 -0.918024 0.00857428 0.0546624 0.0003 -2.26486 -0.346364 
600.11 38.0804 14.6416 14.6509 -0.016523 -0.620072 0.162767 0.0546624 0.503 -3.6576 -0.27288 
600.11 40.2875 14.5466 14.5598 -0.0298878 -1.23398 0.188234 0.0546624 0.503 -3.76419 0.352376 
600.11 33.7063 14.8335 14.9016 -0.124516 1.56793 5.88186e-166 1.39979 0.0003 -3.18001 -0.410655 
600.11 38.5331 14.6218 14.6279 -0.0142131 -1.40573 0.157305 0.0546624 0.503 -3.73752 0.036192 
600.11 35.7294 14.7439 14.656 0.166984 0.104356 5.7975e-12 1.39979 0.0003 -2.43301 0.0953718 
600.11 38.4033 14.6275 14.6299 -0.00851442 -0.98935 0.137395 0.0546624 0.503 -2.58427 -0.601105 
600.11 43.5749 14.4074 14.4162 -0.0165521 -2.68223 0.163116 0.0546624 0.503 -3.15347 -1.04361 
600.11 40.0246 14.5578 14.5607 -0.00855524 -1.41798 0.137014 0.0546624 0.503 -3.14032 0.813575 
600.11 43.1138 14.4267 14.4367 -0.0191321 -1.9826 0.169572 0.0546624 0.503 -2.31352 -0.757262 
600.11 33.494 14.843 14.9126 -0.128079 1.61599 1.97626e-323 1.39979 0.0003 -2.89843 0.421937 
600.11 39.6423 14.5741 14.5806 -0.011871 -1.63054 0.148023 0.0546624 0.503 -2.83448 -0.785746 
600.11 37.8938 14.6495 14.6278 0.0296205 -1.16263 0.0135706 0.0546624 0.0003 -3.62857 0.310979 
600.11 41.0974 14.5119 14.5138 -0.00489788 -1.83055 0.121648 0.0546624 0.503 -2.11332 0.0819512 
600.11 33.9666 14.8219 14.8574 -0.0618488 1.52001 1.05802e-221 1.39979 0.0003 -3.24231 -0.397547 
600.11 39.8692 14.5645 14.577 -0.0229004 -1.56258 0.177631 0.0546624 0.503 -2.18373 -0.0222243 
600.11 37.1762 14.6806 14.6308 0.0795527 -1.19991 0.000157476 0.0546624 0.0003 -3.61942 0.227161 
600.11 34.7495 14.7872 14.7657 0.0486597 -0.140742 0.00207862 0.0546624 0.0003 -2.90028 -0.505728 
600.11 31.1113 14.9497 14.9703 -0.0288444 2.66666 1.30031e-221 1.39979 0.0003 -2.76316 0.00543985 
600.11 50 14.1429 14.1429 1.16188e-07 -5.18343 0.0985526 0.0546624 0.0003 0.693431 2.98385 
600.11 38.4159 14.6271 14.7263 -0.188643 0.756574 1.97626e-323 1.39979 0.0003 -2.86147 -0.718528 
600.11 31.5069 14.9318 14.8758 0.121981 2.70433 1.90955e-102 1.39979 0.0003 -3.04742 -0.272954 
600.11 38.4698 14.6247 14.6373 -0.0219642 -1.11577 0.175518 0.0546624 0.503 -3.01138 0.734617 
600.11 50.0005 14.1428 14.1428 -1.77426e-05 -5.18375 0.098634 0.0546624 0.0003 1.45306 -2.95526 
600.11 36.172 14.7245 14.725 -0.00275507 -0.267436 0.112222 0.0546624 0.503 -2.58302 0.433221 
600.11 34.8279 14.7836 14.7245 0.110632 0.423104 3.20677e-42 1.39979 0.0003 -2.83951 0.494822 
600.11 30.318 14.9856 14.9833 0.0141583 3.02993 5.4784e-227 1.39979 0.0003 -2.9523 -0.116136 
600.11 50.0001 14.1429 14.1429 -4.03879e-06 -5.18327 0.0985722 0.0546624 0.0003 0.914429 2.85528 
600.11 39.2116 14.5927 14.6247 -0.0703888 -0.384143 0.199704 0.0546624 0.503 -2.22274 -0.0245645 
600.11 37.445 14.6692 14.7676 -0.184941 1.18393 1.30249e-140 1.39979 0.0003 -3.57558 0.35397 
600.11 36.6048 14.7058 14.7793 -0.137668 0.468346 8.15152e-159 1.39979 0.0003 -3.54329 -0.312844 
600.11 37.0815 14.6848 14.6243 0.108251 -0.656702 1.03527e-05 0.0546624 0.0003 -3.63792 -0.145506 
600.11 42.5851 14.4488 14.4108 0.0575502 -2.90023 0.00116558 0.0546624 0.0003 -2.01817 -0.0893721 
600.11 49.9971 14.143 14.143 8.25519e-05 -5.18266 0.0981552 0.0546624 0.0003 -0.471878 -1.50747 
600.11 47.4209 14.2479 14.2518 -0.00759433 -4.04379 0.132169 0.0546624 0.503 -1.5865 -0.0960764 
600.11 37.101 14.6841 14.7087 -0.0405012 0.396198 1.48723e-84 1.39979 0.0003 -2.87434 0.643545 
600.11 39.958 14.5607 14.5684 -0.0129192 -1.52046 0.151689 0.0546624 0.503 -2.19054 0.14188 
600.11 33.2161 14.8551 14.7765 0.154435 0.422799 1.28004e-25 1.39979 0.0003 -3.3182 -0.265391 
600.11 47.0865 14.2616 14.2626 0.000428615 -3.88194 0.0954243 0.0546624 0.0003 -3.39719 1.31537 
600.11 38.9673 14.6031 14.7004 -0.211538 -0.349554 0.2 0.0546624 0.503 -2.49002 -0.568025 
600.11 38.7264 14.6136 14.6171 -0.00591577 -1.50925 0.124955 0.0546624 0.503 -2.57928 0.620451 
600.11 38.3751 14.6287 14.6373 -0.0189581 -0.929921 0.170216 0.0546624 0.503 -3.67751 0.269239 
600.11 50 14.1429 14.1429 -1.15561e-08 -5.18377 0.0985532 0.0546624 0.0003 -0.593526 -3.85288 
600.11 37.3069 14.6751 14.6791 -0.0127784 -0.6734 0.153325 0.0546624 0.503 -2.4477 -0.37479 
600.11 34.3983 14.8028 14.8619 -0.10717 1.23241 4.71067e-151 1.39979 0.0003 -3.44384 -0.215785 
600.11 50 14.1429 14.1429 4.12822e-08 -5.1834 0.098553 0.0546624 0.0003 -1.09705 3.53298 
600.11 43.7632 14.3994 14.3957 0.00901562 -2.6114 0.0589871 0.0546624 0.0003 -3.03321 1.06812 
600.11 37.2681 14.6766 14.6803 -0.00683653 -1.17843 0.128497 0.0546624 0.503 -3.59754 0.291977 
600.11 38.6408 14.6173 14.6196 -0.00832076 -1.1278 0.136752 0.0546624 0.503 -2.26741 -0.133942 
600.11 38.226 14.635 14.6371 -0.00503672 -1.26142 0.121418 0.0546624 0.503 -2.66106 0.635645 
600.11 50.0126 14.1423 14.1423 6.36806e-05 -5.18934 0.0982365 0.0546624 0.0003 3.06283 2.83105 
600.11 36.3448 14.7171 14.7241 -0.0173168 -0.858501 0.166296 0.0546624 0.503 -3.33567 0.510931 
600.11 38.9057 14.606 14.7095 -0.199544 0.16405 1.21859e-223 1.39979 0.0003 -3.17972 -0.738586 
600.11 38.2116 14.6357 14.6451 -0.0238346 -0.477218 0.180016 0.0546624 0.503 -2.57728 -0.582317 
600.11 37.7809 14.6546 14.76 -0.201799 0.320636 3.13437e-184 1.39979 0.0003 -3.06138 -0.692384 
600.11 40.2592 14.5478 14.5807 -0.0712456 -1.05456 0.199722 0.0546624 0.503 -3.23876 -0.805218 
600.11 50 14.1429 14.1429 6.39755e-07 -5.18346 0.0985503 0.0546624 0.0003 -1.42196 3.3587 
600.11 38.8395 14.6086 14.586 0.0407919 -0.601127 0.00464816 0.0546624 0.0003 -3.50027 0.56686 
600.11 39.8157 14.5666 14.636 -0.155468 -0.726021 0.2 0.0546624 0.503 -3.03439 0.812317 
600.11 50 14.1429 14.1429 -1.02164e-06 -5.18393 0.0985579 0.0546624 0.0003 -0.416058 -3.22792 
600.11 30.7702 14.9651 14.9603 0.0231785 1.97232 1.04937e-271 1.39979 0.0003 -3.00839 0.19618 
600.11 35.4919 14.7546 14.8557 -0.191516 1.48742 3.59303e-213 1.39979 0.0003 -3.19546 -0.525971 
600.11 37.2673 14.6767 14.6754 -0.000407597 -1.20788 0.102017 0.0546624 0.503 -2.88227 -0.654664 
600.11 33.9593 14.8223 14.8911 -0.125964 3.03947 3.10005e-205 1.39979 0.0003 -3.31672 0.340689 
600.11 36.4922 14.7108 14.8097 -0.186801 0.97427 3.55921e-162 1.39979 0.0003 -2.99888 0.620385 
600.11 50.0014 14.1428 14.1428 6.19524e-05 -5.1842 0.0982683 0.0546624 0.0003 1.963 3.01737 
600.11 37.1224 14.683 14.6045 0.158168 -0.472983 9.10109e-08 0.0546624 0.0003 -3.06062 -0.653932 
600.11 50.0001 14.1429 14.1429 -4.18738e-07 -5.18362 0.0985549 0.0546624 0.0003 1.08439 -3.04735 
600.11 32.2735 14.8975 14.9406 -0.077714 2.80356 1.97626e-323 1.39979 0.0003 -2.66799 -0.0902217 
600.11 34.0895 14.8165 14.8889 -0.133414 1.65793 6.19916e-177 1.39979 0.0003 -2.74525 -0.399336 
600.11 36.2859 14.7198 14.7236 -0.00748607 -0.899798 0.132284 0.0546624 0.503 -2.44009 -0.237764 
600.11 37.0622 14.6857 14.6632 0.0506604 -0.498211 0.00173231 0.0546624 0.0003 -2.42451 -0.309331 
600.11 39.3661 14.586 14.5858 -0.00109532 -1.19352 0.10394 0.0546624 0.503 -3.76028 -0.201713 
600.11 37.2657 14.6769 14.689 -0.0251545 -1.10669 0.181664 0.0546624 0.503 -3.57505 -0.334314 
600.11 32.351 14.894 14.9061 -0.0124036 2.22202 1.97626e-323 1.39979 0.0003 -2.78173 0.273865 
600.11 36.4107 14.7141 14.7172 -0.00957073 -0.528327 0.141143 0.0546624 0.503 -3.60185 0.128924 
600.11 36.4185 14.7137 14.6253 0.165577 -0.456626 5.15846e-08 0.0546624 0.0003 -2.99981 -0.615671 
600.11 38.3615 14.6292 14.6305 -0.00302572 -0.877717 0.112378 0.0546624 0.503 -3.6439 -0.340749 
600.11 32.0505 14.9075 14.9316 -0.0295989 1.44352 7.93813e-102 1.39979 0.0003 -3.32369 -0.0370606 
600.11 40.7343 14.5275 14.5303 -0.0034489 -1.74183 0.113683 0.0546624 0.503 -2.22083 -0.383499 
600.11 40.6258 14.5319 14.5554 -0.0528302 -0.901426 0.198494 0.0546624 0.503 -3.31665 -0.801477 
600.11 36.4348 14.713 14.627 0.173335 -0.288688 2.24502e-08 0.0546624 0.0003 -2.51733 -0.383853 
600.11 38.2186 14.6355 14.6759 -0.0960244 -0.801715 0.199974 0.0546624 0.503 -3.58726 -0.417052 
600.11 34.1741 14.8125 14.7724 0.0631276 -0.275875 0.000689283 0.0546624 0.0003 -2.71205 -0.382518 
600.11 47.051 14.263 14.2208 0.0797687 -4.35883 0.000131333 0.0546624 0.0003 -1.70916 0.457294 
600.11 50.0002 14.1429 14.1428 5.63504e-06 -5.18349 0.0985273 0.0546624 0.0003 1.92404 3.34094 
600.11 50 14.1429 14.1429 -9.82126e-08 -5.18349 0.0985536 0.0546624 0.0003 0.972592 -3.3592 
600.11 49.9947 14.1431 14.143 0.000130769 -5.18197 0.0979557 0.0546624 0.0003 -1.88917 2.61469 
600.11 30.16 14.9927 14.9572 0.0744349 2.5594 4.36365e-192 1.39979 0.0003 -3.03637 -0.0807941 
600.11 34.2366 14.8097 14.7114 0.187758 -0.50216 6.51166e-09 0.0546624 0.0003 -3.42512 0.228797 
600.11 39.3043 14.5886 14.4977 0.179422 -1.28179 1.3208e-08 0.0546624 0.0003 -2.22743 0.127615 
600.11 34.4922 14.7984 14.7068 0.180561 -0.539106 1.19561e-08 0.0546624 0.0003 -3.36961 0.335466 
600.11 40.8666 14.5218 14.5237 -0.00777362 -1.62178 0.134287 0.0546624 0.503 -2.63431 0.796244 
600.11 38.1846 14.6369 14.6551 -0.0366301 -0.331982 0.193206 0.0546624 0.503 -2.70347 -0.653951 
600.11 36.5561 14.7076 14.5977 0.209994 -0.490306 8.40756e-10 0.0546624 0.0003 -3.18892 0.594394 
600.11 40.0128 14.5582 14.6228 -0.146936 -0.267863 0.2 0.0546624 0.503 -2.53238 -0.679856 
600.11 43.2214 14.4223 14.423 -0.0010837 -2.51424 0.103455 0.0546624 0.503 -2.79619 1.00957 
600.11 36.9295 14.6916 14.7001 -0.0181035 -0.751734 0.168049 0.0546624 0.503 -3.24266 0.598119 
600.11 39.8499 14.5654 14.6496 -0.183561 -0.545896 0.2 0.0546624 0.503 -3.7892 0.205379 
600.11 36.3641 14.7162 14.7198 -0.0104249 -0.593394 0.144856 0.0546624 0.503 -2.86285 -0.597052 
600.11 37.6698 14.6593 14.6329 0.0555403 -0.806067 0.00113714 0.0546624 0.0003 -2.31185 0.0208856 
600.11 38.0551 14.6426 14.6483 -0.00842105 -1.33418 0.134902 0.0546624 0.503 -3.60448 -0.37345 
600.11 33.7196 14.8327 14.7995 0.0455513 0.678888 1.97626e-323 1.39979 0.0003 -3.04078 -0.447011 
600.11 37.0885 14.6847 14.7396 -0.0944821 0.771015 7.96577e-108 1.39979 0.0003 -2.63396 -0.543289 
600.11 31.7427 14.9213 14.9599 -0.0648607 2.15522 1.59736e-288 1.39979 0.0003 -3.19903 -0.223286 
600.11 38.8994 14.6061 14.6566 -0.113666 0.0775794 1.97626e-323 1.39979 0.0003 -2.94555 0.757631 
600.11 50.002 14.1428 14.1428 3.24668e-05 -5.18454 0.0984045 0.0546624 0.0003 1.91495 -2.93843 
600.11 40.0654 14.556 14.5585 -0.00431366 -1.07162 0.117672 0.0546624 0.503 -3.78306 -0.268966 
600.11 38.95 14.6039 14.6088 -0.0139519 -1.05327 0.156892 0.0546624 0.503 -2.45683 0.534861 
600.11 42.7253 14.4432 14.4443 -0.0020916 -2.35402 0.108412 0.0546624 0.503 -2.03518 -0.246267 
600.11 39.1819 14.5939 14.5985 -0.00590616 -1.28169 0.123721 0.0546624 0.503 -2.23059 -0.101038 
600.11 37.3099 14.6749 14.6399 0.0747743 -0.13595 0.000191354 0.0546624 0.0003 -2.71467 -0.603632 
600.11 39.148 14.5953 14.5976 -0.00387581 -0.849116 0.116131 0.0546624 0.503 -3.54303 -0.551897 
600.11 34.975 14.7773 14.7715 0.0210409 1.48976 9.10386e-111 1.39979 0.0003 -2.7105 -0.443336 
600.11 41.0837 14.5125 14.6175 -0.231729 -0.247529 0.2 0.0546624 0.503 -3.81643 -0.35334 
600.11 37.4957 14.6668 14.6687 -0.00456784 -1.04258 0.119675 0.0546624 0.503 -2.94838 0.676661 
600.11 41.1093 14.5114 14.5128 -0.00152262 -1.41776 0.104833 0.0546624 0.503 -2.26399 -0.502456 
600.11 37.8077 14.6533 14.6791 -0.0586557 -0.988183 0.199114 0.0546624 0.503 -2.61254 -0.578632 
600.11 37.8391 14.6519 14.6462 0.0116425 -1.02214 0.0499079 0.0546624 0.0003 -3.64293 -0.272397 
600.11 32.3089 14.8957 14.8309 0.125673 1.19371 5.00167e-102 1.39979 0.0003 -2.81464 0.292842 
600.11 38.6098 14.6186 14.6304 -0.0231194 -0.796615 0.178229 0.0546624 0.503 -2.79223 -0.71312 
600.11 33.2767 14.8525 14.8317 0.0482913 1.4352 1.97626e-323 1.39979 0.0003 -3.19022 0.373073 
600.11 37.3158 14.6748 14.7823 -0.206159 1.13517 4.5917e-309 1.39979 0.0003 -3.64728 0.166055 
600.11 37.0306 14.6871 14.6766 0.0255211 -0.481066 0.0163606 0.0546624 0.0003 -2.68461 -0.570117 
600.11 36.1491 14.7255 14.699 0.0371776 -0.429827 0.00716425 0.0546624 0.0003 -3.44939 0.397385 
600.11 40.4904 14.5378 14.5374 -0.0025382 -1.47916 0.111238 0.0546624 0.503 -3.50196 -0.690129 
600.11 40.9848 14.5167 14.5216 -0.00905805 -1.29768 0.138059 0.0546624 0.503 -2.62909 -0.80208 
600.11 38.2893 14.6323 14.6405 -0.0174912 -1.37221 0.165967 0.0546624 0.503 -2.46091 -0.483943 
600.11 35.3769 14.7596 14.8295 -0.129379 1.31636 1.06191e-170 1.39979 0.0003 -2.72223 -0.479488 
600.11 40.1571 14.552 14.5633 -0.0245067 -1.27355 0.180687 0.0546624 0.503 -3.12945 -0.823217 
600.11 38.9992 14.6018 14.6792 -0.176138 -0.563368 0.2 0.0546624 0.503 -2.63954 -0.675139 
600.11 38.2918 14.6322 14.6563 -0.0540462 -0.458955 0.198641 0.0546624 0.503 -2.27582 -0.00765836 
600.11 37.8373 14.6519 14.6265 0.0268426 -1.46507 0.0187926 0.0546624 0.0003 -3.50888 -0.477642 
600.11 36.5379 14.7085 14.711 -0.00502685 -0.455044 0.121047 0.0546624 0.503 -3.52628 0.332763 
600.11 41.5602 14.4923 14.4998 -0.0126882 -1.47429 0.150436 0.0546624 0.503 -2.11792 0.259117 
600.11 38.5095 14.6229 14.6094 0.0199884 -1.13124 0.0283228 0.0546624 0.0003 -2.61802 0.630183 
600.11 39.9087 14.5629 14.6099 -0.104466 -1.11789 0.199988 0.0546624 0.503 -2.33083 -0.472109 
600.11 37.5528 14.6642 14.6647 -0.00207279 -0.643755 0.107582 0.0546624 0.503 -2.3647 -0.246662 
600.11 36.9197 14.6919 14.7203 -0.0646808 -0.11744 0.199499 0.0546624 0.503 -3.57267 0.297418 
600.11 37.8365 14.6522 14.6572 -0.00100066 -1.70275 0.100088 0.0546624 0.503 -2.61635 0.583473 
600.11 38.7935 14.6105 14.6247 -0.0335021 -1.05108 0.191249 0.0546624 0.503 -2.24982 -0.0678386 
600.11 33.5677 14.8396 14.8736 -0.0635849 1.61076 5.11115e-145 1.39979 0.0003 -2.60476 -0.190826 
600.11 50.0007 14.1428 14.1428 -2.62319e-05 -5.18399 0.098678 0.0546624 0.0003 1.37465 -2.85488 
600.11 35.2682 14.7643 14.7289 0.0792475 0.865797 1.61291e-55 1.39979 0.0003 -2.66081 -0.42961 
600.11 50.0006 14.1428 14.1428 6.65381e-05 -5.18406 0.0982455 0.0546624 0.0003 2.46254 3.26726 
600.11 50 14.1429 14.1429 3.16853e-11 -5.18362 0.0985532 0.0546624 0.0003 -0.0371732 4.15548 
600.11 45.6149 14.3222 14.3312 -0.016536 -3.18068 0.16292 0.0546624 0.503 -1.78788 0.131968 
600.11 33.1675 14.8574 14.8417 0.0418898 1.67785 2.55422e-100 1.39979 0.0003 -2.64275 0.20345 
600.11 36.639 14.704 14.6122 0.170836 -0.68732 3.22709e-08 0.0546624 0.0003 -3.14754 0.610972 
600.11 30.3131 14.9858 14.9283 0.122536 1.83278 8.69004e-82 1.39979 0.0003 -2.88299 0.0417731 
600.11 38.476 14.6245 14.6305 -0.0127551 -0.705285 0.15164 0.0546624 0.503 -3.72901 0.095639 
600.11 32.5415 14.8853 14.8255 0.126082 0.925103 6.92094e-49 1.39979 0.0003 -2.92671 -0.357456 
600.11 37.6993 14.6581 14.7133 -0.101525 0.941023 1.59744e-135 1.39979 0.0003 -3.02315 -0.689937 
600.11 31.3115 14.9405 14.834 0.216328 2.41268 6.56609e-77 1.39979 0.0003 -2.84315 -0.204353 
600.11 39.8097 14.5671 14.5694 -0.00717634 -1.47109 0.131805 0.0546624 0.503 -2.29045 -0.39713 
600.11 35.8771 14.7374 14.7445 -0.0417452 0.0822287 7.07586e-72 1.39979 0.0003 -3.55377 -0.184571 
600.11 38.3875 14.6283 14.7013 -0.142058 0.839481 9.4078e-248 1.39979 0.0003 -3.01267 0.729944 
600.11 34.6824 14.7903 14.8331 -0.0635045 1.64736 4.00537e-100 1.39979 0.0003 -3.50261 0.0948545 
600.11 31.1016 14.9501 14.9223 0.0671793 1.52725 6.87122e-81 1.39979 0.0003 -3.21897 0.0871815 
600.11 49.6489 14.1571 14.1571 -0.000287381 -5.02987 0.100015 0.0546624 0.503 -1.93391 -1.68086 
600.11 31.3651 14.9383 14.8523 0.189854 2.11428 1.79009e-71 1.39979 0.0003 -2.82147 -0.193643 
600.11 33.6432 14.8363 14.9055 -0.132255 2.74391 1.19343e-199 1.39979 0.0003 -2.97076 0.443064 
600.11 33.5418 14.8406 14.7432 0.190895 -0.0773404 4.64872e-09 0.0546624 0.0003 -3.03579 0.435397 
600.11 30.7625 14.9654 14.9227 0.0966716 1.41849 8.05568e-69 1.39979 0.0003 -2.86582 -0.141775 
600.11 50 14.1429 14.1429 -3.85977e-07 -5.18358 0.0985549 0.0546624 0.0003 -0.34062 -3.14302 
600.11 39.2927 14.5892 14.6108 -0.0491141 -1.28954 0.197874 0.0546624 0.503 -2.26685 0.273716 
600.11 30.3978 14.982 14.9723 0.0318899 2.46417 8.3179e-229 1.39979 0.0003 -2.89797 -0.0966249 
600.11 38.5711 14.6202 14.5978 0.0438415 -1.68899 0.00342084 0.0546624 0.0003 -3.12139 -0.730483 
600.11 40.3189 14.5453 14.5482 -0.00332257 -0.914796 0.113488 0.0546624 0.503 -2.90338 -0.837775 
600.11 34.2171 14.8106 14.6812 0.253453 0.353619 1.19472e-20 1.39979 0.0003 -2.61357 0.28728 
600.11 39.9991 14.5588 14.5663 -0.0160198 -1.34505 0.162201 0.0546624 0.503 -2.46732 0.629088 
600.11 50 14.1429 14.1429 7.84135e-07 -5.18351 0.0985495 0.0546624 0.0003 -0.34473 -2.66547 
600.11 30.7406 14.9664 14.9468 0.0499761 2.53328 5.05608e-120 1.39979 0.0003 -3.09483 0.167403 
600.11 43.1472 14.4254 14.4265 -0.00215816 -2.72742 0.108889 0.0546624 0.503 -1.99236 -0.186354 
600.11 36.4247 14.7137 14.7971 -0.157335 0.88359 4.08922e-194 1.39979 0.0003 -2.88855 -0.606249 
600.11 38.3389 14.6303 14.7076 -0.170963 -0.383898 0.2 0.0546624 0.503 -2.67728 0.651705 
600.11 48.7405 14.1939 14.1937 -0.000330097 -4.73979 0.100304 0.0546624 0.503 -2.15962 -1.41568 
600.11 34.615 14.793 14.698 0.18114 -0.109989 1.19746e-08 0.0546624 0.0003 -2.50076 -0.0874517 
600.11 49.2686 14.1725 14.1735 -0.00107769 -4.87912 0.102984 0.0546624 0.503 -2.53327 -1.73899 
600.11 37.6217 14.6613 14.7079 -0.104196 -0.928808 0.199987 0.0546624 0.503 -3.06153 -0.682771 
600.11 36.2523 14.7212 14.7409 -0.0314535 1.10712 3.04804e-301 1.39979 0.0003 -2.929 -0.602017 
600.11 35.7922 14.7411 14.6439 0.182539 -0.600653 1.08344e-08 0.0546624 0.0003 -2.71888 -0.505795 
600.11 37.0096 14.688 14.7037 -0.0315675 -0.703949 0.189515 0.0546624 0.503 -3.20591 0.616802 
600.11 36.7696 14.6984 14.6771 0.0317995 -0.976667 0.0109481 0.0546624 0.0003 -2.45476 -0.327937 
600.11 38.4534 14.6254 14.6241 -0.000902435 -0.920882 0.104429 0.0546624 0.503 -3.21984 0.699793 
600.11 49.6134 14.1585 14.159 0.000907181 -5.00784 0.0934777 0.0546624 0.0003 -2.27546 1.82834 
600.11 48.3944 14.208 14.1834 0.0462758 -4.75288 0.00278533 0.0546624 0.0003 -1.62558 0.76296 
600.11 32.5831 14.8836 14.9099 -0.0403505 1.28195 3.1599e-110 1.39979 0.0003 -3.12274 -0.347242 
600.11 33.1474 14.8584 14.912 -0.0952902 2.25814 6.14614e-175 1.39979 0.0003 -3.31294 0.26464 
600.11 34.6243 14.7927 14.7433 0.103319 -0.27764 1.38526e-05 0.0546624 0.0003 -3.44515 0.243881 
600.11 37.8408 14.652 14.6517 -0.00494027 -0.969232 0.123976 0.0546624 0.503 -3.3303 0.615544 
600.11 43.0144 14.4308 14.3683 0.120098 -2.94815 3.21653e-06 0.0546624 0.0003 -3.0052 -1.01514 
600.11 38.1121 14.6401 14.6394 0.00434379 -1.33759 0.0776287 0.0546624 0.0003 -3.20539 0.683855 
600.11 50 14.1429 14.1429 1.29681e-10 -5.18361 0.0985532 0.0546624 0.0003 -0.544128 -3.94439 
600.11 39.0457 14.5999 14.6111 -0.0241976 -1.23952 0.180525 0.0546624 0.503 -3.14437 -0.754576 
600.11 37.1776 14.6807 14.6992 -0.0493472 -0.870512 0.198045 0.0546624 0.503 -3.00177 0.660032 
600.11 39.3982 14.5846 14.6539 -0.153162 -0.652617 0.2 0.0546624 0.503 -2.96974 0.788133 
600.11 35.8578 14.7385 14.8286 -0.172284 1.03883 7.59924e-214 1.39979 0.0003 -3.58089 -0.049183 
600.11 38.9268 14.6051 14.6946 -0.167543 0.0782236 3.47094e-229 1.39979 0.0003 -2.43353 0.508728 
600.11 32.7182 14.8773 14.7614 0.228702 0.79229 3.94788e-33 1.39979 0.0003 -3.29787 -0.232947 
600.11 36.7342 14.7 14.7072 -0.0122214 -1.00403 0.149295 0.0546624 0.503 -3.31914 -0.548364 
600.11 43.0017 14.4314 14.3952 0.085849 -2.59327 6.42003e-05 0.0546624 0.0003 -3.12511 -1.00674 
600.11 36.2046 14.7231 14.694 0.0555168 -0.883438 0.00120089 0.0546624 0.0003 -2.85693 0.586029 
600.11 35.8982 14.7367 14.7452 0.00884323 -0.30101 0.051163 0.0546624 0.0003 -3.5767 0.100335 
600.11 36.2373 14.7219 14.8194 -0.183542 0.597469 1.01388e-150 1.39979 0.0003 -3.59243 0.124845 
600.11 32.1863 14.9014 14.9491 -0.0822177 2.67348 2.57576e-170 1.39979 0.0003 -3.12699 -0.312205 
600.11 48.7059 14.1953 14.1963 -0.000985103 -4.58227 0.102449 0.0546624 0.503 -1.50803 -0.675929 
600.11 34.4155 14.8021 14.8554 -0.0955674 1.80831 1.65152e-157 1.39979 0.0003 -3.49173 -0.0532429 
600.11 33.4105 14.8465 14.794 0.111207 0.602951 7.85896e-38 1.39979 0.0003 -2.75461 0.350675 
600.11 50 14.1429 14.1429 -9.97961e-10 -5.18354 0.0985532 0.0546624 0.0003 0.0447204 4.15275 
600.11 34.9365 14.779 14.7 0.164386 -0.294156 5.02097e-08 0.0546624 0.0003 -2.63925 -0.384396 
600.11 37.2788 14.6764 14.7117 -0.0544376 0.612925 5.27563e-64 1.39979 0.0003 -2.42843 -0.341951 
600.11 33.7467 14.8315 14.7634 0.12058 1.01934 3.46584e-227 1.39979 0.0003 -2.86107 -0.428704 
600.11 38.6223 14.6182 14.6637 -0.0978314 -0.316317 0.199976 0.0546624 0.503 -2.31148 0.281144 
600.11 31.7037 14.9229 14.8846 0.0818128 1.94041 2.80051e-168 1.39979 0.0003 -2.72355 0.103974 
600.11 40.9262 14.5193 14.5057 0.0300341 -1.5306 0.0112632 0.0546624 0.0003 -2.41023 0.653231 
600.11 33.9364 14.8231 14.7293 0.190259 1.16404 2.66325e-47 1.39979 0.0003 -2.60828 -0.247455 
600.11 37.4906 14.6671 14.6641 0.0121124 -0.547636 0.0463292 0.0546624 0.0003 -3.04024 -0.676977 
600.11 39.3734 14.5857 14.5842 -0.00192218 -0.654663 0.109626 0.0546624 0.503 -2.24588 0.226646 
600.11 50.0001 14.1429 14.1429 -3.24757e-06 -5.18354 0.0985678 0.0546624 0.0003 0.264626 2.32432 
600.11 36.0741 14.7289 14.7347 -0.0106183 -0.694799 0.144162 0.0546624 0.503 -2.46744 0.266344 
600.11 50 14.1429 14.1429 7.9439e-10 -5.18333 0.0985532 0.0546624 0.0003 -0.534572 -3.79672 
600.11 32.9614 14.8667 14.9203 -0.0978899 3.00591 1.70154e-312 1.39979 0.0003 -3.19405 0.345738 
600.11 38.543 14.6216 14.6337 -0.0207771 -1.19314 0.172743 0.0546624 0.503 -2.5216 0.563422 
600.11 33.8662 14.8263 14.8093 0.0425393 0.117103 4.91572e-18 1.39979 0.0003 -2.59992 0.224709 
600.11 34.3942 14.803 14.8878 -0.159029 2.25284 1.97626e-323 1.39979 0.0003 -2.56512 0.232839 
600.11 38.6519 14.6168 14.6218 -0.00841183 -1.00655 0.134863 0.0546624 0.503 -2.25557 -0.0350549 
600.11 37.9837 14.6456 14.6599 -0.0285288 -1.33081 0.186095 0.0546624 0.503 -3.69996 0.095618 
600.11 36.4692 14.7115 14.6629 0.0855957 -0.709587 8.24706e-05 0.0546624 0.0003 -3.46158 -0.411972 
600.11 39.2823 14.5896 14.5899 -0.000236698 -1.3621 0.0996809 0.0546624 0.503 -2.37364 -0.468326 
600.11 33.1075 14.86 14.7778 0.162569 0.634898 7.25809e-34 1.39979 0.0003 -3.15245 -0.376989 
600.11 38.3986 14.6276 14.6343 -0.0149723 -1.11461 0.158876 0.0546624 0.503 -2.50329 0.535686 
600.11 38.6566 14.6167 14.622 -0.007647 -1.95749 0.131216 0.0546624 0.503 -3.07687 -0.741735 
600.11 34.3783 14.8037 14.823 -0.0280007 1.01615 4.49397e-102 1.39979 0.0003 -2.96336 -0.490808 
600.11 49.9998 14.1429 14.1429 7.88738e-06 -5.18369 0.0985174 0.0546624 0.0003 -1.75393 3.117 
600.11 36.904 14.6928 14.7822 -0.168874 0.904167 2.99989e-181 1.39979 0.0003 -2.82913 0.621298 
600.11 34.6169 14.7932 14.8305 -0.0710888 1.19062 4.94444e-263 1.39979 0.0003 -3.41636 -0.289955 
600.11 44.1121 14.3848 14.3804 0.00258773 -2.76677 0.089298 0.0546624 0.0003 -3.57571 0.930965 
600.11 39.0951 14.5975 14.6009 -0.00506695 -1.67483 0.119941 0.0546624 0.503 -3.44127 -0.631965 
600.11 48.7927 14.1918 14.1747 0.0324624 -4.83922 0.00948423 0.0546624 0.0003 -2.31294 1.50949 
600.11 33.6617 14.8355 14.898 -0.11295 1.86418 9.20228e-159 1.39979 0.0003 -3.42652 -0.128199 
600.11 39.4609 14.5819 14.5982 -0.0368305 -1.50063 0.193489 0.0546624 0.503 -3.45886 -0.645949 
600.11 38.1324 14.6391 14.6417 -0.004104 -1.3687 0.116414 0.0546624 0.503 -3.25731 0.667149 
600.11 33.6676 14.8352 14.8172 0.0628849 -0.148512 0.000476181 0.0546624 0.0003 -2.6572 -0.284901 
600.11 31.0487 14.9525 14.8946 0.12351 1.52719 1.91751e-72 1.39979 0.0003 -2.7706 -0.0114002 
600.11 32.3757 14.8928 14.8842 0.028775 1.00244 1.19316e-73 1.39979 0.0003 -2.92644 -0.344345 
600.11 38.2171 14.6355 14.6358 -0.00190892 -1.56313 0.107273 0.0546624 0.503 -2.56057 0.570206 
600.11 37.4611 14.6683 14.6741 -0.0122575 -0.292568 0.150114 0.0546624 0.503 -2.52694 -0.483312 
600.11 48.9896 14.1838 14.1811 0.00575216 -4.81811 0.0726598 0.0546624 0.0003 -2.70286 1.68444 
600.11 38.964 14.6035 14.6084 -0.01177 -0.880015 0.149241 0.0546624 0.503 -3.68807 -0.331007 
600.11 38.2898 14.6324 14.6403 -0.0127481 -0.911699 0.150389 0.0546624 0.503 -2.35033 -0.320344 
600.11 46.87 14.2705 14.2725 -0.00596228 -3.81651 0.12608 0.0546624 0.503 -2.05979 -0.96648 
600.11 37.4976 14.6669 14.7713 -0.199906 0.511146 9.9809e-214 1.39979 0.0003 -2.92327 0.674394 
600.11 37.0896 14.6846 14.6866 0.00910082 -0.0617932 0.0544262 0.0546624 0.0003 -2.48802 -0.408582 
600.11 37.5627 14.664 14.6605 0.0114826 -0.368197 0.0489364 0.0546624 0.0003 -2.4234 -0.364835 
600.11 42.1546 14.4671 14.4289 0.0786241 -2.22358 0.000137177 0.0546624 0.0003 -2.28498 -0.636977 
600.11 32.4214 14.8907 14.8203 0.145989 1.35155 4.53231e-62 1.39979 0.0003 -2.9797 0.354962 
600.11 36.1822 14.7243 14.7552 -0.0417845 0.0204855 7.37386e-24 1.39979 0.0003 -3.22054 0.560308 
600.11 31.6599 14.9248 14.8241 0.202634 0.974113 2.84883e-40 1.39979 0.0003 -2.74583 -0.142096 
600.11 37.7088 14.6577 14.6617 -0.00546156 -0.765456 0.121899 0.0546624 0.503 -2.31899 -0.116814 
600.11 37.2257 14.6784 14.7315 -0.123444 -0.519147 0.199998 0.0546624 0.503 -2.62919 -0.549131 
600.11 40.4301 14.5404 14.5408 -0.0033899 -1.35961 0.114595 0.0546624 0.503 -2.33755 0.532501 
600.11 39.9129 14.5625 14.571 -0.019012 -1.12751 0.169807 0.0546624 0.503 -3.81439 0.0889075 
600.11 34.0348 14.8189 14.8449 -0.0409939 1.05261 3.4558e-107 1.39979 0.0003 -3.32761 0.337052 
600.11 38.1199 14.6399 14.6947 -0.120348 -0.858564 0.199997 0.0546624 0.503 -3.67725 -0.227403 
600.11 39.6712 14.5728 14.5716 0.00030538 -1.70633 0.0974593 0.0546624 0.0003 -3.62352 -0.50854 
600.11 30.2893 14.9868 14.9742 0.0164444 2.73679 3.08388e-228 1.39979 0.0003 -3.08729 0.0812953 
600.11 50 14.1429 14.1429 5.03486e-08 -5.1836 0.0985529 0.0546624 0.0003 0.0912021 -3.07946 
600.11 39.6017 14.5758 14.601 -0.0530093 -0.876057 0.198464 0.0546624 0.503 -2.38 0.506874 
600.11 39.7035 14.5715 14.5779 -0.012831 -0.991798 0.151979 0.0546624 0.503 -3.43525 0.678948 
600.11 37.4223 14.6702 14.6676 -0.000829785 -1.49071 0.105253 0.0546624 0.503 -2.43268 -0.364663 
600.11 31.7538 14.9206 14.8193 0.204022 0.994932 9.65765e-41 1.39979 0.0003 -3.2109 -0.212953 
600.11 33.2561 14.8534 14.7699 0.16632 0.944602 1.77463e-46 1.39979 0.0003 -3.01509 0.416891 
600.11 47.3307 14.2515 14.2488 0.00132469 -4.05706 0.094094 0.0546624 0.0003 -1.63334 0.324745 
600.11 39.327 14.5877 14.5959 -0.014522 -1.53486 0.157156 0.0546624 0.503 -3.61987 -0.480609 
600.11 40.3821 14.5424 14.5432 -0.00275491 -1.19549 0.111466 0.0546624 0.503 -3.48072 0.697149 
600.11 34.6064 14.7936 14.8048 -0.0127183 1.75167 2.6323e-242 1.39979 0.0003 -3.3318 0.382815 
600.11 30.572 14.974 14.8932 0.16914 2.55252 4.14855e-89 1.39979 0.0003 -2.86208 0.0967406 
600.11 40.8566 14.5223 14.6308 -0.225532 -0.139693 0.199979 0.0546624 0.503 -2.21254 -0.383774 
600.11 38.7824 14.6111 14.6128 -0.00319565 -1.26992 0.113246 0.0546624 0.503 -2.42694 0.488145 
600.11 38.8783 14.607 14.6684 -0.13799 -0.517213 0.199999 0.0546624 0.503 -2.34671 -0.384937 
600.11 38.2702 14.6333 14.6354 -0.00518298 -1.28949 0.122512 0.0546624 0.503 -3.66842 -0.276489 
600.11 40.7848 14.5252 14.5654 -0.0949264 -0.959802 0.199971 0.0546624 0.503 -2.9068 -0.866648 
600.11 33.4226 14.846 14.8204 0.0588689 0.609724 1.82723e-52 1.39979 0.0003 -3.41613 -0.103835 
600.11 37.4435 14.669 14.6727 -0.00757693 -0.798901 0.131734 0.0546624 0.503 -2.35406 0.197145 
600.11 37.7662 14.6552 14.5938 0.116445 -1.06705 4.76831e-06 0.0546624 0.0003 -2.30983 -0.0745791 
600.11 37.9281 14.648 14.654 -0.0126292 -1.35767 0.151179 0.0546624 0.503 -2.29721 -0.0232939 
600.11 41.0625 14.5134 14.4846 0.0452435 -1.7562 0.00335747 0.0546624 0.0003 -3.8551 -0.240698 
600.11 36.9437 14.6909 14.6916 -0.00431072 -0.803649 0.119386 0.0546624 0.503 -2.3643 -0.117813 
600.11 35.2867 14.7633 14.6694 0.175745 0.232448 1.05169e-16 1.39979 0.0003 -3.0556 -0.545448 
600.11 41.3878 14.4996 14.4914 0.0179171 -1.52281 0.0311487 0.0546624 0.0003 -2.54561 -0.786913 
600.11 43.1368 14.4256 14.4211 0.00138928 -2.51332 0.0949099 0.0546624 0.0003 -2.18063 -0.613498 
600.11 30.8146 14.963 14.9213 0.08996 2.08053 7.3432e-227 1.39979 0.0003 -2.89632 -0.173176 
600.11 39.7388 14.5702 14.6859 -0.223662 0.235562 1.42954e-219 1.39979 0.0003 -3.169 -0.791075 
600.11 37.0633 14.6855 14.6735 0.00747161 -0.832605 0.0719919 0.0546624 0.0003 -3.6531 0.0114659 
600.11 39.6606 14.5734 14.5875 -0.025521 -1.53023 0.181697 0.0546624 0.503 -2.19719 0.0473295 
600.11 35.795 14.741 14.6693 0.128451 -0.85017 1.64522e-06 0.0546624 0.0003 -2.90633 0.57122 
600.11 39.3401 14.5872 14.5904 -0.00758005 -1.54416 0.132883 0.0546624 0.503 -3.56075 0.549845 
600.11 35.1107 14.7712 14.7452 0.0593816 -0.300933 0.000769298 0.0546624 0.0003 -2.71983 -0.459022 
600.11 36.3102 14.7187 14.8234 -0.198598 1.95522 4.34735e-203 1.39979 0.0003 -3.22483 0.566766 
600.11 38.7001 14.6149 14.7376 -0.237219 1.09037 2.34314e-271 1.39979 0.0003 -3.24426 0.707239 
600.11 38.0642 14.6422 14.6973 -0.121104 -0.616323 0.199997 0.0546624 0.503 -2.42092 0.41329 
600.11 36.4794 14.7112 14.715 -0.00754621 -0.204778 0.13236 0.0546624 0.503 -3.28129 -0.55163 
