600.11 38.1205 14.6397 14.6404 -0.00450502 5.31816 1.97626e-323 1.39979 0.0003 -3.05199 0.712574 
600.11 49.9945 14.1431 14.1431 -0.000134252 -0.00524442 0.0991908 0.0546624 0.0003 -0.376064 -1.06258 
600.11 36.6868 14.7022 14.737 -0.0615041 5.83762 1.97626e-323 1.39979 0.0003 -3.2249 0.590249 
600.11 49.2155 14.1746 14.1803 -0.0124822 -0.124705 0.151147 0.0546624 0.503 -3.57673 1.68565 
600.11 46.9749 14.2662 14.2746 -0.0185035 -0.525022 0.168821 0.0546624 0.503 -2.95411 1.35977 
600.11 42.099 14.4696 14.5632 -0.183323 4.01493 1.97626e-323 1.39979 0.0003 -3.93525 -0.189281 
600.11 45.0153 14.3471 14.2878 0.113933 1.57606 1.97626e-323 1.39979 0.0003 -2.03282 0.652461 
600.11 49.8825 14.1476 14.1476 -4.95482e-05 -0.0901518 0.0988306 0.0546624 0.0003 -1.21447 1.35881 
600.11 42.9441 14.4337 14.3487 0.163253 2.01117 9.20667e-158 1.39979 0.0003 -2.36921 -0.789128 
600.11 45.2746 14.3365 14.3321 0.0112542 0.704908 1.97626e-323 1.39979 0.0003 -4.1874 0.0673839 
600.11 49.7983 14.151 14.1497 0.00266965 0.0374564 4.52614e-93 1.39979 0.0003 -1.21638 1.15034 
600.11 50 14.1429 14.1429 1.36877e-08 -0.000492305 0.0985531 0.0546624 0.0003 1.01663 3.51758 
600.11 49.4545 14.1649 14.1658 -0.00180638 -0.17962 0.106929 0.0546624 0.503 -1.54777 -1.19162 
600.11 36.7111 14.7012 14.765 -0.116701 5.77638 1.97626e-323 1.39979 0.0003 -3.02509 -0.632644 
600.11 48.5217 14.2028 14.1901 0.0252477 0.264319 8.49151e-80 1.39979 0.0003 -1.42095 -0.243128 
600.11 48.0457 14.2222 14.2244 -0.00239657 -0.0132716 0.10844 0.0546624 0.503 -3.99947 1.13119 
600.11 49.9943 14.1431 14.1433 -0.000524225 -2.4975e-05 0.047308 0.0546624 0.0003 -0.661995 -1.59203 
600.11 49.6948 14.1552 14.1724 -0.0363684 0.241668 1.97626e-323 1.39979 0.0003 -0.975322 0.0178154 
600.11 48.2861 14.2125 14.2291 -0.0327094 0.147329 8.49914e-281 1.39979 0.0003 -1.78464 0.964892 
600.11 46.9901 14.2656 14.3354 -0.141262 2.01402 1.97626e-323 1.39979 0.0003 -2.90888 1.35949 
600.11 48.8868 14.188 14.1759 0.0253978 0.23468 3.70219e-78 1.39979 0.0003 -3.59615 -1.57325 
600.11 45.3955 14.3313 14.3358 -0.0272171 1.1877 1.97626e-323 1.39979 0.0003 -4.19121 -0.141114 
600.11 50 14.1429 14.1429 -2.20751e-09 -0.000203389 0.0985532 0.0546624 0.0003 0.331947 -3.66548 
600.11 49.7317 14.1537 14.1685 -0.0312521 0.150724 1.97626e-323 1.39979 0.0003 -2.80846 -2.04679 
600.11 42.5452 14.4505 14.377 0.144057 2.45205 1.97626e-323 1.39979 0.0003 -2.44755 0.813406 
600.11 45.697 14.3188 14.3631 -0.115328 2.08633 1.97626e-323 1.39979 0.0003 -3.15277 1.21731 
600.11 49.9988 14.1429 14.143 -0.000118838 0.0010613 1.97626e-323 1.39979 0.0003 -0.140357 -0.940436 
600.11 49.1876 14.1758 14.2136 -0.0794264 0.171849 1.97626e-323 1.39979 0.0003 -3.83311 1.564 
600.11 48.7131 14.195 14.1751 0.0371166 0.341142 1.97626e-323 1.39979 0.0003 -2.60922 -1.59223 
600.11 49.585 14.1596 14.1579 0.00229708 0.088376 1.97626e-323 1.39979 0.0003 -1.65589 1.41087 
600.11 48.7805 14.1923 14.2093 -0.0383528 -0.0928736 0.194359 0.0546624 0.503 -1.34467 -0.0381114 
600.11 45.5926 14.3233 14.4195 -0.192677 2.82358 1.97626e-323 1.39979 0.0003 -1.94413 -0.606533 
600.11 46.8949 14.2694 14.2521 0.0343696 -0.229484 0.00791622 0.0546624 0.0003 -4.19516 -0.62998 
600.11 44.3764 14.3739 14.3295 0.0804241 0.17154 7.57044e-24 1.39979 0.0003 -4.02704 -0.434819 
600.11 46.8334 14.2719 14.2328 0.0754251 0.979314 1.97626e-323 1.39979 0.0003 -2.06887 -0.968892 
600.11 50.0028 14.1427 14.1428 -5.73791e-05 -0.000777557 0.0988123 0.0546624 0.0003 2.54717 3.0475 
600.11 50 14.1429 14.1429 1.51628e-09 -0.0150196 0.0985531 0.0546624 0.0003 0.260657 3.78858 
600.11 44.1276 14.3841 14.3412 0.070952 1.88387 1.97626e-323 1.39979 0.0003 -3.00536 1.09565 
600.11 49.7454 14.1532 14.1533 -0.000259352 -0.0762544 0.09978 0.0546624 0.503 -3.41833 -2.02497 
600.11 50 14.1429 14.1429 -2.86918e-08 -0.000544042 0.0985533 0.0546624 0.0003 1.5529 -3.90671 
600.11 50 14.1429 14.1429 -9.25534e-07 -0.000468568 0.0985575 0.0546624 0.0003 -0.459321 -3.21838 
600.11 49.9153 14.1463 14.1447 0.00281585 0.0148189 1.63044e-62 1.39979 0.0003 -2.12733 -2.14312 
600.11 33.8121 14.8288 14.8888 -0.119619 7.99833 1.97626e-323 1.39979 0.0003 -3.32061 0.323342 
600.11 42.1598 14.4669 14.5027 -0.0885112 2.98993 1.97626e-323 1.39979 0.0003 -2.84581 0.945405 
600.11 50.0011 14.1428 14.1428 -3.83971e-05 -0.00467976 0.0987279 0.0546624 0.0003 1.35899 2.77931 
600.11 49.5583 14.1607 14.1573 0.00618548 -0.178313 0.0712197 0.0546624 0.0003 -1.16304 0.601506 
600.11 49.9709 14.144 14.1442 -0.000430722 -0.03349 0.100555 0.0546624 0.503 -2.63102 2.50343 
600.11 49.8746 14.1479 14.1459 0.00377342 0.00590299 5.7675e-13 1.39979 0.0003 -2.48448 -2.16883 
600.11 47.9637 14.2257 14.2275 -0.00265574 -0.574776 0.110457 0.0546624 0.503 -4.06854 -1.04776 
600.11 49.6436 14.1573 14.1717 -0.0300736 0.246904 9.57224e-298 1.39979 0.0003 -3.34402 1.95683 
600.11 49.941 14.1452 14.1472 -0.00386701 0.030811 1.97626e-323 1.39979 0.0003 -2.47311 2.33093 
600.11 45.2008 14.3395 14.3099 0.0602886 1.12285 4.01833e-126 1.39979 0.0003 -3.89146 -0.777106 
600.11 49.4447 14.1653 14.1667 0.00134158 0.162174 1.97626e-323 1.39979 0.0003 -3.07245 1.87294 
600.11 49.9967 14.143 14.1429 9.82615e-05 -0.00151363 0.0981043 0.0546624 0.0003 -0.433306 1.39125 
600.11 49.9503 14.1449 14.1444 0.000902302 -0.0209077 0.0944226 0.0546624 0.0003 -1.18828 1.61093 
600.11 50.0012 14.1428 14.1427 0.000143437 -0.00634744 0.097892 0.0546624 0.0003 0.568517 2.09896 
600.11 45.218 14.3388 14.3267 0.026859 1.81219 3.12642e-235 1.39979 0.0003 -2.54579 -1.09359 
600.11 50 14.1429 14.1429 -1.85311e-08 4.84805e-05 1.97626e-323 1.39979 0.0003 -1.07861 3.72585 
600.11 49.4346 14.1657 14.1562 0.0177171 0.132419 2.899e-125 1.39979 0.0003 -1.19283 -0.477495 
600.11 30.1071 14.9952 14.965 0.0717584 7.79252 1.97626e-323 1.39979 0.0003 -3.07195 -0.0106117 
600.11 47.839 14.2307 14.1979 0.0618835 0.500122 1.42073e-105 1.39979 0.0003 -2.07452 1.15046 
600.11 47.8976 14.2283 14.2562 -0.067692 0.561016 1.97626e-323 1.39979 0.0003 -2.32793 1.32494 
600.11 49.9997 14.1429 14.1428 4.48051e-05 -0.00295258 0.0983462 0.0546624 0.0003 -0.217677 1.74471 
600.11 49.4171 14.1665 14.1669 -0.000669266 -0.0643071 0.101557 0.0546624 0.503 -3.61996 -1.7552 
600.11 49.9286 14.1457 14.1452 0.000999732 -0.00236764 0.0939594 0.0546624 0.0003 -0.834604 -0.912657 
600.11 45.1031 14.3434 14.283 0.11382 1.14458 1.97626e-323 1.39979 0.0003 -3.74337 0.908774 
600.11 47.2851 14.2534 14.2225 0.0600072 0.772159 4.79445e-157 1.39979 0.0003 -1.60159 0.0331526 
600.11 50 14.1429 14.1429 -8.07829e-11 -0.000717559 0.0985532 0.0546624 0.0003 0.0352713 3.98048 
600.11 50 14.1429 14.1429 -1.99826e-08 8.93493e-05 1.97626e-323 1.39979 0.0003 0.156581 -3.16545 
600.11 37.9828 14.6456 14.5488 0.185916 4.39236 1.97626e-323 1.39979 0.0003 -2.31039 0.152925 
600.11 38.7152 14.614 14.5784 0.07004 3.75121 1.97626e-323 1.39979 0.0003 -2.98289 0.748635 
600.11 49.0105 14.183 14.1955 -0.0282018 -0.231454 0.186102 0.0546624 0.503 -1.74114 -1.167 
600.11 49.9609 14.1444 14.144 0.000708325 0.00409231 5.46103e-252 1.39979 0.0003 -3.22387 -2.46225 
600.11 49.6792 14.1558 14.1561 -0.000681025 -0.30601 0.10179 0.0546624 0.503 -1.22618 -0.951025 
600.11 47.7966 14.2324 14.2023 0.0577702 0.644579 1.97626e-323 1.39979 0.0003 -1.56302 0.310133 
600.11 50.0001 14.1429 14.1429 -1.1182e-06 -5.94464e-05 0.0985579 0.0546624 0.0003 0.929951 2.92248 
600.11 50.0006 14.1428 14.1428 1.27972e-05 -0.000244261 0.098495 0.0546624 0.0003 0.51071 -2.19681 
600.11 50 14.1429 14.1429 -7.77578e-07 -0.00412588 0.0985568 0.0546624 0.0003 0.0598186 2.89852 
600.11 49.988 14.1433 14.1432 0.000275302 -0.00351269 0.0973071 0.0546624 0.0003 -3.09549 -2.69447 
600.11 49.9932 14.1431 14.1431 8.0678e-05 -0.00553252 0.0981854 0.0546624 0.0003 -0.40197 -1.03226 
600.11 46.6243 14.2806 14.3052 -0.0474301 1.18102 1.97626e-323 1.39979 0.0003 -4.07625 -0.765177 
600.11 49.5107 14.1627 14.1657 -0.00673641 -0.286956 0.129115 0.0546624 0.503 -3.05697 -1.90625 
600.11 32.1324 14.9036 14.7938 0.221461 6.92113 1.97626e-323 1.39979 0.0003 -2.82193 -0.280458 
600.11 48.7158 14.195 14.2152 -0.0403189 0.218154 3.54557e-183 1.39979 0.0003 -1.75166 1.06432 
600.11 50 14.1429 14.1429 -2.65549e-07 -2.82791e-05 0.0985544 0.0546624 0.0003 0.925318 3.32395 
600.11 49.7856 14.1515 14.1529 -0.00316894 -0.106131 0.11325 0.0546624 0.503 -2.16565 1.93592 
600.11 47.4121 14.2481 14.214 0.0639518 0.696585 1.97626e-323 1.39979 0.0003 -3.67855 -1.24217 
600.11 49.5487 14.1611 14.1787 -0.0367417 0.184734 1.97626e-323 1.39979 0.0003 -3.74274 1.77894 
600.11 49.7286 14.1538 14.151 0.00548472 0.0783301 3.22875e-160 1.39979 0.0003 -1.26219 -1.09245 
600.11 31.2161 14.9448 14.84 0.213306 7.3522 1.97626e-323 1.39979 0.0003 -3.22361 0.106641 
600.11 50 14.1429 14.1429 2.02994e-06 -0.00146908 0.098544 0.0546624 0.0003 -0.3569 -2.37585 
600.11 49.7505 14.153 14.1633 -0.0217188 0.236856 1.97626e-323 1.39979 0.0003 -2.22088 -1.92099 
600.11 47.0834 14.2616 14.2215 0.0764723 0.842039 1.97626e-323 1.39979 0.0003 -2.16338 -1.0892 
600.11 49.9101 14.1465 14.1461 0.000968024 0.0040288 1.89286e-22 1.39979 0.0003 -1.32257 1.57557 
600.11 43.984 14.3903 14.4307 -0.0631883 2.30721 1.97626e-323 1.39979 0.0003 -3.79034 -0.743723 
600.11 37.8173 14.6528 14.5956 0.11488 4.61619 3.48629e-277 1.39979 0.0003 -2.30374 0.0301298 
600.11 49.7108 14.1545 14.1545 -0.000148534 -0.257074 0.0993325 0.0546624 0.503 -1.52157 -1.40188 
600.11 50 14.1429 14.1429 1.54418e-06 -3.45184e-05 0.098546 0.0546624 0.0003 0.239822 -2.569 
600.11 43.8025 14.3977 14.3212 0.146822 1.85566 1.89586e-198 1.39979 0.0003 -2.53919 -0.967148 
600.11 43.5509 14.4083 14.3321 0.154557 1.52128 3.77423e-116 1.39979 0.0003 -2.88604 -1.04693 
600.11 43.5803 14.407 14.3347 0.140089 1.81429 3.15196e-154 1.39979 0.0003 -2.04022 -0.438263 
600.11 50.0048 14.1427 14.1427 -8.29226e-05 -0.000598195 0.0989216 0.0546624 0.0003 0.72655 1.94821 
600.11 45.4808 14.3278 14.3266 -0.0178017 0.867016 1.97626e-323 1.39979 0.0003 -4.0597 0.578098 
600.11 48.8174 14.1908 14.1924 -0.00423019 -0.46108 0.118248 0.0546624 0.503 -3.29636 1.63832 
600.11 39.4718 14.5815 14.6078 -0.0487853 4.35982 1.97626e-323 1.39979 0.0003 -3.4859 0.626782 
600.11 49.9184 14.1462 14.1474 -0.00248048 0.00913545 1.97626e-323 1.39979 0.0003 -0.753519 -0.587666 
600.11 49.9999 14.1429 14.1429 -1.58184e-05 -0.000112737 0.0986271 0.0546624 0.0003 -1.09277 -2.94287 
600.11 49.2388 14.1737 14.1654 0.0164589 0.233969 8.00171e-160 1.39979 0.0003 -1.22516 0.22977 
600.11 41.7456 14.4845 14.487 0.00141991 3.86632 1.97626e-323 1.39979 0.0003 -2.06901 0.0255568 
600.11 50.0003 14.1428 14.1428 -1.85725e-06 -0.00209337 0.0985618 0.0546624 0.0003 1.50024 3.07391 
600.11 50 14.1429 14.1429 2.78368e-08 -0.00109319 0.098553 0.0546624 0.0003 -1.59727 -3.84733 
600.11 48.8143 14.191 14.2056 -0.0250704 0.569646 1.97626e-323 1.39979 0.0003 -2.32049 1.51917 
600.11 46.1439 14.3004 14.3281 -0.0570751 1.45637 1.97626e-323 1.39979 0.0003 -4.21773 0.361205 
600.11 50 14.1429 14.1429 2.11655e-07 -0.00210967 0.0985522 0.0546624 0.0003 -0.649168 3.05129 
600.11 50 14.1429 14.1429 -7.31246e-08 -0.00590184 0.0985535 0.0546624 0.0003 0.623719 3.24522 
600.11 49.4951 14.1633 14.1644 0.00030911 0.171953 1.16828e-91 1.39979 0.0003 -1.13021 -0.331765 
600.11 48.4682 14.2051 14.2048 -0.000259137 -0.675519 0.100068 0.0546624 0.503 -2.4024 1.4702 
600.11 49.9973 14.143 14.1429 6.32731e-05 8.90893e-05 2.98485e-11 1.39979 0.0003 -0.599939 -1.72257 
600.11 47.615 14.2398 14.2627 -0.0522096 -0.410497 0.198417 0.0546624 0.503 -1.60597 0.374414 
600.11 49.407 14.1669 14.1784 -0.023456 0.352781 1.97626e-323 1.39979 0.0003 -3.73994 1.70322 
600.11 47.8509 14.2302 14.2192 0.0212533 0.359439 8.22606e-156 1.39979 0.0003 -1.58097 -0.414978 
600.11 38.1789 14.6371 14.5331 0.204283 4.2793 1.97626e-323 1.39979 0.0003 -2.83363 -0.698145 
600.11 49.9998 14.1429 14.1429 -3.08218e-05 -0.00678563 0.0986958 0.0546624 0.0003 -1.96294 3.19351 
600.11 44.8429 14.3544 14.3941 -0.0767753 2.66761 1.97626e-323 1.39979 0.0003 -2.7524 -1.12571 
600.11 50 14.1429 14.1429 -1.82487e-07 -0.0017689 0.098554 0.0546624 0.0003 0.518968 3.01876 
600.11 30.3835 14.9826 14.9132 0.148262 7.8476 1.29106e-298 1.39979 0.0003 -3.1376 -0.00325924 
600.11 49.9998 14.1429 14.1429 -1.1913e-05 0.000159993 1.97626e-323 1.39979 0.0003 -1.68535 3.11459 
600.11 40.8485 14.5226 14.5098 0.0312861 3.80202 1.97626e-323 1.39979 0.0003 -2.524 0.734596 
600.11 50 14.1429 14.1429 -1.60624e-07 -0.00122657 0.0985539 0.0546624 0.0003 -1.34118 3.53619 
600.11 48.7513 14.1935 14.1742 0.0360533 0.144985 3.15173e-36 1.39979 0.0003 -1.36647 -0.221423 
600.11 48.6048 14.1994 14.2227 -0.0532215 -0.163584 0.198561 0.0546624 0.503 -1.405 0.254382 
600.11 42.5935 14.4485 14.386 0.123971 2.11972 1.53344e-221 1.39979 0.0003 -3.80094 -0.575993 
600.11 49.8367 14.1495 14.1508 -0.0028891 -0.0229427 0.111869 0.0546624 0.503 -1.69908 -1.73796 
600.11 50 14.1429 14.1429 4.43645e-10 -0.000571412 0.0985532 0.0546624 0.0003 0.215107 3.99357 
600.11 47.1203 14.2602 14.3126 -0.103432 1.53389 1.97626e-323 1.39979 0.0003 -2.05579 1.00414 
600.11 40.9945 14.5163 14.6214 -0.221247 4.53281 1.97626e-323 1.39979 0.0003 -2.21127 0.399634 
600.11 39.7914 14.5677 14.4904 0.151169 3.00907 1.36542e-251 1.39979 0.0003 -3.02271 -0.811366 
600.11 49.9993 14.1429 14.1429 -5.31353e-05 0.000205123 1.97626e-323 1.39979 0.0003 -1.32668 2.69575 
600.11 50 14.1429 14.1429 3.15822e-07 -0.00538986 0.0985517 0.0546624 0.0003 -1.60504 3.53608 
600.11 50 14.1429 14.1429 3.32687e-07 -0.000301222 0.0985517 0.0546624 0.0003 -0.488558 2.84788 
600.11 37.2206 14.6788 14.6221 0.118273 4.86546 1.97626e-323 1.39979 0.0003 -3.54273 0.379897 
600.11 50.0104 14.1424 14.1424 6.45581e-05 -0.00467985 0.0982551 0.0546624 0.0003 3.00993 2.86427 
600.11 49.7005 14.155 14.1694 -0.0304502 0.0222973 1.97626e-323 1.39979 0.0003 -1.57991 -1.44962 
600.11 49.506 14.1628 14.1544 0.0156861 0.117868 1.4095e-147 1.39979 0.0003 -1.80258 1.48064 
600.11 49.9647 14.1443 14.1444 -0.000337878 -0.0155891 0.100117 0.0546624 0.503 -1.77747 2.17188 
600.11 49.0827 14.18 14.1785 0.0034045 -0.170448 0.0829024 0.0546624 0.0003 -1.87981 1.32874 
600.11 50 14.1429 14.1429 1.54571e-07 -0.000818255 0.0985524 0.0546624 0.0003 -0.110946 -2.2361 
600.11 50 14.1429 14.1429 -2.05338e-06 -8.29873e-05 0.0985625 0.0546624 0.0003 0.0668753 2.15918 
600.11 49.9875 14.1434 14.1444 -0.00221767 0.00896957 1.97626e-323 1.39979 0.0003 -1.11732 1.91909 
600.11 50 14.1429 14.1429 3.91527e-10 -0.00184965 0.0985532 0.0546624 0.0003 -0.0024127 4.19149 
600.11 31.253 14.9432 14.9122 0.0599564 7.08073 1.97626e-323 1.39979 0.0003 -2.74881 -0.0163375 
600.11 50.001 14.1428 14.1429 -0.000283404 0.000317189 1.97626e-323 1.39979 0.0003 0.0130231 -1.03115 
600.11 40.4243 14.5407 14.5435 0.000529025 3.09553 1.97626e-323 1.39979 0.0003 -3.83698 0.146041 
600.11 43.2181 14.4224 14.4759 -0.0922592 3.68416 1.97626e-323 1.39979 0.0003 -1.99254 0.212826 
600.11 49.9493 14.1449 14.1456 -0.00134488 0.0230166 1.72403e-153 1.39979 0.0003 -1.87037 -2.14078 
600.11 42.9384 14.4341 14.4589 -0.0449621 2.92072 1.97626e-323 1.39979 0.0003 -2.41289 -0.822016 
600.11 49.8427 14.1492 14.1493 -0.000171434 -0.123773 0.099392 0.0546624 0.503 -1.01392 0.896156 
600.11 49.9719 14.144 14.1444 -0.000817172 0.0178141 6.71553e-273 1.39979 0.0003 -0.631571 0.909351 
600.11 48.5779 14.2005 14.198 -0.00103788 0.0295176 1.51454e-130 1.39979 0.0003 -2.28845 -1.44353 
600.11 49.9975 14.143 14.1431 -0.00034088 0.00246679 8.77699e-174 1.39979 0.0003 -1.23747 -2.38906 
600.11 34.304 14.807 14.8732 -0.126324 7.9847 1.97626e-323 1.39979 0.0003 -3.38554 -0.298318 
600.11 49.7169 14.1543 14.1597 -0.012462 -0.150702 0.151294 0.0546624 0.503 -1.04988 -0.607771 
600.11 50.0009 14.1428 14.1428 1.40692e-07 -0.000158856 0.0985485 0.0546624 0.0003 1.67132 2.97914 
600.11 33.866 14.8263 14.8237 0.0131319 6.89011 1.97626e-323 1.39979 0.0003 -2.75936 -0.390704 
600.11 49.2897 14.1716 14.1725 -0.00179878 -0.219441 0.106748 0.0546624 0.503 -1.98668 1.49815 
600.11 40.8738 14.5215 14.4991 0.0489655 3.80166 1.97626e-323 1.39979 0.0003 -3.68711 -0.544753 
600.11 49.9997 14.1429 14.1429 6.66008e-06 -0.00574777 0.0985226 0.0546624 0.0003 -0.545184 2.22549 
600.11 50 14.1429 14.1429 -4.63053e-08 -0.000977614 0.0985534 0.0546624 0.0003 -1.14138 -3.62324 
600.11 49.8154 14.1503 14.1581 -0.0159835 0.140993 5.62414e-185 1.39979 0.0003 -2.53906 2.09291 
600.11 49.6795 14.1558 14.1503 0.0101943 0.0466502 2.9499e-45 1.39979 0.0003 -1.4965 -1.33771 
600.11 35.1332 14.7701 14.6487 0.238696 5.54014 1.97626e-323 1.39979 0.0003 -2.46495 0.0646526 
600.11 49.9999 14.1429 14.1429 1.06408e-06 -4.80768e-05 0.0985483 0.0546624 0.0003 -0.502102 2.47379 
600.11 49.9092 14.1465 14.1465 9.472e-05 -0.0161437 0.0980917 0.0546624 0.0003 -1.22499 -1.46175 
600.11 48.1741 14.217 14.2589 -0.0931871 -0.150159 0.199964 0.0546624 0.503 -2.31866 -1.37191 
600.11 49.9732 14.1439 14.1439 5.06111e-06 -0.0337913 0.0985375 0.0546624 0.0003 -0.943717 -1.50118 
600.11 45.283 14.3361 14.3795 -0.0834976 2.56514 1.97626e-323 1.39979 0.0003 -2.8896 1.18482 
600.11 30.393 14.9822 14.9514 0.0740949 7.61751 8.36949e-278 1.39979 0.0003 -3.099 0.0983771 
600.11 47.8713 14.2294 14.21 0.0381301 0.65184 1.97626e-323 1.39979 0.0003 -3.59343 -1.35756 
600.11 37.5609 14.664 14.6453 0.0434687 5.37926 1.97626e-323 1.39979 0.0003 -2.36393 0.246367 
600.11 45.7953 14.3148 14.2758 0.0751389 0.870366 1.97626e-323 1.39979 0.0003 -4.0522 0.648756 
600.11 47.3671 14.2501 14.2364 0.0349476 1.02238 8.49555e-243 1.39979 0.0003 -1.75853 -0.667843 
600.11 49.9322 14.1456 14.1446 0.0019662 0.016258 1.18085e-105 1.39979 0.0003 -2.78402 -2.3507 
600.11 50.0006 14.1428 14.1428 -1.12815e-05 -0.000147539 0.098605 0.0546624 0.0003 0.0553971 -1.46341 
600.11 49.9566 14.1446 14.1447 -0.000271196 -0.0372472 0.0998316 0.0546624 0.503 -0.696984 0.839127 
600.11 48.9492 14.1854 14.1848 0.000633469 -0.51049 0.0959601 0.0546624 0.0003 -1.57285 -0.922192 
600.11 41.8009 14.4822 14.5228 -0.0771005 4.20363 1.97626e-323 1.39979 0.0003 -2.20032 -0.484331 
600.11 46.694 14.2776 14.2589 0.0288541 1.30215 1.97626e-323 1.39979 0.0003 -1.76596 0.490506 
600.11 42.0422 14.4718 14.4448 0.0325599 1.64874 9.46577e-236 1.39979 0.0003 -3.38156 0.870166 
600.11 49.6632 14.1565 14.1573 -0.00174805 -0.242086 0.106586 0.0546624 0.503 -1.20855 -0.890438 
600.11 50 14.1429 14.1429 4.34687e-06 -0.000178386 0.0985328 0.0546624 0.0003 0.224073 -2.50883 
600.11 49.0535 14.1812 14.1818 -0.000704022 -0.185086 0.101662 0.0546624 0.503 -1.30307 -0.331804 
600.11 31.2079 14.9453 14.9112 0.0797922 8.24165 1.97626e-323 1.39979 0.0003 -2.77105 -0.0930404 
600.11 50 14.1429 14.1429 -1.15643e-09 -0.000761118 0.0985532 0.0546624 0.0003 -0.298125 -3.38029 
600.11 47.631 14.2392 14.2039 0.0666328 0.502041 1.21108e-87 1.39979 0.0003 -1.79884 -0.804477 
600.11 44.4833 14.3692 14.3195 0.0906453 1.10674 1.97626e-323 1.39979 0.0003 -3.75761 0.82934 
600.11 49.7723 14.1521 14.1531 -0.00213847 -0.0290697 0.108459 0.0546624 0.503 -3.69002 -1.97747 
600.11 49.8694 14.1481 14.1475 0.0013258 0.0433248 4.74537e-302 1.39979 0.0003 -0.825869 0.451092 
600.11 39.5918 14.5763 14.5085 0.15074 4.00584 1.97626e-323 1.39979 0.0003 -2.67297 -0.73015 
600.11 50.0001 14.1429 14.1429 -1.50163e-06 -6.36677e-05 0.0985601 0.0546624 0.0003 0.429978 2.49889 
600.11 45.8729 14.3116 14.3121 0.00435293 1.55272 1.97626e-323 1.39979 0.0003 -2.11425 0.873033 
600.11 31.2381 14.944 14.9505 -0.0085579 7.71416 1.97626e-323 1.39979 0.0003 -2.75891 0.0674059 
600.11 49.6203 14.1582 14.1542 0.00711518 -0.184155 0.067453 0.0546624 0.0003 -2.34698 1.85949 
600.11 48.5684 14.2009 14.2021 -0.00215008 -0.716662 0.108337 0.0546624 0.503 -3.07378 -1.6057 
600.11 49.9837 14.1435 14.1437 -0.000416314 -0.00808232 0.100504 0.0546624 0.503 -2.74975 -2.62885 
600.11 35.0354 14.7747 14.8506 -0.141044 7.61967 1.97626e-323 1.39979 0.0003 -2.54019 0.270231 
600.11 49.8855 14.1475 14.1468 0.00140318 -0.0117155 0.0921137 0.0546624 0.0003 -0.956835 -0.940656 
600.11 33.5985 14.8381 14.7996 0.0611129 5.68783 1.97626e-323 1.39979 0.0003 -2.56835 0.0890302 
600.11 44.9712 14.3491 14.3647 -0.027911 2.02261 1.97626e-323 1.39979 0.0003 -3.24047 1.1381 
600.11 47.1217 14.2601 14.2244 0.068763 0.676959 4.35522e-105 1.39979 0.0003 -2.25172 1.15732 
600.11 50.0006 14.1428 14.1428 -1.2546e-05 -0.00127412 0.0986111 0.0546624 0.0003 0.494869 2.18173 
600.11 43.1317 14.426 14.4155 0.0248789 1.94965 1.97626e-323 1.39979 0.0003 -4.02213 -0.0521219 
600.11 49.8607 14.1485 14.1469 0.00301075 0.0431292 5.08601e-216 1.39979 0.0003 -0.934859 -0.776146 
600.11 49.9999 14.1429 14.1429 -1.77658e-06 -0.00071514 0.0985613 0.0546624 0.0003 -0.62833 2.46992 
600.11 47.7174 14.2357 14.2087 0.0517871 0.495031 1.97626e-323 1.39979 0.0003 -1.54224 0.0383096 
600.11 34.6204 14.793 14.883 -0.168594 7.52589 1.97626e-323 1.39979 0.0003 -3.16162 0.481185 
600.11 46.0148 14.3057 14.2526 0.101474 1.05822 5.57635e-140 1.39979 0.0003 -2.66007 -1.21029 
600.11 31.9778 14.9108 14.955 -0.0754641 7.88878 1.97626e-323 1.39979 0.0003 -3.27763 0.15845 
600.11 49.9843 14.1435 14.1433 0.000387019 -0.001068 0.0967771 0.0546624 0.0003 -0.389033 0.408877 
600.11 48.8918 14.1878 14.1896 -0.004298 -0.402919 0.118496 0.0546624 0.503 -3.75686 1.50417 
600.11 43.8748 14.3948 14.3875 0.0186455 2.3633 1.97626e-323 1.39979 0.0003 -2.27495 -0.796246 
600.11 48.6638 14.197 14.1774 0.0371132 0.31702 4.59523e-115 1.39979 0.0003 -2.71669 -1.6034 
600.11 48.0485 14.2221 14.1923 0.0561101 0.488079 1.99021e-135 1.39979 0.0003 -1.54164 0.391305 
600.11 49.9494 14.1449 14.1451 -0.000600746 0.0233153 2.15709e-320 1.39979 0.0003 -1.25999 1.68289 
600.11 37.6869 14.6587 14.7692 -0.2121 6.47188 1.97626e-323 1.39979 0.0003 -3.6477 0.23695 
600.11 49.5793 14.1599 14.1553 0.00753293 -0.133162 0.0660058 0.0546624 0.0003 -2.05843 -1.70204 
600.11 49.8386 14.1494 14.1475 0.0035877 0.0400999 1.6392e-109 1.39979 0.0003 -2.43963 -2.09975 
600.11 49.9981 14.1429 14.1429 7.27899e-05 0.000429358 1.97626e-323 1.39979 0.0003 -1.48741 -2.60189 
600.11 50.0001 14.1429 14.1429 -3.54429e-06 -0.00395768 0.0985693 0.0546624 0.0003 0.295138 2.34951 
600.11 38.0078 14.6447 14.6206 0.0640109 5.2572 1.97626e-323 1.39979 0.0003 -3.42572 -0.565766 
600.11 48.427 14.2067 14.192 0.0290256 0.448826 6.07663e-173 1.39979 0.0003 -1.92214 1.15318 
600.11 49.9993 14.1429 14.1429 2.40865e-05 0.00011129 7.64293e-46 1.39979 0.0003 -1.06178 2.52012 
600.11 49.3918 14.1675 14.1603 0.0136744 0.0196927 6.88915e-12 1.39979 0.0003 -1.43827 0.991802 
600.11 50 14.1429 14.1429 7.583e-08 -0.00121939 0.0985528 0.0546624 0.0003 -0.236283 -2.83578 
600.11 39.6752 14.5726 14.5026 0.134503 2.97876 1.97626e-323 1.39979 0.0003 -2.45972 -0.596519 
600.11 49.7722 14.1521 14.1484 0.00652919 -0.00128517 0.0698443 0.0546624 0.0003 -2.55011 2.04508 
600.11 46.7215 14.2767 14.258 0.0558261 0.938861 7.53833e-115 1.39979 0.0003 -3.41888 -1.26384 
600.11 47.6779 14.2374 14.2981 -0.124236 0.569495 4.92523e-251 1.39979 0.0003 -3.03256 1.45249 
600.11 49.792 14.1513 14.1518 0.000772371 0.030965 1.71119e-35 1.39979 0.0003 -2.54742 2.06652 
600.11 48.6539 14.1974 14.1988 -0.002146 -0.587534 0.107963 0.0546624 0.503 -2.45682 -1.53258 
600.11 46.3909 14.2902 14.3112 -0.0574862 1.24321 1.97626e-323 1.39979 0.0003 -2.72821 1.2664 
600.11 47.8352 14.2308 14.2425 -0.0350853 0.927576 1.97626e-323 1.39979 0.0003 -4.11737 0.964264 
600.11 48.9415 14.1857 14.1717 0.0269793 0.208254 3.12609e-76 1.39979 0.0003 -1.81074 -1.21047 
600.11 49.9998 14.1429 14.1429 6.70268e-06 4.4573e-05 2.60898e-68 1.39979 0.0003 -0.714484 -2.42297 
600.11 49.8197 14.1502 14.1572 -0.0151603 0.0632262 1.97626e-323 1.39979 0.0003 -1.72452 1.72865 
600.11 34.3004 14.8069 14.7052 0.204639 6.18791 1.97626e-323 1.39979 0.0003 -3.03283 -0.485841 
600.11 49.1525 14.1772 14.1937 -0.031751 0.222088 1.97626e-323 1.39979 0.0003 -1.23984 0.0207146 
600.11 48.3099 14.2114 14.2113 -0.000457627 -0.151714 0.100887 0.0546624 0.503 -1.45194 -0.156649 
600.11 44.4411 14.371 14.313 0.106191 0.605435 1.97626e-323 1.39979 0.0003 -3.94694 -0.597941 
600.11 48.9612 14.185 14.1855 -0.00100489 -0.370536 0.103191 0.0546624 0.503 -3.80769 -1.49889 
600.11 48.61 14.1992 14.1902 0.0184014 0.526295 1.97626e-323 1.39979 0.0003 -1.58199 -0.776016 
600.11 49.7736 14.152 14.1524 -0.000690777 -0.135002 0.101673 0.0546624 0.503 -3.17942 -2.08805 
600.11 50 14.1429 14.1429 1.18085e-08 -0.000219699 0.0985531 0.0546624 0.0003 0.94802 4.11007 
600.11 49.3241 14.1702 14.16 0.0192748 0.118716 5.40429e-63 1.39979 0.0003 -1.93215 1.47605 
600.11 49.6107 14.1586 14.1569 0.00352055 -0.0530532 0.0824878 0.0546624 0.0003 -3.31386 -1.93955 
600.11 45.4955 14.3272 14.2826 0.0875364 0.967521 5.47991e-101 1.39979 0.0003 -1.87223 -0.434352 
600.11 49.3652 14.1686 14.1661 0.00472153 -0.152519 0.0773336 0.0546624 0.0003 -1.75559 -1.35366 
600.11 47.712 14.2359 14.2376 -0.012964 0.684852 1.97626e-323 1.39979 0.0003 -4.10762 -0.947344 
600.11 40.2888 14.5463 14.4648 0.150082 1.90427 1.97626e-323 1.39979 0.0003 -3.83609 -0.0927304 
600.11 50 14.1429 14.1429 -1.38905e-07 -0.00062715 0.0985538 0.0546624 0.0003 1.37256 -3.59226 
600.11 49.8913 14.1473 14.1489 -0.00339664 0.0618169 1.97626e-323 1.39979 0.0003 -0.739725 0.046732 
600.11 50.0045 14.1427 14.1427 -7.82562e-05 -0.00168134 0.0989041 0.0546624 0.0003 1.45843 2.57815 
600.11 46.737 14.2759 14.2302 0.0868034 0.886813 1.52204e-169 1.39979 0.0003 -1.71764 -0.363054 
600.11 48.7907 14.1919 14.1726 0.0358727 0.050278 1.46999e-12 1.39979 0.0003 -1.34229 0.0290328 
600.11 50.0012 14.1428 14.1428 -4.32508e-05 -0.000683864 0.0987499 0.0546624 0.0003 0.483473 -1.99482 
600.11 47.319 14.2521 14.2858 -0.0635684 0.77956 1.97626e-323 1.39979 0.0003 -3.27041 -1.37723 
600.11 49.8817 14.1476 14.1458 0.00339275 0.0235312 2.50525e-82 1.39979 0.0003 -0.824597 0.542871 
600.11 49.8149 14.1503 14.1525 -0.00483485 -0.0782981 0.120727 0.0546624 0.503 -1.7668 1.75139 
600.11 49.3639 14.1686 14.1622 0.0123756 -0.0145847 0.0475836 0.0546624 0.0003 -3.80895 -1.65051 
600.11 50.0003 14.1428 14.1429 -1.23612e-05 -0.00044679 0.0986092 0.0546624 0.0003 0.957175 2.73204 
600.11 48.8402 14.1899 14.1913 -0.00231636 -0.424787 0.109054 0.0546624 0.503 -2.4761 -1.58599 
600.11 48.0464 14.2223 14.2287 -0.011651 0.0747906 3.53567e-116 1.39979 0.0003 -2.23464 -1.30151 
600.11 50.0033 14.1427 14.1427 2.08338e-05 -0.00289038 0.0984576 0.0546624 0.0003 1.34895 -2.57142 
600.11 37.2764 14.6766 14.7936 -0.224583 6.35182 1.97626e-323 1.39979 0.0003 -2.88497 -0.655963 
600.11 49.7882 14.1514 14.1483 0.00591795 0.043107 4.19313e-79 1.39979 0.0003 -1.10537 0.930926 
600.11 41.5414 14.493 14.4133 0.1498 1.98841 1.97626e-323 1.39979 0.0003 -3.91403 0.0866694 
600.11 50 14.1429 14.1429 -2.46243e-07 -0.000266995 0.0985543 0.0546624 0.0003 0.0141021 2.43651 
600.11 49.8991 14.1469 14.1471 -0.00030326 -0.0599164 0.0999725 0.0546624 0.503 -1.16975 -1.35375 
600.11 43.5149 14.41 14.4726 -0.113722 3.46901 1.97626e-323 1.39979 0.0003 -2.37049 -0.841339 
600.11 50 14.1429 14.1429 3.79064e-07 0.000170558 1.97626e-323 1.39979 0.0003 -0.972338 -3.06473 
600.11 49.6906 14.1554 14.1504 0.00936056 0.0777936 2.5552e-157 1.39979 0.0003 -1.00537 0.325954 
600.11 50.0002 14.1428 14.1429 -7.46721e-06 0.000177845 1.97626e-323 1.39979 0.0003 1.55647 3.16872 
600.11 50 14.1429 14.1429 3.61348e-07 -0.0025488 0.0985515 0.0546624 0.0003 1.09037 -3.44168 
600.11 36.2495 14.7213 14.7185 0.0204029 5.68834 1.97626e-323 1.39979 0.0003 -3.42195 0.435011 
600.11 42.2698 14.4622 14.428 0.0682917 2.44577 1.97626e-323 1.39979 0.0003 -3.88526 0.384412 
600.11 50 14.1429 14.1429 -5.79354e-08 5.4693e-05 1.97626e-323 1.39979 0.0003 -0.405633 -3.30102 
600.11 30.6661 14.9697 14.8919 0.157548 7.0262 1.97626e-323 1.39979 0.0003 -3.17198 -0.0594864 
600.11 49.9971 14.143 14.1431 -0.000352389 0.000611263 2.77107e-214 1.39979 0.0003 -0.351006 1.26562 
600.11 50 14.1429 14.1429 -1.57484e-07 -0.000261835 0.0985539 0.0546624 0.0003 -0.267192 -3.54034 
600.11 43.2842 14.4195 14.3904 0.0606957 2.09925 1.97626e-323 1.39979 0.0003 -3.50334 -0.903335 
600.11 49.7815 14.1517 14.1489 0.00485381 -0.0769393 0.0769769 0.0546624 0.0003 -2.33392 -1.99544 
600.11 49.7251 14.154 14.1543 -0.000873486 -0.200025 0.102682 0.0546624 0.503 -1.46259 -1.35544 
600.11 50 14.1429 14.1429 1.64785e-07 -0.00329005 0.0985524 0.0546624 0.0003 -1.17738 3.43296 
600.11 49.6362 14.1576 14.1544 0.00608076 -0.140591 0.0715257 0.0546624 0.0003 -1.38119 1.14278 
600.11 49.9988 14.1429 14.1429 -8.59712e-05 0.000228656 1.01216e-301 1.39979 0.0003 -2.64291 -3.06532 
600.11 49.9938 14.1431 14.1431 1.9582e-05 0.00224491 1.80026e-119 1.39979 0.0003 -0.443323 1.16876 
600.11 44.0731 14.3865 14.4089 -0.0408426 2.44517 1.97626e-323 1.39979 0.0003 -1.98496 0.40221 
600.11 50.0001 14.1429 14.1429 1.26702e-06 -0.000924576 0.0985473 0.0546624 0.0003 1.38148 3.26689 
600.11 49.8499 14.1489 14.1474 0.00299739 0.0383372 3.59781e-142 1.39979 0.0003 -2.25793 2.05993 
600.11 37.4896 14.6671 14.7181 -0.112505 6.18052 1.97626e-323 1.39979 0.0003 -2.57313 -0.526872 
600.11 37.8672 14.6506 14.5661 0.169343 4.06799 1.97626e-323 1.39979 0.0003 -3.04672 -0.698195 
600.11 39.8608 14.5646 14.4624 0.198716 3.47896 1.97626e-323 1.39979 0.0003 -2.54243 -0.675321 
600.11 50 14.1429 14.1429 5.62559e-07 -9.38353e-05 0.0985506 0.0546624 0.0003 -0.454997 2.70173 
600.11 48.1552 14.2178 14.206 0.0229931 0.150317 2.41948e-52 1.39979 0.0003 -2.06205 1.20653 
600.11 49.9807 14.1436 14.1434 0.000400699 0.00665065 1.97626e-323 1.39979 0.0003 -0.663489 -1.15928 
600.11 41.2503 14.5056 14.5066 0.027263 4.07102 1.97626e-323 1.39979 0.0003 -2.56158 -0.78634 
600.11 49.9964 14.143 14.1435 -0.00106817 0.00649166 1.97626e-323 1.39979 0.0003 -1.14578 2.2394 
600.11 49.4324 14.1658 14.1664 -0.00105419 -0.349489 0.103316 0.0546624 0.503 -2.94773 -1.86777 
600.11 47.6235 14.2395 14.2478 -0.0183465 -0.632844 0.168229 0.0546624 0.503 -1.55526 -0.028065 
600.11 50.0001 14.1429 14.1429 -4.44001e-06 -0.000938972 0.0985733 0.0546624 0.0003 0.352754 2.38903 
600.11 46.5396 14.284 14.2535 0.0605864 1.11852 1.97626e-323 1.39979 0.0003 -1.68988 0.0508165 
600.11 49.6675 14.1563 14.1567 -0.000535672 0.112916 6.52844e-252 1.39979 0.0003 -1.19671 -0.873623 
600.11 48.4435 14.206 14.2074 -0.0029932 -0.68888 0.112388 0.0546624 0.503 -2.83426 -1.57291 
600.11 50.003 14.1427 14.1427 -4.05636e-06 -0.00325199 0.0985642 0.0546624 0.0003 0.662393 1.98949 
600.11 50.0033 14.1427 14.1428 -9.07209e-05 -0.000887379 0.0989681 0.0546624 0.0003 1.03073 -2.33561 
600.11 50.0019 14.1428 14.1428 -3.91446e-05 -0.000600364 0.0987278 0.0546624 0.0003 0.278372 1.56576 
600.11 48.765 14.1929 14.2247 -0.0736207 0.79916 1.97626e-323 1.39979 0.0003 -4.04051 1.28285 
600.11 49.7818 14.1517 14.1522 0.000216124 0.104326 5.67092e-181 1.39979 0.0003 -1.84148 1.75679 
600.11 50 14.1429 14.1429 7.23916e-11 -0.000220369 0.0985532 0.0546624 0.0003 0.426722 3.80508 
600.11 44.5368 14.3672 14.4805 -0.226582 2.35965 1.97626e-323 1.39979 0.0003 -3.99109 0.538499 
600.11 49.9996 14.1429 14.1429 -2.68847e-05 -0.00144152 0.0986775 0.0546624 0.0003 -0.825522 2.42356 
600.11 49.9999 14.1429 14.1429 3.19295e-06 -0.00317888 0.0985386 0.0546624 0.0003 -1.76506 -3.24084 
600.11 33.6072 14.8379 14.9098 -0.133249 7.99046 1.97626e-323 1.39979 0.0003 -3.333 -0.290173 
600.11 45.1806 14.3402 14.2752 0.123842 1.43485 1.97626e-323 1.39979 0.0003 -1.89008 0.402724 
600.11 49.9998 14.1429 14.1429 5.26935e-06 0.000200718 1.97626e-323 1.39979 0.0003 -1.02534 2.70202 
600.11 49.8836 14.1476 14.1469 0.00113391 -0.0508119 0.093454 0.0546624 0.0003 -0.771634 0.277882 
600.11 49.8646 14.1483 14.1543 -0.0122504 0.0561901 2.11829e-160 1.39979 0.0003 -0.789599 -0.100692 
600.11 48.9726 14.1845 14.2055 -0.0419511 0.704605 1.97626e-323 1.39979 0.0003 -1.30167 0.15988 
600.11 37.2234 14.6787 14.6036 0.171911 5.05523 1.97626e-323 1.39979 0.0003 -2.55704 0.492952 
600.11 48.0076 14.2238 14.2215 0.00332074 -0.518442 0.0839891 0.0546624 0.0003 -2.48602 1.4128 
600.11 49.9118 14.1464 14.145 0.0026229 -0.00935942 0.0866774 0.0546624 0.0003 -0.722095 0.354567 
600.11 49.1625 14.1768 14.2041 -0.0556554 0.712453 1.97626e-323 1.39979 0.0003 -1.70276 -1.19478 
600.11 49.7845 14.1516 14.1521 -0.0010978 -0.0822848 0.103671 0.0546624 0.503 -1.86074 1.77281 
600.11 46.6751 14.2785 14.3055 -0.0523252 1.11931 1.97626e-323 1.39979 0.0003 -4.13524 0.685511 
600.11 46.3378 14.2924 14.288 0.0110142 1.51846 1.97626e-323 1.39979 0.0003 -2.11343 -0.936886 
600.11 49.6095 14.1586 14.1586 -0.000238908 -0.167814 0.0998072 0.0546624 0.503 -1.65558 -1.43155 
600.11 50 14.1429 14.1429 -2.02165e-08 3.53063e-05 1.97626e-323 1.39979 0.0003 0.137566 -3.14966 
600.11 49.4762 14.1641 14.1648 -0.0010291 -0.391659 0.103123 0.0546624 0.503 -2.70429 1.86612 
600.11 49.9909 14.1432 14.1431 0.000258044 -0.00433744 0.0973574 0.0546624 0.0003 -1.80961 -2.4747 
600.11 49.9919 14.1432 14.1431 0.000200885 -0.00589663 0.0976366 0.0546624 0.0003 -0.253736 0.116822 
600.11 50 14.1429 14.1429 4.07055e-10 6.50532e-05 1.97626e-323 1.39979 0.0003 0.648597 4.09172 
600.11 50.0002 14.1429 14.1429 -1.83945e-05 -0.00264872 0.0986367 0.0546624 0.0003 -0.0273644 -1.48734 
600.11 47.9299 14.227 14.2546 -0.0589959 -0.0635204 0.199131 0.0546624 0.503 -4.0232 1.08407 
600.11 50 14.1429 14.1429 2.36272e-07 -0.00226578 0.0985521 0.0546624 0.0003 1.25027 -3.84976 
600.11 50 14.1429 14.1429 -6.26092e-06 -0.000850968 0.0985824 0.0546624 0.0003 -2.20793 -3.53096 
600.11 47.8282 14.2311 14.2049 0.0505243 0.180721 1.9046e-29 1.39979 0.0003 -3.9866 1.09634 
600.11 50 14.1429 14.1429 2.67869e-07 -0.00388381 0.0985519 0.0546624 0.0003 -1.83159 -3.63245 
600.11 50.0078 14.1425 14.1426 -0.000106726 -0.00328871 0.0990603 0.0546624 0.0003 3.08319 -2.91213 
600.11 39.4228 14.5835 14.5254 0.119452 2.98443 4.64531e-162 1.39979 0.0003 -2.21002 -0.0109081 
600.11 50.0001 14.1429 14.1428 3.01767e-05 -0.00163538 0.0984134 0.0546624 0.0003 0.669918 2.68029 
600.11 48.3663 14.2092 14.2043 0.00846975 -0.722107 0.0621704 0.0546624 0.0003 -3.9923 1.21241 
600.11 48.9751 14.1844 14.1851 -0.00179016 -0.61818 0.106934 0.0546624 0.503 -1.38264 0.543321 
600.11 50.0079 14.1425 14.1426 -7.23093e-05 -0.0123977 0.0988873 0.0546624 0.0003 1.37381 2.41417 
600.11 50.0004 14.1428 14.1428 9.99958e-05 -0.00117941 0.0980901 0.0546624 0.0003 1.78355 3.13868 
600.11 49.9796 14.1437 14.1439 -0.000537771 0.00370361 1.97626e-323 1.39979 0.0003 -0.805119 -1.38919 
600.11 44.284 14.3776 14.3128 0.128063 1.36932 5.25938e-176 1.39979 0.0003 -3.33464 1.05607 
600.11 50.0049 14.1427 14.1427 -0.000121732 -0.0017934 0.0991322 0.0546624 0.0003 2.14672 -2.86668 
600.11 50.0005 14.1428 14.1428 -1.58649e-05 2.90879e-05 1.04111e-169 1.39979 0.0003 1.8057 3.12239 
600.11 49.9999 14.1429 14.1429 7.36816e-07 -0.000907518 0.0985496 0.0546624 0.0003 -0.892619 -2.68206 
600.11 50 14.1429 14.1429 1.01933e-11 -0.00291335 0.0985532 0.0546624 0.0003 -0.132193 4.19118 
600.11 49.9019 14.1468 14.1458 0.00199691 -0.0300439 0.0894388 0.0546624 0.0003 -2.95897 -2.28238 
600.11 50 14.1429 14.1429 -5.19696e-07 -0.00346925 0.0985556 0.0546624 0.0003 -1.6383 -3.83531 
600.11 48.4625 14.2052 14.2552 -0.110465 0.612467 1.97626e-323 1.39979 0.0003 -2.71203 1.5592 
600.11 48.6122 14.1991 14.2089 -0.0228409 -0.421424 0.178167 0.0546624 0.503 -3.27901 1.59257 
600.11 50.0004 14.1428 14.1428 2.02643e-06 -9.72519e-05 0.098544 0.0546624 0.0003 1.25695 2.8913 
600.11 48.5833 14.2003 14.188 0.0244212 0.304679 2.6938e-102 1.39979 0.0003 -2.36937 1.48207 
600.11 30.3414 14.9845 14.9696 0.0430707 8.5415 1.97626e-323 1.39979 0.0003 -2.87149 0.0202968 
600.11 50 14.1429 14.1429 -2.74972e-06 -0.00231328 0.0985659 0.0546624 0.0003 -0.926826 3.26277 
600.11 49.9996 14.1429 14.1429 1.51462e-05 0.00010922 1.97626e-323 1.39979 0.0003 -1.80983 -3.03565 
600.11 50 14.1429 14.1429 2.44224e-07 0.000463606 1.50427e-241 1.39979 0.0003 0.0818023 -3.48341 
600.11 49.6168 14.1584 14.1585 -0.000240953 -0.201796 0.0997451 0.0546624 0.503 -1.49637 1.27113 
600.11 49.9995 14.1429 14.1428 0.00017855 -0.0012391 0.0977375 0.0546624 0.0003 -0.085426 -0.648176 
600.11 48.3356 14.2104 14.2122 -0.00435782 0.63417 1.97626e-323 1.39979 0.0003 -2.04284 1.23303 
600.11 45.3033 14.3351 14.279 0.105875 0.492894 3.40905e-45 1.39979 0.0003 -3.43418 -1.10946 
600.11 50 14.1429 14.1429 1.80801e-10 -8.32021e-05 0.0985532 0.0546624 0.0003 -0.159615 3.81858 
600.11 44.7316 14.359 14.3459 0.0290782 0.96658 8.93681e-128 1.39979 0.0003 -1.95275 -0.458898 
600.11 49.6886 14.1555 14.1582 -0.00622523 -0.0664104 0.126813 0.0546624 0.503 -1.85737 -1.66543 
600.11 49.9541 14.1447 14.1449 -0.0003405 -0.0241977 0.10011 0.0546624 0.503 -0.932596 1.29652 
600.11 50.0028 14.1427 14.1427 -3.93311e-05 -0.00170037 0.0987517 0.0546624 0.0003 1.0525 -2.39006 
600.11 46.961 14.2667 14.2232 0.0821033 0.806247 1.97626e-323 1.39979 0.0003 -2.65582 -1.31433 
600.11 46.1447 14.3004 14.3217 -0.0405006 1.28741 1.97626e-323 1.39979 0.0003 -4.04478 -0.722507 
600.11 49.8029 14.1508 14.1492 0.00249019 -0.0926627 0.0875336 0.0546624 0.0003 -0.912753 0.412784 
600.11 49.997 14.143 14.1429 0.00010792 -0.000493266 0.0980621 0.0546624 0.0003 -2.18951 2.82092 
600.11 39.7506 14.5694 14.4834 0.167801 2.86002 1.97626e-323 1.39979 0.0003 -3.55639 -0.587638 
600.11 50 14.1429 14.1429 -1.05836e-06 4.23216e-05 1.97626e-323 1.39979 0.0003 -0.276945 2.48626 
600.11 49.9152 14.1463 14.1488 -0.00480092 0.0191213 2.6045e-144 1.39979 0.0003 -0.892961 -0.956694 
600.11 49.9957 14.143 14.1431 -3.00402e-05 0.00130253 1.97626e-323 1.39979 0.0003 -1.00111 2.0686 
600.11 34.3041 14.8068 14.7209 0.175864 6.15304 1.03652e-304 1.39979 0.0003 -2.51399 -0.0344159 
600.11 34.4445 14.8008 14.8776 -0.142423 7.7181 1.97626e-323 1.39979 0.0003 -2.61286 -0.310827 
600.11 48.4139 14.2072 14.1907 0.027877 -0.293655 0.0145408 0.0546624 0.0003 -3.28863 1.54913 
600.11 48.9966 14.1835 14.1841 -0.00219035 -0.590325 0.108929 0.0546624 0.503 -1.30262 -0.225233 
600.11 49.9996 14.1429 14.1429 -6.29205e-05 -0.0122149 0.0988444 0.0546624 0.0003 -1.99208 -3.08979 
600.11 43.9747 14.3905 14.3766 0.0172982 1.41688 1.97626e-323 1.39979 0.0003 -3.89289 -0.615047 
600.11 48.5474 14.2018 14.1956 0.012299 -0.578071 0.0477319 0.0546624 0.0003 -1.47673 -0.499434 
600.11 38.3636 14.6291 14.5192 0.212167 3.11011 1.97626e-323 1.39979 0.0003 -3.41039 -0.601704 
600.11 31.4447 14.9347 14.9701 -0.0596264 8.3614 1.97626e-323 1.39979 0.0003 -3.23626 0.133305 
600.11 33.0641 14.8621 14.9291 -0.121576 7.81511 1.97626e-323 1.39979 0.0003 -2.81287 0.357954 
600.11 49.361 14.1687 14.1688 -0.00054766 -0.340565 0.101332 0.0546624 0.503 -3.4055 -1.79189 
600.11 49.8457 14.1491 14.1468 0.00412344 -0.00164098 0.0800304 0.0546624 0.0003 -1.05207 0.98588 
600.11 47.3613 14.2503 14.2435 0.0146688 -0.340783 0.0399345 0.0546624 0.0003 -3.83854 1.13214 
600.11 43.0108 14.4312 14.5173 -0.164002 3.81918 1.97626e-323 1.39979 0.0003 -2.81307 0.997911 
600.11 47.7067 14.2361 14.2198 0.0330139 0.842392 1.97626e-323 1.39979 0.0003 -1.54559 0.0832664 
600.11 39.7925 14.5676 14.4633 0.202383 3.4678 3.71684e-293 1.39979 0.0003 -2.52057 0.654972 
600.11 48.8986 14.1875 14.1697 0.0331925 0.286566 3.16338e-254 1.39979 0.0003 -1.52911 0.822743 
600.11 49.7127 14.1545 14.1497 0.00882111 0.0724583 2.64501e-273 1.39979 0.0003 -1.26026 1.06324 
600.11 49.673 14.1561 14.1504 0.0104921 0.0786378 1.45495e-174 1.39979 0.0003 -1.71836 -1.54529 
600.11 49.3846 14.1678 14.1934 -0.0537222 0.445095 1.97626e-323 1.39979 0.0003 -1.22795 -0.52173 
600.11 44.3393 14.3755 14.4275 -0.0902849 3.12842 1.97626e-323 1.39979 0.0003 -2.16154 0.731045 
600.11 49.8846 14.1475 14.1459 0.00273317 -0.0194801 0.0862562 0.0546624 0.0003 -0.821677 0.553248 
600.11 50.0001 14.1429 14.1429 -1.58423e-05 -0.00239068 0.0986249 0.0546624 0.0003 -0.0465941 1.31738 
600.11 50 14.1429 14.1429 1.7729e-07 -0.00529028 0.0985523 0.0546624 0.0003 -0.213156 -3.10161 
600.11 33.0547 14.8624 14.8306 0.0741075 7.55829 1.97626e-323 1.39979 0.0003 -3.35614 -0.188715 
600.11 49.759 14.1526 14.1633 -0.022374 0.0666196 1.97626e-323 1.39979 0.0003 -1.38295 -1.31002 
600.11 49.9698 14.1441 14.1444 -0.000665965 -0.0123603 0.101648 0.0546624 0.503 -3.39505 -2.49233 
600.11 48.8041 14.1914 14.1933 0.00010799 0.505745 6.42134e-187 1.39979 0.0003 -3.21793 -1.64723 
600.11 43.2979 14.4188 14.3349 0.160615 2.05921 1.91738e-297 1.39979 0.0003 -2.09137 -0.495357 
600.11 50.0001 14.1429 14.1429 -1.46824e-05 -0.0032251 0.0986213 0.0546624 0.0003 0.0242631 1.97867 
600.11 48.7389 14.194 14.1892 0.0100875 0.137432 1.98216e-72 1.39979 0.0003 -2.36231 -1.51716 
600.11 43.9415 14.392 14.3539 0.0882118 1.10546 1.064e-87 1.39979 0.0003 -2.42347 0.915528 
600.11 49.5779 14.1599 14.1611 -0.00173184 -0.0729072 0.106313 0.0546624 0.503 -2.61025 1.90507 
600.11 48.6995 14.1956 14.197 -0.00224104 -0.223662 0.10865 0.0546624 0.503 -1.37867 0.223981 
600.11 50.0004 14.1428 14.1428 -1.06161e-05 -3.77658e-05 0.0986017 0.0546624 0.0003 2.31651 -3.32274 
600.11 48.9045 14.1873 14.2155 -0.064108 -0.255467 0.199475 0.0546624 0.503 -2.2341 1.50351 
600.11 50 14.1429 14.1429 1.09806e-06 -4.60101e-05 0.0985482 0.0546624 0.0003 -0.933843 -2.97007 
600.11 49.7093 14.1546 14.156 -0.00400588 0.104969 1.97626e-323 1.39979 0.0003 -3.55797 1.95829 
600.11 47.1028 14.2609 14.3014 -0.0824045 1.62456 1.97626e-323 1.39979 0.0003 -3.8265 -1.10026 
600.11 49.2158 14.1746 14.1751 -0.000890524 -0.537207 0.102618 0.0546624 0.503 -1.26081 -0.387227 
600.11 50 14.1429 14.1429 -1.22921e-09 -0.000966541 0.0985532 0.0546624 0.0003 0.0348395 -3.5548 
600.11 50 14.1429 14.1429 2.70908e-06 0.000242985 2.31058e-117 1.39979 0.0003 0.629101 -3.42183 
600.11 34.9734 14.7774 14.8531 -0.140642 7.78631 1.97626e-323 1.39979 0.0003 -3.43572 -0.300908 
600.11 49.8693 14.1481 14.1483 -0.000337357 -0.0734887 0.100154 0.0546624 0.503 -3.22165 -2.20938 
600.11 49.8131 14.1504 14.1498 0.00106183 -0.137879 0.0937607 0.0546624 0.0003 -1.2817 -1.27548 
600.11 50.0015 14.1428 14.1428 4.58277e-05 -0.00126362 0.0983424 0.0546624 0.0003 0.0861749 1.20393 
600.11 49.7691 14.1522 14.1523 -0.000201569 -0.187009 0.0994868 0.0546624 0.503 -2.62938 -2.05772 
600.11 49.5932 14.1593 14.1597 -0.00114296 -0.0831138 0.103963 0.0546624 0.503 -2.13601 1.75243 
600.11 34.7501 14.787 14.6635 0.242924 5.66249 1.97626e-323 1.39979 0.0003 -2.54198 0.236112 
600.11 47.0424 14.2633 14.227 0.0701859 0.917302 1.97626e-323 1.39979 0.0003 -2.5663 -1.29791 
600.11 46.5299 14.2846 14.2909 0.00175329 1.65142 1.97626e-323 1.39979 0.0003 -1.7942 -0.512909 
600.11 48.9861 14.184 14.1881 -0.00656137 0.350368 3.05591e-130 1.39979 0.0003 -3.87687 -1.46753 
600.11 50.0001 14.1429 14.1429 -3.8842e-06 -0.000153741 0.0985708 0.0546624 0.0003 1.06703 -3.00582 
600.11 49.0541 14.1812 14.1817 -0.000978606 -0.382734 0.103022 0.0546624 0.503 -1.73166 1.17562 
600.11 50.0001 14.1429 14.1429 -2.63729e-06 0.000322716 4.51135e-245 1.39979 0.0003 1.83539 -3.3785 
600.11 49.8549 14.1487 14.1575 -0.0198471 -0.0337599 0.172044 0.0546624 0.503 -1.60336 -1.69648 
600.11 49.4538 14.165 14.1693 -0.00546713 0.193482 3.13774e-107 1.39979 0.0003 -3.6327 1.7689 
600.11 50 14.1429 14.1429 -4.46446e-06 -0.00163104 0.0985739 0.0546624 0.0003 -0.185131 2.74237 
600.11 43.9756 14.3904 14.3139 0.145974 1.83638 1.97626e-323 1.39979 0.0003 -3.71212 -0.817522 
600.11 44.2349 14.3798 14.4729 -0.185047 2.61105 1.97626e-323 1.39979 0.0003 -2.33778 0.8837 
600.11 49.1336 14.178 14.1795 -0.0034622 -0.445856 0.114593 0.0546624 0.503 -3.93959 1.48116 
600.11 48.1212 14.2192 14.2289 -0.0232938 -0.719184 0.179176 0.0546624 0.503 -1.71323 -0.813737 
600.11 40.4461 14.5398 14.5268 0.0341046 4.08471 1.97626e-323 1.39979 0.0003 -3.67534 0.51766 
600.11 48.3868 14.2084 14.2295 -0.037297 0.98718 1.97626e-323 1.39979 0.0003 -3.15137 -1.56363 
600.11 47.554 14.2424 14.2381 0.00999887 1.06404 1.97626e-323 1.39979 0.0003 -2.01224 1.04096 
600.11 49.9997 14.1429 14.1429 -2.41247e-05 -0.000417637 0.0986649 0.0546624 0.0003 -1.05023 -2.6799 
600.11 40.762 14.5264 14.6482 -0.237842 4.22829 1.97626e-323 1.39979 0.0003 -3.86999 -0.0212389 
600.11 50.0036 14.1427 14.1428 -8.90944e-05 -0.000820791 0.0989519 0.0546624 0.0003 0.913696 -2.2127 
600.11 49.7694 14.1522 14.1526 -0.000758808 -0.11009 0.102016 0.0546624 0.503 -3.75347 -1.95071 
600.11 49.2369 14.1738 14.1812 -0.0178067 -0.104506 0.167408 0.0546624 0.503 -3.62951 1.67456 
600.11 50 14.1429 14.1429 5.26768e-07 -0.00265353 0.0985507 0.0546624 0.0003 -0.0283339 3.23019 
600.11 49.7212 14.1541 14.1497 0.00788627 -0.00944961 0.064356 0.0546624 0.0003 -1.10614 -0.774647 
600.11 49.8754 14.1479 14.148 -0.000208209 -0.0919079 0.0995095 0.0546624 0.503 -1.28143 1.42279 
600.11 38.2582 14.6336 14.5756 0.0958636 3.57817 1.97626e-323 1.39979 0.0003 -3.30045 0.656774 
600.11 49.3642 14.1686 14.1688 -0.000704232 -0.203103 0.101909 0.0546624 0.503 -1.88145 -1.45917 
600.11 49.9979 14.1429 14.1429 4.96753e-05 -0.00131937 0.0983254 0.0546624 0.0003 -0.800383 -2.03339 
600.11 49.8128 14.1504 14.161 -0.0224254 0.137064 1.97626e-323 1.39979 0.0003 -3.27326 2.12224 
600.11 46.6125 14.281 14.2488 0.0583707 0.948472 1.97626e-323 1.39979 0.0003 -3.2064 1.30271 
600.11 49.8915 14.1472 14.1478 -0.00165103 0.0247971 1.97626e-323 1.39979 0.0003 -0.814176 -0.577526 
600.11 50 14.1429 14.1429 -5.828e-07 0.000401775 1.97626e-323 1.39979 0.0003 0.478439 2.76683 
600.11 49.9999 14.1429 14.1429 2.22923e-06 0.000119779 1.97626e-323 1.39979 0.0003 -1.32675 -3.11528 
600.11 50.0004 14.1428 14.1428 0.000170554 -0.00135111 0.0977666 0.0546624 0.0003 -0.0310654 1.10091 
600.11 49.9999 14.1429 14.1429 3.39019e-06 -0.0022613 0.0985377 0.0546624 0.0003 -1.66316 -3.18742 
600.11 49.6098 14.1586 14.1635 -0.0107561 -0.0721286 0.145108 0.0546624 0.503 -3.62005 -1.86388 
600.11 44.0717 14.3864 14.3184 0.131058 0.60557 5.89884e-40 1.39979 0.0003 -2.15413 -0.689758 
600.11 41.41 14.4988 14.5565 -0.101551 4.0652 1.97626e-323 1.39979 0.0003 -3.36377 0.834416 
600.11 43.4304 14.4134 14.4068 0.0175959 2.87005 9.3071e-312 1.39979 0.0003 -2.59894 0.964471 
600.11 40.2001 14.5503 14.5342 0.0382143 4.35224 1.97626e-323 1.39979 0.0003 -2.72721 -0.790384 
600.11 50 14.1429 14.1428 2.38625e-05 -0.00365755 0.0984427 0.0546624 0.0003 -0.113835 -1.95119 
600.11 48.0841 14.2207 14.1927 0.0529873 0.400881 1.50865e-85 1.39979 0.0003 -1.86096 1.00032 
600.11 49.8087 14.1506 14.1498 0.00182074 0.0759268 1.97626e-323 1.39979 0.0003 -1.00327 0.754869 
600.11 35.4497 14.7564 14.8178 -0.114299 7.15865 1.97626e-323 1.39979 0.0003 -2.4435 -0.0473605 
600.11 49.9976 14.143 14.1429 0.000154485 -0.00480637 0.0978482 0.0546624 0.0003 -0.197702 -0.884131 
600.11 45.0475 14.3457 14.3265 0.0202921 1.62904 1.97626e-323 1.39979 0.0003 -4.12077 -0.333572 
600.11 50 14.1429 14.1429 -2.50304e-06 -0.00429663 0.0985646 0.0546624 0.0003 0.203426 2.39457 
600.11 50 14.1429 14.1429 -8.64267e-07 -0.00299375 0.0985571 0.0546624 0.0003 1.02461 -3.09734 
600.11 49.8004 14.1509 14.1516 -0.00178933 -0.0426427 0.106933 0.0546624 0.503 -0.988569 -0.685396 
600.11 42.6808 14.4448 14.3587 0.16561 2.19118 1.97626e-323 1.39979 0.0003 -3.05818 -0.990624 
600.11 47.663 14.2379 14.2391 -0.00373786 -0.150419 0.116285 0.0546624 0.503 -2.97693 1.45033 
600.11 50 14.1429 14.1429 -1.5132e-10 0.000229802 1.97626e-323 1.39979 0.0003 0.473504 -4.16708 
600.11 49.3782 14.168 14.159 0.0182704 0.152157 1.97626e-323 1.39979 0.0003 -3.4657 -1.78474 
600.11 47.6657 14.2378 14.3002 -0.134138 0.270588 1.97626e-323 1.39979 0.0003 -1.5514 0.0828317 
600.11 50 14.1429 14.1429 1.37383e-06 -0.0010885 0.0985471 0.0546624 0.0003 -0.212101 2.17118 
600.11 36.5456 14.7083 14.7324 -0.039583 5.62331 1.97626e-323 1.39979 0.0003 -2.72676 -0.560319 
600.11 49.3948 14.1674 14.1676 -0.000937994 -0.0216648 0.103058 0.0546624 0.503 -3.22465 -1.83795 
600.11 50.009 14.1425 14.1425 -2.83236e-05 -0.00645131 0.0986864 0.0546624 0.0003 0.237228 0.830376 
600.11 49.9943 14.1431 14.1437 -0.00121352 0.00205225 1.97626e-323 1.39979 0.0003 -2.26805 2.73288 
600.11 46.3097 14.2936 14.351 -0.118186 0.697381 1.97626e-323 1.39979 0.0003 -4.02044 -0.784384 
600.11 49.9044 14.1467 14.145 0.0031544 0.020371 1.10895e-95 1.39979 0.0003 -0.757825 0.455876 
600.11 40.1629 14.552 14.6646 -0.216327 5.02094 1.97626e-323 1.39979 0.0003 -3.69879 0.455455 
600.11 49.7717 14.1521 14.1555 -0.00664682 0.142358 1.97626e-323 1.39979 0.0003 -0.929253 0.309212 
600.11 49.9963 14.143 14.1429 0.000186203 -0.00596871 0.0977032 0.0546624 0.0003 -0.337788 1.14454 
600.11 50.0006 14.1428 14.1428 8.63806e-05 -0.000589581 0.0981537 0.0546624 0.0003 1.7413 3.07785 
600.11 48.9298 14.1862 14.1789 0.0147786 0.242433 2.88357e-115 1.39979 0.0003 -1.88657 -1.27648 
600.11 47.4892 14.245 14.2225 0.0449597 0.860686 1.23824e-311 1.39979 0.0003 -1.83002 -0.815164 
600.11 50.0007 14.1428 14.1428 8.44415e-05 -0.00419607 0.0981642 0.0546624 0.0003 0.19524 -1.70501 
600.11 49.9829 14.1435 14.1436 -0.000216083 -0.0254533 0.0995623 0.0546624 0.503 -0.794552 -1.4348 
600.11 50.0001 14.1429 14.1429 4.27398e-06 -0.00543658 0.0985336 0.0546624 0.0003 0.606576 2.73243 
600.11 49.6523 14.1569 14.1574 -0.000936305 -0.178349 0.10278 0.0546624 0.503 -1.82297 1.60778 
600.11 47.2853 14.2535 14.3145 -0.125895 1.2838 1.97626e-323 1.39979 0.0003 -2.20627 1.1522 
600.11 49.7844 14.1516 14.1497 0.00379719 0.0745449 1.97626e-323 1.39979 0.0003 -3.51801 2.04225 
600.11 49.0849 14.1799 14.1817 -0.00274758 0.129811 2.3592e-111 1.39979 0.0003 -1.26479 -0.109396 
600.11 40.688 14.5293 14.459 0.140817 3.38749 1.97626e-323 1.39979 0.0003 -3.7684 0.398124 
600.11 47.7254 14.2354 14.2361 -0.0019707 -0.648781 0.107805 0.0546624 0.503 -4.10125 -0.958024 
600.11 39.3023 14.5889 14.6877 -0.190927 5.87748 1.97626e-323 1.39979 0.0003 -3.782 0.0442134 
600.11 50.0022 14.1428 14.1427 4.2342e-05 -0.00154222 0.0983692 0.0546624 0.0003 1.08606 -2.46067 
600.11 49.9962 14.143 14.143 -1.69451e-05 -0.00161729 0.0986286 0.0546624 0.0003 -0.428456 -1.33411 
600.11 49.9329 14.1456 14.1481 -0.00517402 0.0167199 1.31856e-297 1.39979 0.0003 -0.637079 -0.00805265 
600.11 50.0013 14.1428 14.1428 3.52251e-07 -0.000780648 0.0985519 0.0546624 0.0003 1.00181 -2.49581 
600.11 49.1882 14.1757 14.18 -0.00962241 -0.163595 0.14076 0.0546624 0.503 -3.8974 1.52799 
600.11 49.9581 14.1446 14.1438 0.00141878 0.00925769 2.86558e-322 1.39979 0.0003 -0.980794 1.40203 
600.11 44.9375 14.3504 14.3081 0.084166 1.79981 1.97626e-323 1.39979 0.0003 -2.21445 0.853856 
600.11 49.993 14.1431 14.1433 -0.000465817 -0.000872059 0.100721 0.0546624 0.503 -1.65217 2.44513 
600.11 44.0349 14.388 14.3336 0.107547 2.09164 1.97626e-323 1.39979 0.0003 -2.09505 0.605309 
600.11 42.6891 14.4446 14.4804 -0.066828 3.70757 1.97626e-323 1.39979 0.0003 -3.6032 -0.789049 
600.11 49.6449 14.1572 14.1511 0.0111714 0.0462571 2.53872e-44 1.39979 0.0003 -3.03615 -1.98701 
600.11 49.9991 14.1429 14.1429 2.56742e-05 -0.00861744 0.0984378 0.0546624 0.0003 -0.901675 2.32128 
600.11 42.9192 14.4348 14.4146 0.0226332 2.42385 1.97626e-323 1.39979 0.0003 -3.79588 0.619537 
600.11 49.596 14.1592 14.1597 -0.00113317 -0.153325 0.103891 0.0546624 0.503 -2.03302 -1.69959 
600.11 49.7471 14.1531 14.1538 -0.00155236 -0.000920659 0.105705 0.0546624 0.503 -1.76655 1.66213 
600.11 48.1984 14.2161 14.2363 -0.0386939 0.878279 1.97626e-323 1.39979 0.0003 -1.48481 -0.252033 
600.11 45.9582 14.308 14.2575 0.0971489 1.18183 4.02912e-195 1.39979 0.0003 -2.6993 1.21498 
600.11 50.0001 14.1429 14.1429 -1.73849e-06 0.000533061 1.17917e-298 1.39979 0.0003 1.40978 3.16591 
600.11 49.1836 14.1759 14.1631 0.0238893 0.0474614 8.28328e-17 1.39979 0.0003 -1.50759 -0.952148 
600.11 49.6626 14.1565 14.1524 0.00682313 -0.190831 0.0688962 0.0546624 0.0003 -2.29216 1.87049 
600.11 48.4014 14.2077 14.1829 0.0466073 0.263334 7.87283e-58 1.39979 0.0003 -2.79462 1.55988 
600.11 47.4254 14.2476 14.2101 0.0709586 0.496387 1.9914e-74 1.39979 0.0003 -1.59619 -0.194292 
600.11 50 14.1429 14.1429 -2.50343e-08 3.26902e-05 1.97626e-323 1.39979 0.0003 -0.210361 2.96034 
600.11 49.5798 14.1599 14.1676 -0.0148894 0.264397 1.97626e-323 1.39979 0.0003 -2.5225 -1.8863 
600.11 47.9452 14.2264 14.2314 -0.0111866 -0.783292 0.14673 0.0546624 0.503 -1.99734 -1.10689 
600.11 50 14.1429 14.1429 -1.00461e-06 -0.00227385 0.0985578 0.0546624 0.0003 0.152824 2.5713 
600.11 50 14.1429 14.1429 2.24415e-10 0.000401776 1.97626e-323 1.39979 0.0003 -0.260201 3.44552 
600.11 34.2732 14.8082 14.7082 0.201616 5.99217 4.17188e-289 1.39979 0.0003 -2.62311 -0.305589 
600.11 49.7581 14.1526 14.1585 -0.0114077 0.141468 6.22731e-172 1.39979 0.0003 -1.21983 -1.07638 
600.11 49.9914 14.1432 14.1431 0.000207322 -0.00200724 0.0976051 0.0546624 0.0003 -3.18038 2.75034 
600.11 48.555 14.2015 14.1977 0.00837213 0.610735 1.97626e-323 1.39979 0.0003 -3.28939 -1.57838 
600.11 48.7431 14.1938 14.1874 0.00948748 -0.379106 0.058998 0.0546624 0.0003 -3.29972 -1.61909 
600.11 45.3388 14.3338 14.3474 -0.0257819 1.49651 1.97626e-323 1.39979 0.0003 -3.53134 1.07011 
600.11 44.5939 14.3647 14.3351 0.0571439 1.78993 1.97626e-323 1.39979 0.0003 -1.94974 -0.422844 
600.11 48.3821 14.2085 14.1875 0.0392083 0.418531 1.97626e-323 1.39979 0.0003 -3.91851 1.27282 
600.11 49.6894 14.1554 14.1561 -0.0015234 -0.00848533 0.10562 0.0546624 0.503 -3.64203 -1.91568 
600.11 49.9996 14.1429 14.1429 1.45483e-05 -0.00132911 0.0984871 0.0546624 0.0003 -1.0541 2.62099 
600.11 39.9735 14.56 14.545 0.0355586 3.13619 1.97626e-323 1.39979 0.0003 -2.21441 0.244076 
600.11 50 14.1429 14.1429 1.47618e-10 0.000153481 1.97626e-323 1.39979 0.0003 -0.143847 -3.79576 
600.11 49.9348 14.1455 14.1462 -0.00159606 -0.0349515 0.105955 0.0546624 0.503 -3.54412 -2.30562 
600.11 45.8219 14.3137 14.2785 0.0701152 1.47313 1.97626e-323 1.39979 0.0003 -1.78703 0.251058 
600.11 48.3612 14.2094 14.191 0.0351551 0.0403339 1.56826e-10 1.39979 0.0003 -2.12989 -1.30163 
600.11 49.8738 14.148 14.1484 -0.000900731 0.0509281 1.97626e-323 1.39979 0.0003 -0.997618 -0.977254 
600.11 48.9288 14.1863 14.1805 0.00889985 -0.0945415 0.0609696 0.0546624 0.0003 -1.33478 -0.308283 
600.11 40.5808 14.534 14.5153 0.0439862 2.57403 1.97626e-323 1.39979 0.0003 -3.80955 -0.287353 
600.11 50 14.1429 14.1429 -7.34201e-09 -0.00331598 0.0985532 0.0546624 0.0003 0.154729 3.45762 
600.11 49.7724 14.1521 14.1521 -8.73619e-05 -0.182542 0.0989265 0.0546624 0.0003 -1.75255 1.68235 
600.11 49.971 14.144 14.1441 -0.000171822 -0.0272842 0.0993269 0.0546624 0.503 -3.24302 2.51911 
600.11 50.0005 14.1428 14.1429 -4.62029e-05 -0.00272422 0.098767 0.0546624 0.0003 0.0856163 -1.59621 
600.11 34.4663 14.7996 14.7345 0.130641 6.52108 1.97626e-323 1.39979 0.0003 -3.1335 0.479324 
600.11 34.3906 14.8032 14.8887 -0.1597 8.14833 1.97626e-323 1.39979 0.0003 -3.40631 0.279334 
600.11 49.1824 14.176 14.176 -0.000860967 -0.272039 0.102961 0.0546624 0.503 -1.32918 -0.584043 
600.11 49.8733 14.148 14.1576 -0.0207008 0.0117475 1.97626e-323 1.39979 0.0003 -2.49913 2.17039 
600.11 45.7092 14.3185 14.3237 0.00987114 1.7052 9.88396e-307 1.39979 0.0003 -3.94514 0.784655 
600.11 37.7723 14.6547 14.5346 0.232382 3.69848 1.97626e-323 1.39979 0.0003 -2.31139 -0.0877558 
600.11 50 14.1429 14.1429 -6.43768e-11 -0.00142375 0.0985532 0.0546624 0.0003 -0.100084 -3.68717 
600.11 49.7486 14.153 14.1533 -0.000568651 -0.100623 0.101145 0.0546624 0.503 -3.69108 -1.95237 
600.11 50 14.1429 14.1429 1.94426e-08 0.000219559 1.97626e-323 1.39979 0.0003 -0.0463024 3.06655 
600.11 45.889 14.311 14.3321 -0.0275097 0.443896 5.90504e-59 1.39979 0.0003 -2.01081 -0.756591 
600.11 46.2273 14.297 14.2852 0.0254892 1.58194 1.97626e-323 1.39979 0.0003 -1.93528 -0.707759 
600.11 49.9639 14.1443 14.1444 -0.000178624 -0.0101732 0.0993679 0.0546624 0.503 -2.78118 -2.47815 
600.11 50.0007 14.1428 14.1428 2.6364e-05 -0.000339767 0.0984318 0.0546624 0.0003 0.0765768 -1.46366 
600.11 50 14.1429 14.1429 -1.20245e-07 -0.000366953 0.0985537 0.0546624 0.0003 -0.428095 -2.99148 
600.11 49.5355 14.1617 14.1604 0.00280651 0.181118 9.35798e-245 1.39979 0.0003 -1.48128 1.17502 
600.11 49.9878 14.1434 14.1433 1.23499e-05 -0.0131758 0.0984969 0.0546624 0.0003 -1.03081 1.83727 
600.11 47.4733 14.2457 14.2533 -0.0232712 0.496028 1.97626e-323 1.39979 0.0003 -3.93808 -1.07107 
600.11 49.9531 14.1448 14.1448 -3.9804e-05 -0.00181527 0.0986952 0.0546624 0.0003 -0.623567 0.535548 
600.11 49.5431 14.1613 14.1617 -0.00034849 -0.124734 0.100012 0.0546624 0.503 -1.10738 -0.347382 
600.11 47.578 14.2415 14.24 0.0175329 1.03748 1.97626e-323 1.39979 0.0003 -1.74208 -0.697971 
600.11 50 14.1429 14.1429 -9.51101e-08 -0.00192806 0.0985536 0.0546624 0.0003 -1.05091 3.34288 
600.11 48.8532 14.1893 14.192 -0.00576313 -0.456938 0.124738 0.0546624 0.503 -1.7561 1.1198 
600.11 50.0005 14.1428 14.1428 1.94389e-05 -0.00184273 0.0984639 0.0546624 0.0003 0.772816 2.47866 
600.11 46.4551 14.2875 14.3323 -0.10771 1.51915 1.97626e-323 1.39979 0.0003 -4.19488 0.517112 
600.11 47.5349 14.2432 14.2457 -0.00661208 -0.242226 0.128734 0.0546624 0.503 -3.22281 -1.41475 
600.11 46.4601 14.2874 14.3687 -0.16801 1.49016 1.97626e-323 1.39979 0.0003 -1.93319 -0.747889 
600.11 49.9919 14.1432 14.143 0.000289086 0.00118489 1.16022e-45 1.39979 0.0003 -1.84971 -2.51711 
600.11 49.3502 14.1692 14.1762 -0.0137798 0.352312 1.97626e-323 1.39979 0.0003 -3.07198 1.83123 
600.11 50 14.1429 14.1429 -2.27262e-08 -0.00184294 0.0985533 0.0546624 0.0003 1.24932 -3.57946 
600.11 49.1291 14.1782 14.1905 -0.0246866 0.525929 1.97626e-323 1.39979 0.0003 -3.42244 -1.70094 
600.11 39.1839 14.5938 14.4923 0.204668 3.66353 1.97626e-323 1.39979 0.0003 -3.62038 -0.466193 
600.11 50.001 14.1428 14.1428 2.74042e-05 -0.000606871 0.0984268 0.0546624 0.0003 1.27897 2.74827 
600.11 49.4658 14.1645 14.1559 0.0159359 0.100824 1.78425e-207 1.39979 0.0003 -2.81219 -1.87462 
600.11 49.9072 14.1466 14.1462 0.000290553 0.00735153 1.21365e-109 1.39979 0.0003 -2.1473 -2.13008 
600.11 48.0801 14.2209 14.2276 -0.0166889 0.199095 1.97626e-323 1.39979 0.0003 -3.04442 1.51478 
600.11 45.4318 14.33 14.3701 -0.0782154 2.28708 1.97626e-323 1.39979 0.0003 -2.47569 -1.0828 
600.11 49.8973 14.147 14.1459 0.00193842 -0.0519707 0.0898333 0.0546624 0.0003 -0.751686 0.331831 
600.11 49.9595 14.1445 14.1446 -0.00016953 -0.0175424 0.099351 0.0546624 0.503 -0.535233 -0.00393003 
600.11 48.826 14.1905 14.1962 -0.0107853 0.595259 1.97626e-323 1.39979 0.0003 -1.53364 -0.792827 
600.11 49.4705 14.1643 14.1605 0.00570315 -0.245516 0.0738316 0.0546624 0.0003 -2.70926 -1.86379 
